<?xml version="1.0"?>
<MethodSetup Method="BDT::BDTD">
  <GeneralInfo>
    <Info name="TMVA Release" value="4.2.1 [262657]"/>
    <Info name="ROOT Release" value="6.30/08 [400904]"/>
    <Info name="Creator" value="zinchenk"/>
    <Info name="Date" value="Thu Jul 17 17:16:43 2025"/>
    <Info name="Host" value="Linux buildkitsandbox 4.15.0-200-generic #211-Ubuntu SMP Thu Nov 24 18:16:04 UTC 2022 x86_64 x86_64 x86_64 GNU/Linux"/>
    <Info name="Dir" value="/data2/zinchenk/TMVA/VectorFinder/2025"/>
    <Info name="Training events" value="213837"/>
    <Info name="TrainingTime" value="1.59710720e+02"/>
    <Info name="AnalysisType" value="Classification"/>
  </GeneralInfo>
  <Options>
    <Option name="V" modified="Yes">False</Option>
    <Option name="VerbosityLevel" modified="No">Default</Option>
    <Option name="VarTransform" modified="Yes">Decorrelate</Option>
    <Option name="H" modified="Yes">False</Option>
    <Option name="CreateMVAPdfs" modified="No">False</Option>
    <Option name="IgnoreNegWeightsInTraining" modified="No">False</Option>
    <Option name="NTrees" modified="Yes">400</Option>
    <Option name="MaxDepth" modified="Yes">5</Option>
    <Option name="MinNodeSize" modified="Yes">5%</Option>
    <Option name="nCuts" modified="Yes">20</Option>
    <Option name="BoostType" modified="Yes">AdaBoost</Option>
    <Option name="AdaBoostR2Loss" modified="No">quadratic</Option>
    <Option name="UseBaggedBoost" modified="No">False</Option>
    <Option name="Shrinkage" modified="No">1.000000e+00</Option>
    <Option name="AdaBoostBeta" modified="No">5.000000e-01</Option>
    <Option name="UseRandomisedTrees" modified="No">False</Option>
    <Option name="UseNvars" modified="No">4</Option>
    <Option name="UsePoissonNvars" modified="No">True</Option>
    <Option name="BaggedSampleFraction" modified="No">6.000000e-01</Option>
    <Option name="UseYesNoLeaf" modified="No">True</Option>
    <Option name="NegWeightTreatment" modified="No">inverseboostnegweights</Option>
    <Option name="Css" modified="No">1.000000e+00</Option>
    <Option name="Cts_sb" modified="No">1.000000e+00</Option>
    <Option name="Ctb_ss" modified="No">1.000000e+00</Option>
    <Option name="Cbb" modified="No">1.000000e+00</Option>
    <Option name="NodePurityLimit" modified="No">5.000000e-01</Option>
    <Option name="SeparationType" modified="Yes">giniindex</Option>
    <Option name="RegressionLossFunctionBDTG" modified="No">huber</Option>
    <Option name="HuberQuantile" modified="No">7.000000e-01</Option>
    <Option name="DoBoostMonitor" modified="No">False</Option>
    <Option name="UseFisherCuts" modified="No">False</Option>
    <Option name="MinLinCorrForFisher" modified="No">8.000000e-01</Option>
    <Option name="UseExclusiveVars" modified="No">False</Option>
    <Option name="DoPreselection" modified="No">False</Option>
    <Option name="SigToBkgFraction" modified="No">1.000000e+00</Option>
    <Option name="PruneMethod" modified="No">nopruning</Option>
    <Option name="PruneStrength" modified="No">0.000000e+00</Option>
    <Option name="PruningValFraction" modified="No">5.000000e-01</Option>
    <Option name="SkipNormalization" modified="No">False</Option>
    <Option name="nEventsMin" modified="No">0</Option>
    <Option name="UseBaggedGrad" modified="No">False</Option>
    <Option name="GradBaggingFraction" modified="No">6.000000e-01</Option>
    <Option name="UseNTrainEvents" modified="No">0</Option>
    <Option name="NNodesMax" modified="No">0</Option>
  </Options>
  <Variables NVar="15">
    <Variable VarIndex="0" Expression="atan2(yb,xb)" Label="atan2(yb,xb)" Title="phib" Unit="" Internal="atan2_yb,xb_" Type="F" Min="-3.14154363e+00" Max="3.14155388e+00"/>
    <Variable VarIndex="1" Expression="tx" Label="tx" Title="tx" Unit="" Internal="tx" Type="F" Min="-6.88587368e-01" Max="7.57919490e-01"/>
    <Variable VarIndex="2" Expression="log(abs(momr))" Label="log(abs(momr))" Title="momr" Unit="" Internal="log_abs_momr__" Type="F" Min="-2.32066393e+00" Max="9.21033478e+00"/>
    <Variable VarIndex="3" Expression="chi2" Label="chi2" Title="chi2" Unit="" Internal="chi2" Type="F" Min="2.99475098e-04" Max="4.99979448e+00"/>
    <Variable VarIndex="4" Expression="corrq[0]" Label="corrq[0]" Title="corrq_0" Unit="" Internal="corrq_0_" Type="F" Min="-9.94724095e-01" Max="9.93190169e-01"/>
    <Variable VarIndex="5" Expression="corrq[1]" Label="corrq[1]" Title="corrq_1" Unit="" Internal="corrq_1_" Type="F" Min="-9.92630303e-01" Max="9.94466841e-01"/>
    <Variable VarIndex="6" Expression="corrq[2]" Label="corrq[2]" Title="corrq_2" Unit="" Internal="corrq_2_" Type="F" Min="-9.96008873e-01" Max="9.95892227e-01"/>
    <Variable VarIndex="7" Expression="corrq[3]" Label="corrq[3]" Title="corrq_3" Unit="" Internal="corrq_3_" Type="F" Min="-9.97883677e-01" Max="9.97353375e-01"/>
    <Variable VarIndex="8" Expression="corrq3" Label="corrq3" Title="corrQ" Unit="" Internal="corrq3" Type="F" Min="0.00000000e+00" Max="3.48517942e+00"/>
    <Variable VarIndex="9" Expression="nseqmx" Label="nseqmx" Title="nseqmx" Unit="" Internal="nseqmx" Type="F" Min="2.00000000e+00" Max="4.00000000e+00"/>
    <Variable VarIndex="10" Expression="corrn[0]" Label="corrn[0]" Title="over0" Unit="" Internal="corrn_0_" Type="F" Min="0.00000000e+00" Max="1.10000000e+01"/>
    <Variable VarIndex="11" Expression="corrn[1]" Label="corrn[1]" Title="over1" Unit="" Internal="corrn_1_" Type="F" Min="0.00000000e+00" Max="1.10000000e+01"/>
    <Variable VarIndex="12" Expression="corrn[2]" Label="corrn[2]" Title="over2" Unit="" Internal="corrn_2_" Type="F" Min="0.00000000e+00" Max="1.90000000e+01"/>
    <Variable VarIndex="13" Expression="corrn[3]" Label="corrn[3]" Title="over3" Unit="" Internal="corrn_3_" Type="F" Min="0.00000000e+00" Max="1.50000000e+01"/>
    <Variable VarIndex="14" Expression="nsigem" Label="nsigem" Title="nsigem" Unit="" Internal="nsigem" Type="F" Min="4.00000000e+00" Max="4.00000000e+01"/>
  </Variables>
  <Spectators NSpec="0"/>
  <Classes NClass="2">
    <Class Name="Signal" Index="0"/>
    <Class Name="Background" Index="1"/>
  </Classes>
  <Transformations NTransformations="1">
    <Transform Name="Decorrelation">
      <Selection>
        <Input NInputs="15">
          <Input Type="Variable" Label="atan2(yb,xb)" Expression="atan2(yb,xb)"/>
          <Input Type="Variable" Label="tx" Expression="tx"/>
          <Input Type="Variable" Label="log(abs(momr))" Expression="log(abs(momr))"/>
          <Input Type="Variable" Label="chi2" Expression="chi2"/>
          <Input Type="Variable" Label="corrq[0]" Expression="corrq[0]"/>
          <Input Type="Variable" Label="corrq[1]" Expression="corrq[1]"/>
          <Input Type="Variable" Label="corrq[2]" Expression="corrq[2]"/>
          <Input Type="Variable" Label="corrq[3]" Expression="corrq[3]"/>
          <Input Type="Variable" Label="corrq3" Expression="corrq3"/>
          <Input Type="Variable" Label="nseqmx" Expression="nseqmx"/>
          <Input Type="Variable" Label="corrn[0]" Expression="corrn[0]"/>
          <Input Type="Variable" Label="corrn[1]" Expression="corrn[1]"/>
          <Input Type="Variable" Label="corrn[2]" Expression="corrn[2]"/>
          <Input Type="Variable" Label="corrn[3]" Expression="corrn[3]"/>
          <Input Type="Variable" Label="nsigem" Expression="nsigem"/>
        </Input>
        <Output NOutputs="15">
          <Output Type="Variable" Label="atan2(yb,xb)" Expression="atan2(yb,xb)"/>
          <Output Type="Variable" Label="tx" Expression="tx"/>
          <Output Type="Variable" Label="log(abs(momr))" Expression="log(abs(momr))"/>
          <Output Type="Variable" Label="chi2" Expression="chi2"/>
          <Output Type="Variable" Label="corrq[0]" Expression="corrq[0]"/>
          <Output Type="Variable" Label="corrq[1]" Expression="corrq[1]"/>
          <Output Type="Variable" Label="corrq[2]" Expression="corrq[2]"/>
          <Output Type="Variable" Label="corrq[3]" Expression="corrq[3]"/>
          <Output Type="Variable" Label="corrq3" Expression="corrq3"/>
          <Output Type="Variable" Label="nseqmx" Expression="nseqmx"/>
          <Output Type="Variable" Label="corrn[0]" Expression="corrn[0]"/>
          <Output Type="Variable" Label="corrn[1]" Expression="corrn[1]"/>
          <Output Type="Variable" Label="corrn[2]" Expression="corrn[2]"/>
          <Output Type="Variable" Label="corrn[3]" Expression="corrn[3]"/>
          <Output Type="Variable" Label="nsigem" Expression="nsigem"/>
        </Output>
      </Selection>
      <Matrix Rows="15" Columns="15">
        6.803927159893678e-01 -2.732510790269847e-02 3.162396768416349e-03 -7.199057733425194e-03 5.759139432086207e-03 1.639934642356174e-03 -6.694778394984059e-03 -9.507238966292032e-03 -3.611249558526763e-03 -1.079541717648012e-02 -5.201401924695052e-04 1.933424873483278e-03 3.471960103830941e-04 -1.322820467448635e-02 8.045684840056059e-04 -2.732510790269848e-02 4.624230745489410e+00 6.124086971256685e-02 -4.230358660673659e-02 -3.875581205688972e-02 -6.242278748284349e-02 -8.379603714061999e-02 -7.012978580638232e-02 -1.802872972189545e-01 -4.774111168889000e-02 -4.968563430963058e-02 -2.007251493826007e-02 1.447125135804299e-02 1.333496277038173e-01 -3.728057903490132e-03 3.162396768416350e-03 6.124086971256685e-02 1.192565801095592e+00 1.925726796748320e-02 2.186808475497617e-02 9.566687302077742e-03 -2.082046374300896e-03 1.057860710668941e-02 -1.808689321759829e-02 -1.494183193799217e-02 1.205813376175523e-02 2.001664492852737e-02 2.748246721596324e-02 -3.293518776522555e-02 4.227478474128213e-02 -7.199057733425193e-03 -4.230358660673660e-02 1.925726796748321e-02 1.001005106285414e+00 -2.010001432014068e-02 -8.850898599741957e-03 -1.537879395067415e-02 -2.861829036346094e-02 -1.694924542484659e-01 1.512779337147525e-02 -4.742373070772821e-02 -2.429398343050921e-02 -1.420039353094937e-02 -5.135889164971136e-02 -7.025494979716171e-03 5.759139432086204e-03 -3.875581205688972e-02 2.186808475497617e-02 -2.010001432014068e-02 4.746271694166747e+00 -5.831372551631481e-03 1.640675213002662e-02 2.993151874093014e-02 1.020470256600001e-01 2.032410692148967e-02 -4.110828442229482e-02 -3.107054108321646e-02 -3.483999098431531e-02 -1.508479552040732e-02 -2.095136158728586e-02 1.639934642356175e-03 -6.242278748284356e-02 9.566687302077744e-03 -8.850898599741940e-03 -5.831372551631451e-03 5.585658295344957e+00 1.574331104945136e-02 1.905694220507112e-02 1.978306212994644e-01 4.628211600534789e-02 -1.885959521636030e-02 -4.211575450165669e-02 -3.031642797511723e-02 -2.127122435209278e-02 -2.505410434764706e-02 -6.694778394984061e-03 -8.379603714061999e-02 -2.082046374300900e-03 -1.537879395067413e-02 1.640675213002664e-02 1.574331104945178e-02 5.473945081821649e+00 4.337774912262234e-03 1.788384949180251e-01 -1.692041466917137e-02 -3.455533131343941e-02 -2.154107682566326e-03 -4.009448236113863e-02 -2.295988239626121e-02 -2.330561229614705e-02 -9.507238966292030e-03 -7.012978580638225e-02 1.057860710668941e-02 -2.861829036346093e-02 2.993151874093013e-02 1.905694220507111e-02 4.337774912262231e-03 4.214702073734340e+00 1.381234901009979e-01 -3.195164346734898e-02 -2.035765528158295e-02 -2.016681615799636e-02 -1.457033188786614e-02 -3.862451162518628e-02 -6.088610319596542e-03 -3.611249558526765e-03 -1.802872972189544e-01 -1.808689321759829e-02 -1.694924542484658e-01 1.020470256600002e-01 1.978306212994645e-01 1.788384949180251e-01 1.381234901009981e-01 3.426277116854375e+00 1.867472056604835e-02 -1.503904167737038e-01 -1.475307108861711e-01 -1.553508458994320e-01 -1.367027762034127e-01 2.978409122849811e-02 -1.079541717648012e-02 -4.774111168889000e-02 -1.494183193799217e-02 1.512779337147524e-02 2.032410692148967e-02 4.628211600534786e-02 -1.692041466917137e-02 -3.195164346734897e-02 1.867472056604833e-02 1.459487840138081e+00 -1.469259023247510e-03 3.408665752500883e-02 3.465972807785086e-02 3.917142081033344e-02 2.402299052062833e-02 -5.201401924695056e-04 -4.968563430963059e-02 1.205813376175523e-02 -4.742373070772819e-02 -4.110828442229483e-02 -1.885959521636030e-02 -3.455533131343943e-02 -2.035765528158296e-02 -1.503904167737038e-01 -1.469259023247486e-03 1.669566811404574e+00 -9.748781928145187e-02 -3.571185796339513e-02 -1.567737811563944e-02 1.345745150675902e-02 1.933424873483278e-03 -2.007251493826006e-02 2.001664492852737e-02 -2.429398343050921e-02 -3.107054108321645e-02 -4.211575450165670e-02 -2.154107682566319e-03 -2.016681615799637e-02 -1.475307108861711e-01 3.408665752500883e-02 -9.748781928145188e-02 2.061797744648289e+00 -8.178907638290583e-02 -3.622669028930064e-02 7.697503443129171e-03 3.471960103830953e-04 1.447125135804297e-02 2.748246721596324e-02 -1.420039353094937e-02 -3.483999098431532e-02 -3.031642797511724e-02 -4.009448236113862e-02 -1.457033188786614e-02 -1.553508458994319e-01 3.465972807785084e-02 -3.571185796339509e-02 -8.178907638290583e-02 2.245869813303975e+00 -9.743677918834008e-02 1.015648193245900e-03 -1.322820467448635e-02 1.333496277038173e-01 -3.293518776522555e-02 -5.135889164971136e-02 -1.508479552040731e-02 -2.127122435209279e-02 -2.295988239626122e-02 -3.862451162518628e-02 -1.367027762034128e-01 3.917142081033346e-02 -1.567737811563945e-02 -3.622669028930064e-02 -9.743677918833996e-02 1.882787810780531e+00 -1.766246424505300e-02 8.045684840056060e-04 -3.728057903490131e-03 4.227478474128214e-02 -7.025494979716173e-03 -2.095136158728585e-02 -2.505410434764706e-02 -2.330561229614704e-02 -6.088610319596541e-03 2.978409122849810e-02 2.402299052062834e-02 1.345745150675903e-02 7.697503443129173e-03 1.015648193245898e-03 -1.766246424505300e-02 8.188381902006114e-02 
      </Matrix>
      <Matrix Rows="15" Columns="15">
        5.300247338944385e-01 -4.991845452383976e-03 1.325120746605641e-02 1.470463498765100e-04 3.069316801607205e-03 -7.777341288031680e-04 -1.263363113594146e-03 -1.928933238826148e-04 -9.345697367501958e-03 2.211476559248363e-03 -1.919825970659502e-03 9.535632824756595e-03 4.741013839454727e-03 -2.729210706142762e-03 6.437012365861115e-03 -4.991845452383974e-03 5.697692931096825e+00 -7.443542469127963e-02 -3.606443811053556e-03 2.415701339842564e-03 -7.384003169543988e-03 -3.270114982538826e-02 -3.649002889494034e-02 -6.521159541058089e-02 -1.071571246017831e-01 -3.942113203809143e-02 -1.472864763794916e-02 2.072600505170204e-02 8.520207709750563e-02 9.940278152436399e-03 1.325120746605642e-02 -7.443542469127964e-02 1.029505027161358e+00 -5.667111630646290e-02 1.319649683955704e-03 -1.969825869336025e-03 6.418419963035592e-03 4.430404888756540e-03 1.279741913497454e-02 3.096893638307138e-02 1.949261276655101e-03 -4.148564901325372e-03 -1.451491471653976e-02 1.058643687284587e-03 4.101449368179932e-02 1.470463498765096e-04 -3.606443811053552e-03 -5.667111630646295e-02 8.521748463757317e-01 7.952633714793017e-03 8.076262443041814e-04 1.155051832084251e-03 8.574198775570590e-04 7.533533445634362e-03 1.857367404283552e-03 2.484457162067503e-02 4.067677414346883e-02 3.583569513858834e-02 2.394648119919150e-02 -4.032926816860277e-03 3.069316801607207e-03 2.415701339842565e-03 1.319649683955705e-03 7.952633714793017e-03 2.887775104739675e+00 -4.109045528575164e-03 4.924417369695822e-03 -1.211134200506400e-03 2.327025795157071e-02 7.122782112548803e-03 1.526837904209917e-02 -1.416815702229581e-02 -1.397939920421258e-02 -8.201437789540898e-04 -9.395719701694208e-03 -7.777341288031675e-04 -7.384003169543988e-03 -1.969825869336022e-03 8.076262443041798e-04 -4.109045528575163e-03 2.605497692880835e+00 -4.933371796721211e-03 -1.764724042422650e-03 4.415027518822584e-02 1.343878614132080e-02 -5.046607323334075e-03 8.786222451284048e-03 -9.328546923251902e-03 -2.441471364809691e-03 -9.111030623687021e-03 -1.263363113594146e-03 -3.270114982538826e-02 6.418419963035596e-03 1.155051832084251e-03 4.924417369695823e-03 -4.933371796721206e-03 2.387289321700848e+00 4.600268737826367e-03 4.560370560938761e-02 -6.909601875374232e-03 -7.191036931135812e-03 -5.079334567334731e-03 1.090200577409150e-02 -2.394454318228120e-03 -5.559148421326403e-03 -1.928933238826148e-04 -3.649002889494035e-02 4.430404888756540e-03 8.574198775570591e-04 -1.211134200506399e-03 -1.764724042422633e-03 4.600268737826369e-03 2.221249648843822e+00 4.070888256696109e-02 -6.923225964403115e-03 -2.964137978858533e-03 -2.404866244147897e-03 -3.033969015478505e-03 2.774304587064459e-03 -3.339483916610849e-04 -9.345697367501958e-03 -6.521159541058089e-02 1.279741913497454e-02 7.533533445634358e-03 2.327025795157073e-02 4.415027518822585e-02 4.560370560938762e-02 4.070888256696110e-02 2.038536496375373e+00 6.629304202154639e-04 -3.109970969070605e-02 -3.217226110183325e-02 -3.047706557463568e-02 -3.181695474563252e-02 3.230626077781908e-02 2.211476559248362e-03 -1.071571246017831e-01 3.096893638307136e-02 1.857367404283563e-03 7.122782112548805e-03 1.343878614132080e-02 -6.909601875374232e-03 -6.923225964403116e-03 6.629304202154657e-04 1.299957196179152e+00 -1.570315888634155e-03 -5.898225415804214e-03 2.327937816188662e-02 1.916213204714221e-02 1.584254783498703e-02 -1.919825970659503e-03 -3.942113203809140e-02 1.949261276655116e-03 2.484457162067502e-02 1.526837904209918e-02 -5.046607323334076e-03 -7.191036931135810e-03 -2.964137978858532e-03 -3.109970969070608e-02 -1.570315888634162e-03 1.008664869079596e+00 5.849969064964255e-02 8.443806162338814e-02 6.582188590273967e-02 2.087189007649379e-02 9.535632824756599e-03 -1.472864763794916e-02 -4.148564901325399e-03 4.067677414346883e-02 -1.416815702229581e-02 8.786222451284050e-03 -5.079334567334729e-03 -2.404866244147898e-03 -3.217226110183324e-02 -5.898225415804227e-03 5.849969064964257e-02 9.385640513083719e-01 5.712079660541580e-02 6.617174713540219e-02 1.583153343608760e-02 4.741013839454727e-03 2.072600505170205e-02 -1.451491471653978e-02 3.583569513858835e-02 -1.397939920421258e-02 -9.328546923251900e-03 1.090200577409150e-02 -3.033969015478505e-03 -3.047706557463568e-02 2.327937816188662e-02 8.443806162338814e-02 5.712079660541582e-02 9.318524553559253e-01 3.059872783358547e-02 -2.027980703166147e-03 -2.729210706142761e-03 8.520207709750566e-02 1.058643687284573e-03 2.394648119919150e-02 -8.201437789540880e-04 -2.441471364809690e-03 -2.394454318228119e-03 2.774304587064459e-03 -3.181695474563252e-02 1.916213204714221e-02 6.582188590273969e-02 6.617174713540222e-02 3.059872783358542e-02 1.034302477901559e+00 -2.646136218002544e-02 6.437012365861112e-03 9.940278152436408e-03 4.101449368179932e-02 -4.032926816860275e-03 -9.395719701694208e-03 -9.111030623687023e-03 -5.559148421326403e-03 -3.339483916610845e-04 3.230626077781908e-02 1.584254783498703e-02 2.087189007649379e-02 1.583153343608760e-02 -2.027980703166146e-03 -2.646136218002544e-02 9.537979162895807e-02 
      </Matrix>
      <Matrix Rows="15" Columns="15">
        5.923234164683138e-01 -1.422966902485852e-02 1.226360950817914e-02 -5.649042991731610e-03 2.851842480057563e-03 -1.321178384446331e-03 -3.793232529893279e-03 -3.711445439906856e-03 -1.667482039635874e-02 1.367983838434131e-03 -6.951910618724675e-03 2.227598204879461e-03 -1.823641756067083e-04 -7.065484044890906e-03 3.310891798254235e-03 -1.422966902485853e-02 4.979351420723106e+00 -2.844483338920768e-02 -9.780246304519707e-03 -1.102140253252102e-02 -1.586610227993531e-02 -3.701278542671708e-02 -3.775330646251728e-02 -3.579137685296434e-02 -9.598311703869064e-02 -2.310360251631869e-02 9.132084334898465e-03 5.174945163339703e-02 1.361899309809789e-01 5.814264774097959e-05 1.226360950817915e-02 -2.844483338920768e-02 1.070031176451627e+00 1.954609347798949e-03 1.490688359544070e-02 8.020533167987912e-03 1.125790643949960e-02 1.306412381699005e-02 7.961402755005040e-02 -2.267060506642933e-02 3.975652402211732e-02 4.532305227240715e-02 3.986679766149152e-02 3.677969536652649e-02 4.172688097181889e-02 -5.649042991731618e-03 -9.780246304519707e-03 1.954609347798894e-03 8.815395120795925e-01 -7.712263177858124e-03 -8.140962639252590e-03 -9.088107241591630e-03 -1.407260055360520e-02 -1.180610052622791e-01 4.401523034908002e-02 -3.641047601918735e-02 -2.334943842800382e-02 -2.405414340031071e-02 -3.697154660477226e-02 -6.411671910752671e-03 2.851842480057563e-03 -1.102140253252101e-02 1.490688359544069e-02 -7.712263177858121e-03 3.505789007573305e+00 -8.991590829507451e-03 2.743958199619300e-03 1.670698122422500e-04 1.360651740432337e-02 2.116635836883776e-02 -6.233118138285233e-03 -3.366569621122496e-02 -3.103485434427545e-02 -1.080047108406711e-02 -1.415297184418419e-02 -1.321178384446330e-03 -1.586610227993530e-02 8.020533167987912e-03 -8.140962639252586e-03 -8.991590829507429e-03 3.364344432335445e+00 -7.943540823630892e-03 -3.191628882976415e-03 4.505035737844574e-02 3.188478021461658e-02 -1.940015994386842e-02 -8.783173550877436e-03 -2.487103398344520e-02 -1.263170760536329e-02 -1.405520490478978e-02 -3.793232529893280e-03 -3.701278542671707e-02 1.125790643949960e-02 -9.088107241591637e-03 2.743958199619292e-03 -7.943540823630888e-03 3.118419221414686e+00 9.429578008953428e-04 4.027061352910088e-02 9.965564139494208e-04 -2.443339943274817e-02 -2.118311291872994e-02 -2.516963559246362e-03 -1.154728309248092e-02 -1.101062672861575e-02 -3.711445439906855e-03 -3.775330646251728e-02 1.306412381699005e-02 -1.407260055360521e-02 1.670698122422473e-04 -3.191628882976416e-03 9.429578008953394e-04 2.796453213030752e+00 3.361765431216995e-02 -3.781460581698036e-03 -1.827619714299504e-02 -1.973758414126382e-02 -1.736438314649530e-02 -1.123908286274601e-02 -2.761645778605233e-03 -1.667482039635873e-02 -3.579137685296435e-02 7.961402755005041e-02 -1.180610052622791e-01 1.360651740432338e-02 4.505035737844573e-02 4.027061352910088e-02 3.361765431216991e-02 2.252129823704708e+00 1.004985375334927e-01 -1.618727923439657e-01 -1.823049411625691e-01 -1.711199414304281e-01 -1.503201186467626e-01 2.845613187328447e-02 1.367983838434134e-03 -9.598311703869067e-02 -2.267060506642934e-02 4.401523034908002e-02 2.116635836883774e-02 3.188478021461658e-02 9.965564139494225e-04 -3.781460581698041e-03 1.004985375334927e-01 1.330260589795461e+00 4.415114672503269e-02 5.924418728948658e-02 8.025770508785073e-02 6.754075811794387e-02 2.101274599215568e-02 -6.951910618724678e-03 -2.310360251631868e-02 3.975652402211731e-02 -3.641047601918734e-02 -6.233118138285231e-03 -1.940015994386843e-02 -2.443339943274817e-02 -1.827619714299504e-02 -1.618727923439657e-01 4.415114672503266e-02 1.171274261025187e+00 -2.268220154705200e-02 2.071140122646154e-02 1.281414650690051e-02 1.551365216161489e-02 2.227598204879458e-03 9.132084334898467e-03 4.532305227240723e-02 -2.334943842800381e-02 -3.366569621122496e-02 -8.783173550877429e-03 -2.118311291872994e-02 -1.973758414126381e-02 -1.823049411625690e-01 5.924418728948655e-02 -2.268220154705186e-02 1.134827690413615e+00 -1.958330345053224e-02 5.304043973419385e-03 1.012612230119038e-02 -1.823641756067081e-04 5.174945163339702e-02 3.986679766149157e-02 -2.405414340031070e-02 -3.103485434427545e-02 -2.487103398344520e-02 -2.516963559246364e-03 -1.736438314649529e-02 -1.711199414304281e-01 8.025770508785064e-02 2.071140122646158e-02 -1.958330345053231e-02 1.150245376478548e+00 -4.830003835465083e-02 -1.463519051892923e-03 -7.065484044890909e-03 1.361899309809789e-01 3.677969536652648e-02 -3.697154660477226e-02 -1.080047108406713e-02 -1.263170760536328e-02 -1.154728309248092e-02 -1.123908286274600e-02 -1.503201186467626e-01 6.754075811794381e-02 1.281414650690050e-02 5.304043973419412e-03 -4.830003835465085e-02 1.216965079964863e+00 -2.051552054728992e-02 3.310891798254236e-03 5.814264774097952e-05 4.172688097181888e-02 -6.411671910752668e-03 -1.415297184418419e-02 -1.405520490478978e-02 -1.101062672861575e-02 -2.761645778605235e-03 2.845613187328446e-02 2.101274599215568e-02 1.551365216161489e-02 1.012612230119038e-02 -1.463519051892923e-03 -2.051552054728991e-02 8.725102848658070e-02 
      </Matrix>
    </Transform>
  </Transformations>
  <MVAPdfs/>
  <Weights NTrees="400" AnalysisType="0">
    <BinaryTree type="DecisionTree" boostWeight="8.1146781326209738e-01" itree="0">
      <Node pos="s" depth="0" NCoef="0" IVar="12" Cut="3.1012549996376038e-01" cType="1" res="-9.9000000000000000e+01" rms="0.0000000000000000e+00" purity="5.0000000000000000e-01" nType="0">
        <Node pos="l" depth="1" NCoef="0" IVar="12" Cut="5.1700472831726074e-03" cType="0" res="-9.9000000000000000e+01" rms="0.0000000000000000e+00" purity="6.4358144998550415e-01" nType="0">
          <Node pos="l" depth="2" NCoef="0" IVar="-1" Cut="9.6169829368591309e-01" cType="1" res="-9.9000000000000000e+01" rms="0.0000000000000000e+00" purity="8.5796630382537842e-01" nType="1"/>
          <Node pos="r" depth="2" NCoef="0" IVar="-1" Cut="-6.7437708377838135e-02" cType="0" res="-9.9000000000000000e+01" rms="0.0000000000000000e+00" purity="2.1351999044418335e-01" nType="-1"/>
        </Node>
        <Node pos="r" depth="1" NCoef="0" IVar="9" Cut="5.1771559715270996e+00" cType="0" res="-9.9000000000000000e+01" rms="0.0000000000000000e+00" purity="1.9940587878227234e-01" nType="0">
          <Node pos="l" depth="2" NCoef="0" IVar="9" Cut="5.8362698554992676e+00" cType="1" res="-9.9000000000000000e+01" rms="0.0000000000000000e+00" purity="3.7550911307334900e-01" nType="0">
            <Node pos="l" depth="3" NCoef="0" IVar="-1" Cut="0.0000000000000000e+00" cType="1" res="-9.9000000000000000e+01" rms="0.0000000000000000e+00" purity="6.0864710807800293e-01" nType="1"/>
            <Node pos="r" depth="3" NCoef="0" IVar="-1" Cut="0.0000000000000000e+00" cType="1" res="-9.9000000000000000e+01" rms="0.0000000000000000e+00" purity="1.6599844396114349e-01" nType="-1"/>
          </Node>
          <Node pos="r" depth="2" NCoef="0" IVar="-1" Cut="2.1295666694641113e+00" cType="1" res="-9.9000000000000000e+01" rms="0.0000000000000000e+00" purity="1.0158088803291321e-01" nType="-1"/>
        </Node>
      </Node>
    </BinaryTree>
    <BinaryTree type="DecisionTree" boostWeight="5.9652959636127378e-01" itree="1">
      <Node pos="s" depth="0" NCoef="0" IVar="11" Cut="6.6055995225906372e-01" cType="1" res="-9.9000000000000000e+01" rms="0.0000000000000000e+00" purity="4.9675559997558594e-01" nType="0">
        <Node pos="l" depth="1" NCoef="0" IVar="11" Cut="6.9322399795055389e-02" cType="0" res="-9.9000000000000000e+01" rms="0.0000000000000000e+00" purity="6.2640899419784546e-01" nType="0">
          <Node pos="l" depth="2" NCoef="0" IVar="12" Cut="5.4441231489181519e-01" cType="1" res="-9.9000000000000000e+01" rms="0.0000000000000000e+00" purity="7.5342595577239990e-01" nType="0">
            <Node pos="l" depth="3" NCoef="0" IVar="-1" Cut="9.0863585472106934e-02" cType="0" res="-9.9000000000000000e+01" rms="0.0000000000000000e+00" purity="8.2515883445739746e-01" nType="1"/>
            <Node pos="r" depth="3" NCoef="0" IVar="-1" Cut="0.0000000000000000e+00" cType="1" res="-9.9000000000000000e+01" rms="0.0000000000000000e+00" purity="4.5570826530456543e-01" nType="-1"/>
          </Node>
          <Node pos="r" depth="2" NCoef="0" IVar="-1" Cut="3.6268913745880127e-01" cType="1" res="-9.9000000000000000e+01" rms="0.0000000000000000e+00" purity="2.6946690678596497e-01" nType="-1"/>
        </Node>
        <Node pos="r" depth="1" NCoef="0" IVar="-1" Cut="2.6611464023590088e+00" cType="1" res="-9.9000000000000000e+01" rms="0.0000000000000000e+00" purity="2.1722188591957092e-01" nType="-1"/>
      </Node>
    </BinaryTree>
    <BinaryTree type="DecisionTree" boostWeight="4.8278360950335591e-01" itree="2">
      <Node pos="s" depth="0" NCoef="0" IVar="10" Cut="7.4595367908477783e-01" cType="1" res="-9.9000000000000000e+01" rms="0.0000000000000000e+00" purity="5.2837848663330078e-01" nType="0">
        <Node pos="l" depth="1" NCoef="0" IVar="13" Cut="1.9538836181163788e-01" cType="1" res="-9.9000000000000000e+01" rms="0.0000000000000000e+00" purity="6.2348037958145142e-01" nType="0">
          <Node pos="l" depth="2" NCoef="0" IVar="11" Cut="5.4447162151336670e-01" cType="1" res="-9.9000000000000000e+01" rms="0.0000000000000000e+00" purity="7.4682301282882690e-01" nType="0">
            <Node pos="l" depth="3" NCoef="0" IVar="-1" Cut="1.0010249614715576e+00" cType="1" res="-9.9000000000000000e+01" rms="0.0000000000000000e+00" purity="8.2523328065872192e-01" nType="1"/>
            <Node pos="r" depth="3" NCoef="0" IVar="1" Cut="8.0293633043766022e-02" cType="0" res="-9.9000000000000000e+01" rms="0.0000000000000000e+00" purity="5.0667262077331543e-01" nType="0">
              <Node pos="l" depth="4" NCoef="0" IVar="-1" Cut="0.0000000000000000e+00" cType="1" res="-9.9000000000000000e+01" rms="0.0000000000000000e+00" purity="5.5684560537338257e-01" nType="1"/>
              <Node pos="r" depth="4" NCoef="0" IVar="-1" Cut="0.0000000000000000e+00" cType="1" res="-9.9000000000000000e+01" rms="0.0000000000000000e+00" purity="4.4872793555259705e-01" nType="-1"/>
            </Node>
          </Node>
          <Node pos="r" depth="2" NCoef="0" IVar="2" Cut="1.0473165512084961e+00" cType="0" res="-9.9000000000000000e+01" rms="0.0000000000000000e+00" purity="3.7364196777343750e-01" nType="0">
            <Node pos="l" depth="3" NCoef="0" IVar="-1" Cut="0.0000000000000000e+00" cType="1" res="-9.9000000000000000e+01" rms="0.0000000000000000e+00" purity="5.2870345115661621e-01" nType="1"/>
            <Node pos="r" depth="3" NCoef="0" IVar="-1" Cut="2.2983939647674561e+00" cType="1" res="-9.9000000000000000e+01" rms="0.0000000000000000e+00" purity="2.6092541217803955e-01" nType="-1"/>
          </Node>
        </Node>
        <Node pos="r" depth="1" NCoef="0" IVar="9" Cut="5.2247395515441895e+00" cType="0" res="-9.9000000000000000e+01" rms="0.0000000000000000e+00" purity="3.3218905329704285e-01" nType="0">
          <Node pos="l" depth="2" NCoef="0" IVar="9" Cut="5.7430305480957031e+00" cType="1" res="-9.9000000000000000e+01" rms="0.0000000000000000e+00" purity="4.6236577630043030e-01" nType="0">
            <Node pos="l" depth="3" NCoef="0" IVar="-1" Cut="0.0000000000000000e+00" cType="1" res="-9.9000000000000000e+01" rms="0.0000000000000000e+00" purity="6.4043068885803223e-01" nType="1"/>
            <Node pos="r" depth="3" NCoef="0" IVar="-1" Cut="0.0000000000000000e+00" cType="1" res="-9.9000000000000000e+01" rms="0.0000000000000000e+00" purity="3.0801770091056824e-01" nType="-1"/>
          </Node>
          <Node pos="r" depth="2" NCoef="0" IVar="-1" Cut="1.1906787157058716e+00" cType="0" res="-9.9000000000000000e+01" rms="0.0000000000000000e+00" purity="2.2359704971313477e-01" nType="-1"/>
        </Node>
      </Node>
    </BinaryTree>
    <BinaryTree type="DecisionTree" boostWeight="3.6425159655678241e-01" itree="3">
      <Node pos="s" depth="0" NCoef="0" IVar="8" Cut="2.7355563640594482e+00" cType="1" res="-9.9000000000000000e+01" rms="0.0000000000000000e+00" purity="5.1530987024307251e-01" nType="0">
        <Node pos="l" depth="1" NCoef="0" IVar="3" Cut="9.7643309831619263e-01" cType="1" res="-9.9000000000000000e+01" rms="0.0000000000000000e+00" purity="6.0987937450408936e-01" nType="0">
          <Node pos="l" depth="2" NCoef="0" IVar="13" Cut="6.7188054323196411e-01" cType="1" res="-9.9000000000000000e+01" rms="0.0000000000000000e+00" purity="7.2177851200103760e-01" nType="0">
            <Node pos="l" depth="3" NCoef="0" IVar="-1" Cut="7.9638099670410156e-01" cType="1" res="-9.9000000000000000e+01" rms="0.0000000000000000e+00" purity="7.8810036182403564e-01" nType="1"/>
            <Node pos="r" depth="3" NCoef="0" IVar="-1" Cut="0.0000000000000000e+00" cType="1" res="-9.9000000000000000e+01" rms="0.0000000000000000e+00" purity="4.9555957317352295e-01" nType="-1"/>
          </Node>
          <Node pos="r" depth="2" NCoef="0" IVar="13" Cut="6.7413824796676636e-01" cType="1" res="-9.9000000000000000e+01" rms="0.0000000000000000e+00" purity="4.6506828069686890e-01" nType="0">
            <Node pos="l" depth="3" NCoef="0" IVar="11" Cut="6.5752404928207397e-01" cType="1" res="-9.9000000000000000e+01" rms="0.0000000000000000e+00" purity="5.1461219787597656e-01" nType="0">
              <Node pos="l" depth="4" NCoef="0" IVar="-1" Cut="5.2716660499572754e+00" cType="0" res="-9.9000000000000000e+01" rms="0.0000000000000000e+00" purity="5.7847422361373901e-01" nType="1"/>
              <Node pos="r" depth="4" NCoef="0" IVar="-1" Cut="0.0000000000000000e+00" cType="1" res="-9.9000000000000000e+01" rms="0.0000000000000000e+00" purity="3.8116854429244995e-01" nType="-1"/>
            </Node>
            <Node pos="r" depth="3" NCoef="0" IVar="-1" Cut="0.0000000000000000e+00" cType="1" res="-9.9000000000000000e+01" rms="0.0000000000000000e+00" purity="3.2875838875770569e-01" nType="-1"/>
          </Node>
        </Node>
        <Node pos="r" depth="1" NCoef="0" IVar="-1" Cut="3.6874880790710449e+00" cType="1" res="-9.9000000000000000e+01" rms="0.0000000000000000e+00" purity="3.2736605405807495e-01" nType="-1"/>
      </Node>
    </BinaryTree>
    <BinaryTree type="DecisionTree" boostWeight="3.3262883661675358e-01" itree="4">
      <Node pos="s" depth="0" NCoef="0" IVar="8" Cut="3.1898860931396484e+00" cType="1" res="-9.9000000000000000e+01" rms="0.0000000000000000e+00" purity="5.2901613712310791e-01" nType="0">
        <Node pos="l" depth="1" NCoef="0" IVar="3" Cut="6.4090007543563843e-01" cType="1" res="-9.9000000000000000e+01" rms="0.0000000000000000e+00" purity="5.7784020900726318e-01" nType="0">
          <Node pos="l" depth="2" NCoef="0" IVar="-1" Cut="8.8859355449676514e-01" cType="1" res="-9.9000000000000000e+01" rms="0.0000000000000000e+00" purity="7.0046114921569824e-01" nType="1"/>
          <Node pos="r" depth="2" NCoef="0" IVar="10" Cut="1.3251163959503174e+00" cType="1" res="-9.9000000000000000e+01" rms="0.0000000000000000e+00" purity="4.8903337121009827e-01" nType="0">
            <Node pos="l" depth="3" NCoef="0" IVar="12" Cut="8.4271043539047241e-01" cType="1" res="-9.9000000000000000e+01" rms="0.0000000000000000e+00" purity="5.3145080804824829e-01" nType="0">
              <Node pos="l" depth="4" NCoef="0" IVar="-1" Cut="1.4253315329551697e-01" cType="0" res="-9.9000000000000000e+01" rms="0.0000000000000000e+00" purity="5.9712368249893188e-01" nType="1"/>
              <Node pos="r" depth="4" NCoef="0" IVar="-1" Cut="4.7111086845397949e+00" cType="0" res="-9.9000000000000000e+01" rms="0.0000000000000000e+00" purity="3.8893821835517883e-01" nType="-1"/>
            </Node>
            <Node pos="r" depth="3" NCoef="0" IVar="-1" Cut="0.0000000000000000e+00" cType="1" res="-9.9000000000000000e+01" rms="0.0000000000000000e+00" purity="3.3259242773056030e-01" nType="-1"/>
          </Node>
        </Node>
        <Node pos="r" depth="1" NCoef="0" IVar="12" Cut="7.9350578784942627e-01" cType="1" res="-9.9000000000000000e+01" rms="0.0000000000000000e+00" purity="3.3816903829574585e-01" nType="0">
          <Node pos="l" depth="2" NCoef="0" IVar="12" Cut="-9.2655785381793976e-02" cType="0" res="-9.9000000000000000e+01" rms="0.0000000000000000e+00" purity="4.1501981019973755e-01" nType="0">
            <Node pos="l" depth="3" NCoef="0" IVar="-1" Cut="0.0000000000000000e+00" cType="1" res="-9.9000000000000000e+01" rms="0.0000000000000000e+00" purity="5.4797142744064331e-01" nType="1"/>
            <Node pos="r" depth="3" NCoef="0" IVar="-1" Cut="0.0000000000000000e+00" cType="1" res="-9.9000000000000000e+01" rms="0.0000000000000000e+00" purity="2.2511865198612213e-01" nType="-1"/>
          </Node>
          <Node pos="r" depth="2" NCoef="0" IVar="-1" Cut="0.0000000000000000e+00" cType="1" res="-9.9000000000000000e+01" rms="0.0000000000000000e+00" purity="2.1626347303390503e-01" nType="-1"/>
        </Node>
      </Node>
    </BinaryTree>
    <BinaryTree type="DecisionTree" boostWeight="2.9813976859281360e-01" itree="5">
      <Node pos="s" depth="0" NCoef="0" IVar="2" Cut="1.0183873176574707e+00" cType="0" res="-9.9000000000000000e+01" rms="0.0000000000000000e+00" purity="5.0337690114974976e-01" nType="0">
        <Node pos="l" depth="1" NCoef="0" IVar="3" Cut="1.2281081676483154e+00" cType="1" res="-9.9000000000000000e+01" rms="0.0000000000000000e+00" purity="6.0549557209014893e-01" nType="0">
          <Node pos="l" depth="2" NCoef="0" IVar="-1" Cut="2.6912393569946289e+00" cType="1" res="-9.9000000000000000e+01" rms="0.0000000000000000e+00" purity="6.7934769392013550e-01" nType="1"/>
          <Node pos="r" depth="2" NCoef="0" IVar="14" Cut="6.8813717365264893e-01" cType="1" res="-9.9000000000000000e+01" rms="0.0000000000000000e+00" purity="4.9064436554908752e-01" nType="0">
            <Node pos="l" depth="3" NCoef="0" IVar="-1" Cut="0.0000000000000000e+00" cType="1" res="-9.9000000000000000e+01" rms="0.0000000000000000e+00" purity="5.5276012420654297e-01" nType="1"/>
            <Node pos="r" depth="3" NCoef="0" IVar="-1" Cut="0.0000000000000000e+00" cType="1" res="-9.9000000000000000e+01" rms="0.0000000000000000e+00" purity="4.3639418482780457e-01" nType="-1"/>
          </Node>
        </Node>
        <Node pos="r" depth="1" NCoef="0" IVar="1" Cut="6.7353534698486328e-01" cType="0" res="-9.9000000000000000e+01" rms="0.0000000000000000e+00" purity="4.2021763324737549e-01" nType="0">
          <Node pos="l" depth="2" NCoef="0" IVar="11" Cut="6.4689928293228149e-01" cType="1" res="-9.9000000000000000e+01" rms="0.0000000000000000e+00" purity="5.5449789762496948e-01" nType="0">
            <Node pos="l" depth="3" NCoef="0" IVar="-1" Cut="1.5576379001140594e-01" cType="0" res="-9.9000000000000000e+01" rms="0.0000000000000000e+00" purity="6.3055539131164551e-01" nType="1"/>
            <Node pos="r" depth="3" NCoef="0" IVar="-1" Cut="0.0000000000000000e+00" cType="1" res="-9.9000000000000000e+01" rms="0.0000000000000000e+00" purity="4.1499787569046021e-01" nType="-1"/>
          </Node>
          <Node pos="r" depth="2" NCoef="0" IVar="8" Cut="2.2184321880340576e+00" cType="1" res="-9.9000000000000000e+01" rms="0.0000000000000000e+00" purity="3.4883248805999756e-01" nType="0">
            <Node pos="l" depth="3" NCoef="0" IVar="9" Cut="5.2873659133911133e+00" cType="0" res="-9.9000000000000000e+01" rms="0.0000000000000000e+00" purity="4.4480276107788086e-01" nType="0">
              <Node pos="l" depth="4" NCoef="0" IVar="-1" Cut="0.0000000000000000e+00" cType="1" res="-9.9000000000000000e+01" rms="0.0000000000000000e+00" purity="5.6661510467529297e-01" nType="1"/>
              <Node pos="r" depth="4" NCoef="0" IVar="-1" Cut="0.0000000000000000e+00" cType="1" res="-9.9000000000000000e+01" rms="0.0000000000000000e+00" purity="3.6629468202590942e-01" nType="-1"/>
            </Node>
            <Node pos="r" depth="3" NCoef="0" IVar="-1" Cut="5.2712755203247070e+00" cType="0" res="-9.9000000000000000e+01" rms="0.0000000000000000e+00" purity="2.5624749064445496e-01" nType="-1"/>
          </Node>
        </Node>
      </Node>
    </BinaryTree>
    <BinaryTree type="DecisionTree" boostWeight="3.0185335371975563e-01" itree="6">
      <Node pos="s" depth="0" NCoef="0" IVar="6" Cut="4.8502434045076370e-02" cType="1" res="-9.9000000000000000e+01" rms="0.0000000000000000e+00" purity="4.9608796834945679e-01" nType="0">
        <Node pos="l" depth="1" NCoef="0" IVar="6" Cut="-1.2558313608169556e+00" cType="0" res="-9.9000000000000000e+01" rms="0.0000000000000000e+00" purity="5.3842353820800781e-01" nType="0">
          <Node pos="l" depth="2" NCoef="0" IVar="10" Cut="7.4528890848159790e-01" cType="1" res="-9.9000000000000000e+01" rms="0.0000000000000000e+00" purity="5.8398860692977905e-01" nType="0">
            <Node pos="l" depth="3" NCoef="0" IVar="3" Cut="8.0692499876022339e-01" cType="1" res="-9.9000000000000000e+01" rms="0.0000000000000000e+00" purity="6.4078128337860107e-01" nType="0">
              <Node pos="l" depth="4" NCoef="0" IVar="-1" Cut="2.4014289677143097e-01" cType="1" res="-9.9000000000000000e+01" rms="0.0000000000000000e+00" purity="7.3924487829208374e-01" nType="1"/>
              <Node pos="r" depth="4" NCoef="0" IVar="2" Cut="4.4734373688697815e-01" cType="0" res="-9.9000000000000000e+01" rms="0.0000000000000000e+00" purity="5.4359310865402222e-01" nType="0">
                <Node pos="l" depth="5" NCoef="0" IVar="-1" Cut="0.0000000000000000e+00" cType="1" res="-9.9000000000000000e+01" rms="0.0000000000000000e+00" purity="5.9051913022994995e-01" nType="1"/>
                <Node pos="r" depth="5" NCoef="0" IVar="-1" Cut="0.0000000000000000e+00" cType="1" res="-9.9000000000000000e+01" rms="0.0000000000000000e+00" purity="4.5910564064979553e-01" nType="-1"/>
              </Node>
            </Node>
            <Node pos="r" depth="3" NCoef="0" IVar="2" Cut="1.1179112195968628e+00" cType="0" res="-9.9000000000000000e+01" rms="0.0000000000000000e+00" purity="4.6461763978004456e-01" nType="0">
              <Node pos="l" depth="4" NCoef="0" IVar="-1" Cut="0.0000000000000000e+00" cType="1" res="-9.9000000000000000e+01" rms="0.0000000000000000e+00" purity="5.7314008474349976e-01" nType="1"/>
              <Node pos="r" depth="4" NCoef="0" IVar="-1" Cut="0.0000000000000000e+00" cType="1" res="-9.9000000000000000e+01" rms="0.0000000000000000e+00" purity="3.8323557376861572e-01" nType="-1"/>
            </Node>
          </Node>
          <Node pos="r" depth="2" NCoef="0" IVar="-1" Cut="4.8125427216291428e-02" cType="0" res="-9.9000000000000000e+01" rms="0.0000000000000000e+00" purity="3.3112362027168274e-01" nType="-1"/>
        </Node>
        <Node pos="r" depth="1" NCoef="0" IVar="-1" Cut="4.9067407846450806e-01" cType="1" res="-9.9000000000000000e+01" rms="0.0000000000000000e+00" purity="3.3950212597846985e-01" nType="-1"/>
      </Node>
    </BinaryTree>
    <BinaryTree type="DecisionTree" boostWeight="2.5479867192527245e-01" itree="7">
      <Node pos="s" depth="0" NCoef="0" IVar="5" Cut="1.2235923111438751e-01" cType="1" res="-9.9000000000000000e+01" rms="0.0000000000000000e+00" purity="5.0407743453979492e-01" nType="0">
        <Node pos="l" depth="1" NCoef="0" IVar="5" Cut="-9.2514282464981079e-01" cType="0" res="-9.9000000000000000e+01" rms="0.0000000000000000e+00" purity="5.4173517227172852e-01" nType="0">
          <Node pos="l" depth="2" NCoef="0" IVar="13" Cut="2.1370339393615723e-01" cType="1" res="-9.9000000000000000e+01" rms="0.0000000000000000e+00" purity="5.9308952093124390e-01" nType="0">
            <Node pos="l" depth="3" NCoef="0" IVar="13" Cut="8.7383218109607697e-02" cType="0" res="-9.9000000000000000e+01" rms="0.0000000000000000e+00" purity="6.4394104480743408e-01" nType="0">
              <Node pos="l" depth="4" NCoef="0" IVar="-1" Cut="0.0000000000000000e+00" cType="1" res="-9.9000000000000000e+01" rms="0.0000000000000000e+00" purity="8.4425300359725952e-01" nType="1"/>
              <Node pos="r" depth="4" NCoef="0" IVar="11" Cut="7.2576838731765747e-01" cType="1" res="-9.9000000000000000e+01" rms="0.0000000000000000e+00" purity="6.0532468557357788e-01" nType="0">
                <Node pos="l" depth="5" NCoef="0" IVar="-1" Cut="0.0000000000000000e+00" cType="1" res="-9.9000000000000000e+01" rms="0.0000000000000000e+00" purity="6.4190500974655151e-01" nType="1"/>
                <Node pos="r" depth="5" NCoef="0" IVar="-1" Cut="0.0000000000000000e+00" cType="1" res="-9.9000000000000000e+01" rms="0.0000000000000000e+00" purity="4.8622509837150574e-01" nType="-1"/>
              </Node>
            </Node>
            <Node pos="r" depth="3" NCoef="0" IVar="9" Cut="4.6435647010803223e+00" cType="0" res="-9.9000000000000000e+01" rms="0.0000000000000000e+00" purity="4.9284961819648743e-01" nType="0">
              <Node pos="l" depth="4" NCoef="0" IVar="-1" Cut="0.0000000000000000e+00" cType="1" res="-9.9000000000000000e+01" rms="0.0000000000000000e+00" purity="5.4016065597534180e-01" nType="1"/>
              <Node pos="r" depth="4" NCoef="0" IVar="-1" Cut="0.0000000000000000e+00" cType="1" res="-9.9000000000000000e+01" rms="0.0000000000000000e+00" purity="4.1191324591636658e-01" nType="-1"/>
            </Node>
          </Node>
          <Node pos="r" depth="2" NCoef="0" IVar="0" Cut="4.9503824114799500e-01" cType="1" res="-9.9000000000000000e+01" rms="0.0000000000000000e+00" purity="3.7571981549263000e-01" nType="0">
            <Node pos="l" depth="3" NCoef="0" IVar="0" Cut="-5.4200416803359985e-01" cType="0" res="-9.9000000000000000e+01" rms="0.0000000000000000e+00" purity="4.2597082257270813e-01" nType="0">
              <Node pos="l" depth="4" NCoef="0" IVar="-1" Cut="0.0000000000000000e+00" cType="1" res="-9.9000000000000000e+01" rms="0.0000000000000000e+00" purity="5.0624954700469971e-01" nType="1"/>
              <Node pos="r" depth="4" NCoef="0" IVar="-1" Cut="0.0000000000000000e+00" cType="1" res="-9.9000000000000000e+01" rms="0.0000000000000000e+00" purity="3.0565837025642395e-01" nType="-1"/>
            </Node>
            <Node pos="r" depth="3" NCoef="0" IVar="-1" Cut="0.0000000000000000e+00" cType="1" res="-9.9000000000000000e+01" rms="0.0000000000000000e+00" purity="2.6718354225158691e-01" nType="-1"/>
          </Node>
        </Node>
        <Node pos="r" depth="1" NCoef="0" IVar="0" Cut="5.0253224372863770e-01" cType="1" res="-9.9000000000000000e+01" rms="0.0000000000000000e+00" purity="3.6201119422912598e-01" nType="0">
          <Node pos="l" depth="2" NCoef="0" IVar="0" Cut="-4.2342683672904968e-01" cType="0" res="-9.9000000000000000e+01" rms="0.0000000000000000e+00" purity="4.1131749749183655e-01" nType="0">
            <Node pos="l" depth="3" NCoef="0" IVar="-1" Cut="0.0000000000000000e+00" cType="1" res="-9.9000000000000000e+01" rms="0.0000000000000000e+00" purity="5.0034719705581665e-01" nType="1"/>
            <Node pos="r" depth="3" NCoef="0" IVar="-1" Cut="0.0000000000000000e+00" cType="1" res="-9.9000000000000000e+01" rms="0.0000000000000000e+00" purity="3.1008285284042358e-01" nType="-1"/>
          </Node>
          <Node pos="r" depth="2" NCoef="0" IVar="-1" Cut="0.0000000000000000e+00" cType="1" res="-9.9000000000000000e+01" rms="0.0000000000000000e+00" purity="2.5012335181236267e-01" nType="-1"/>
        </Node>
      </Node>
    </BinaryTree>
    <BinaryTree type="DecisionTree" boostWeight="2.4820904907136318e-01" itree="8">
      <Node pos="s" depth="0" NCoef="0" IVar="8" Cut="3.6442158222198486e+00" cType="1" res="-9.9000000000000000e+01" rms="0.0000000000000000e+00" purity="4.9062743782997131e-01" nType="0">
        <Node pos="l" depth="1" NCoef="0" IVar="10" Cut="8.3044594526290894e-01" cType="1" res="-9.9000000000000000e+01" rms="0.0000000000000000e+00" purity="5.1321041584014893e-01" nType="0">
          <Node pos="l" depth="2" NCoef="0" IVar="12" Cut="1.4751703739166260e+00" cType="1" res="-9.9000000000000000e+01" rms="0.0000000000000000e+00" purity="5.5710130929946899e-01" nType="0">
            <Node pos="l" depth="3" NCoef="0" IVar="3" Cut="9.2867225408554077e-01" cType="1" res="-9.9000000000000000e+01" rms="0.0000000000000000e+00" purity="5.8910083770751953e-01" nType="0">
              <Node pos="l" depth="4" NCoef="0" IVar="-1" Cut="3.8538935780525208e-01" cType="1" res="-9.9000000000000000e+01" rms="0.0000000000000000e+00" purity="6.7449343204498291e-01" nType="1"/>
              <Node pos="r" depth="4" NCoef="0" IVar="3" Cut="1.9490320682525635e+00" cType="1" res="-9.9000000000000000e+01" rms="0.0000000000000000e+00" purity="5.0207054615020752e-01" nType="0">
                <Node pos="l" depth="5" NCoef="0" IVar="-1" Cut="0.0000000000000000e+00" cType="1" res="-9.9000000000000000e+01" rms="0.0000000000000000e+00" purity="5.4699087142944336e-01" nType="1"/>
                <Node pos="r" depth="5" NCoef="0" IVar="-1" Cut="0.0000000000000000e+00" cType="1" res="-9.9000000000000000e+01" rms="0.0000000000000000e+00" purity="4.4945478439331055e-01" nType="-1"/>
              </Node>
            </Node>
            <Node pos="r" depth="3" NCoef="0" IVar="-1" Cut="0.0000000000000000e+00" cType="1" res="-9.9000000000000000e+01" rms="0.0000000000000000e+00" purity="3.4434828162193298e-01" nType="-1"/>
          </Node>
          <Node pos="r" depth="2" NCoef="0" IVar="0" Cut="1.0512368679046631e+00" cType="1" res="-9.9000000000000000e+01" rms="0.0000000000000000e+00" purity="4.2266973853111267e-01" nType="0">
            <Node pos="l" depth="3" NCoef="0" IVar="1" Cut="3.7431843578815460e-02" cType="0" res="-9.9000000000000000e+01" rms="0.0000000000000000e+00" purity="4.5780989527702332e-01" nType="0">
              <Node pos="l" depth="4" NCoef="0" IVar="10" Cut="1.8861588239669800e+00" cType="1" res="-9.9000000000000000e+01" rms="0.0000000000000000e+00" purity="5.0349861383438110e-01" nType="0">
                <Node pos="l" depth="5" NCoef="0" IVar="-1" Cut="0.0000000000000000e+00" cType="1" res="-9.9000000000000000e+01" rms="0.0000000000000000e+00" purity="5.4381448030471802e-01" nType="1"/>
                <Node pos="r" depth="5" NCoef="0" IVar="-1" Cut="0.0000000000000000e+00" cType="1" res="-9.9000000000000000e+01" rms="0.0000000000000000e+00" purity="4.5191177725791931e-01" nType="-1"/>
              </Node>
              <Node pos="r" depth="4" NCoef="0" IVar="-1" Cut="0.0000000000000000e+00" cType="1" res="-9.9000000000000000e+01" rms="0.0000000000000000e+00" purity="3.6850321292877197e-01" nType="-1"/>
            </Node>
            <Node pos="r" depth="3" NCoef="0" IVar="-1" Cut="0.0000000000000000e+00" cType="1" res="-9.9000000000000000e+01" rms="0.0000000000000000e+00" purity="2.5994047522544861e-01" nType="-1"/>
          </Node>
        </Node>
        <Node pos="r" depth="1" NCoef="0" IVar="-1" Cut="5.0920848846435547e+00" cType="0" res="-9.9000000000000000e+01" rms="0.0000000000000000e+00" purity="3.1361865997314453e-01" nType="-1"/>
      </Node>
    </BinaryTree>
    <BinaryTree type="DecisionTree" boostWeight="1.9722656850256123e-01" itree="9">
      <Node pos="s" depth="0" NCoef="0" IVar="7" Cut="6.0087591409683228e-02" cType="1" res="-9.9000000000000000e+01" rms="0.0000000000000000e+00" purity="4.9171051383018494e-01" nType="0">
        <Node pos="l" depth="1" NCoef="0" IVar="7" Cut="-9.4557964801788330e-01" cType="0" res="-9.9000000000000000e+01" rms="0.0000000000000000e+00" purity="5.2552384138107300e-01" nType="0">
          <Node pos="l" depth="2" NCoef="0" IVar="3" Cut="4.7308292984962463e-01" cType="1" res="-9.9000000000000000e+01" rms="0.0000000000000000e+00" purity="5.7103872299194336e-01" nType="0">
            <Node pos="l" depth="3" NCoef="0" IVar="-1" Cut="7.7548646926879883e-01" cType="1" res="-9.9000000000000000e+01" rms="0.0000000000000000e+00" purity="6.6008144617080688e-01" nType="1"/>
            <Node pos="r" depth="3" NCoef="0" IVar="0" Cut="1.0616071224212646e+00" cType="1" res="-9.9000000000000000e+01" rms="0.0000000000000000e+00" purity="5.2924287319183350e-01" nType="0">
              <Node pos="l" depth="4" NCoef="0" IVar="-1" Cut="5.2977948188781738e+00" cType="0" res="-9.9000000000000000e+01" rms="0.0000000000000000e+00" purity="5.5280399322509766e-01" nType="1"/>
              <Node pos="r" depth="4" NCoef="0" IVar="-1" Cut="0.0000000000000000e+00" cType="1" res="-9.9000000000000000e+01" rms="0.0000000000000000e+00" purity="4.1527602076530457e-01" nType="-1"/>
            </Node>
          </Node>
          <Node pos="r" depth="2" NCoef="0" IVar="-1" Cut="6.6055995225906372e-01" cType="1" res="-9.9000000000000000e+01" rms="0.0000000000000000e+00" purity="4.0460130572319031e-01" nType="-1"/>
        </Node>
        <Node pos="r" depth="1" NCoef="0" IVar="-1" Cut="8.5591679811477661e-01" cType="0" res="-9.9000000000000000e+01" rms="0.0000000000000000e+00" purity="3.8608941435813904e-01" nType="-1"/>
      </Node>
    </BinaryTree>
    <BinaryTree type="DecisionTree" boostWeight="1.8725004313629040e-01" itree="10">
      <Node pos="s" depth="0" NCoef="0" IVar="11" Cut="1.9017955064773560e+00" cType="1" res="-9.9000000000000000e+01" rms="0.0000000000000000e+00" purity="4.9293354153633118e-01" nType="0">
        <Node pos="l" depth="1" NCoef="0" IVar="13" Cut="1.5065988302230835e+00" cType="1" res="-9.9000000000000000e+01" rms="0.0000000000000000e+00" purity="5.1632070541381836e-01" nType="0">
          <Node pos="l" depth="2" NCoef="0" IVar="5" Cut="4.5565256476402283e-01" cType="1" res="-9.9000000000000000e+01" rms="0.0000000000000000e+00" purity="5.3771948814392090e-01" nType="0">
            <Node pos="l" depth="3" NCoef="0" IVar="3" Cut="4.6768179535865784e-01" cType="1" res="-9.9000000000000000e+01" rms="0.0000000000000000e+00" purity="5.5830651521682739e-01" nType="0">
              <Node pos="l" depth="4" NCoef="0" IVar="-1" Cut="7.2257584333419800e-01" cType="1" res="-9.9000000000000000e+01" rms="0.0000000000000000e+00" purity="6.4411854743957520e-01" nType="1"/>
              <Node pos="r" depth="4" NCoef="0" IVar="9" Cut="5.2481999397277832e+00" cType="0" res="-9.9000000000000000e+01" rms="0.0000000000000000e+00" purity="5.2098256349563599e-01" nType="0">
                <Node pos="l" depth="5" NCoef="0" IVar="-1" Cut="0.0000000000000000e+00" cType="1" res="-9.9000000000000000e+01" rms="0.0000000000000000e+00" purity="5.6890106201171875e-01" nType="1"/>
                <Node pos="r" depth="5" NCoef="0" IVar="-1" Cut="0.0000000000000000e+00" cType="1" res="-9.9000000000000000e+01" rms="0.0000000000000000e+00" purity="4.7859284281730652e-01" nType="-1"/>
              </Node>
            </Node>
            <Node pos="r" depth="3" NCoef="0" IVar="-1" Cut="0.0000000000000000e+00" cType="1" res="-9.9000000000000000e+01" rms="0.0000000000000000e+00" purity="4.0861004590988159e-01" nType="-1"/>
          </Node>
          <Node pos="r" depth="2" NCoef="0" IVar="-1" Cut="2.3871667385101318e+00" cType="1" res="-9.9000000000000000e+01" rms="0.0000000000000000e+00" purity="3.7977293133735657e-01" nType="-1"/>
        </Node>
        <Node pos="r" depth="1" NCoef="0" IVar="-1" Cut="-2.0438946783542633e-01" cType="1" res="-9.9000000000000000e+01" rms="0.0000000000000000e+00" purity="3.4233823418617249e-01" nType="-1"/>
      </Node>
    </BinaryTree>
    <BinaryTree type="DecisionTree" boostWeight="1.7772799201892381e-01" itree="11">
      <Node pos="s" depth="0" NCoef="0" IVar="5" Cut="-1.2108141183853149e+00" cType="0" res="-9.9000000000000000e+01" rms="0.0000000000000000e+00" purity="5.0166803598403931e-01" nType="0">
        <Node pos="l" depth="1" NCoef="0" IVar="5" Cut="-9.9831946194171906e-02" cType="1" res="-9.9000000000000000e+01" rms="0.0000000000000000e+00" purity="5.2198171615600586e-01" nType="0">
          <Node pos="l" depth="2" NCoef="0" IVar="4" Cut="7.0411264896392822e-02" cType="1" res="-9.9000000000000000e+01" rms="0.0000000000000000e+00" purity="5.6464540958404541e-01" nType="0">
            <Node pos="l" depth="3" NCoef="0" IVar="4" Cut="-1.0118569135665894e+00" cType="0" res="-9.9000000000000000e+01" rms="0.0000000000000000e+00" purity="5.8724331855773926e-01" nType="0">
              <Node pos="l" depth="4" NCoef="0" IVar="-1" Cut="4.2456376552581787e-01" cType="1" res="-9.9000000000000000e+01" rms="0.0000000000000000e+00" purity="6.1076098680496216e-01" nType="1"/>
              <Node pos="r" depth="4" NCoef="0" IVar="-1" Cut="0.0000000000000000e+00" cType="1" res="-9.9000000000000000e+01" rms="0.0000000000000000e+00" purity="4.9532523751258850e-01" nType="-1"/>
            </Node>
            <Node pos="r" depth="3" NCoef="0" IVar="2" Cut="8.7088394165039062e-01" cType="0" res="-9.9000000000000000e+01" rms="0.0000000000000000e+00" purity="4.8176670074462891e-01" nType="0">
              <Node pos="l" depth="4" NCoef="0" IVar="-1" Cut="0.0000000000000000e+00" cType="1" res="-9.9000000000000000e+01" rms="0.0000000000000000e+00" purity="5.2366161346435547e-01" nType="1"/>
              <Node pos="r" depth="4" NCoef="0" IVar="-1" Cut="0.0000000000000000e+00" cType="1" res="-9.9000000000000000e+01" rms="0.0000000000000000e+00" purity="4.4115427136421204e-01" nType="-1"/>
            </Node>
          </Node>
          <Node pos="r" depth="2" NCoef="0" IVar="9" Cut="4.7161993980407715e+00" cType="0" res="-9.9000000000000000e+01" rms="0.0000000000000000e+00" purity="4.3523955345153809e-01" nType="0">
            <Node pos="l" depth="3" NCoef="0" IVar="10" Cut="8.1577479839324951e-01" cType="1" res="-9.9000000000000000e+01" rms="0.0000000000000000e+00" purity="4.7471737861633301e-01" nType="0">
              <Node pos="l" depth="4" NCoef="0" IVar="5" Cut="4.0804550051689148e-01" cType="1" res="-9.9000000000000000e+01" rms="0.0000000000000000e+00" purity="5.1215469837188721e-01" nType="0">
                <Node pos="l" depth="5" NCoef="0" IVar="-1" Cut="0.0000000000000000e+00" cType="1" res="-9.9000000000000000e+01" rms="0.0000000000000000e+00" purity="5.5703449249267578e-01" nType="1"/>
                <Node pos="r" depth="5" NCoef="0" IVar="-1" Cut="0.0000000000000000e+00" cType="1" res="-9.9000000000000000e+01" rms="0.0000000000000000e+00" purity="4.6677350997924805e-01" nType="-1"/>
              </Node>
              <Node pos="r" depth="4" NCoef="0" IVar="-1" Cut="0.0000000000000000e+00" cType="1" res="-9.9000000000000000e+01" rms="0.0000000000000000e+00" purity="4.0800711512565613e-01" nType="-1"/>
            </Node>
            <Node pos="r" depth="3" NCoef="0" IVar="-1" Cut="3.5666956901550293e+00" cType="1" res="-9.9000000000000000e+01" rms="0.0000000000000000e+00" purity="3.7577819824218750e-01" nType="-1"/>
          </Node>
        </Node>
        <Node pos="r" depth="1" NCoef="0" IVar="-1" Cut="1.0239818096160889e+00" cType="0" res="-9.9000000000000000e+01" rms="0.0000000000000000e+00" purity="3.7091377377510071e-01" nType="-1"/>
      </Node>
    </BinaryTree>
    <BinaryTree type="DecisionTree" boostWeight="1.6332298699031156e-01" itree="12">
      <Node pos="s" depth="0" NCoef="0" IVar="6" Cut="3.5976168513298035e-01" cType="1" res="-9.9000000000000000e+01" rms="0.0000000000000000e+00" purity="5.0354784727096558e-01" nType="0">
        <Node pos="l" depth="1" NCoef="0" IVar="6" Cut="-1.4188847541809082e+00" cType="0" res="-9.9000000000000000e+01" rms="0.0000000000000000e+00" purity="5.2202868461608887e-01" nType="0">
          <Node pos="l" depth="2" NCoef="0" IVar="1" Cut="1.4000424146652222e+00" cType="0" res="-9.9000000000000000e+01" rms="0.0000000000000000e+00" purity="5.3902101516723633e-01" nType="0">
            <Node pos="l" depth="3" NCoef="0" IVar="-1" Cut="0.0000000000000000e+00" cType="1" res="-9.9000000000000000e+01" rms="0.0000000000000000e+00" purity="6.5820789337158203e-01" nType="1"/>
            <Node pos="r" depth="3" NCoef="0" IVar="14" Cut="6.3205236196517944e-01" cType="1" res="-9.9000000000000000e+01" rms="0.0000000000000000e+00" purity="5.2605259418487549e-01" nType="0">
              <Node pos="l" depth="4" NCoef="0" IVar="-1" Cut="5.3923869132995605e-01" cType="1" res="-9.9000000000000000e+01" rms="0.0000000000000000e+00" purity="5.7746589183807373e-01" nType="1"/>
              <Node pos="r" depth="4" NCoef="0" IVar="14" Cut="2.7509720325469971e+00" cType="0" res="-9.9000000000000000e+01" rms="0.0000000000000000e+00" purity="4.8306944966316223e-01" nType="0">
                <Node pos="l" depth="5" NCoef="0" IVar="-1" Cut="0.0000000000000000e+00" cType="1" res="-9.9000000000000000e+01" rms="0.0000000000000000e+00" purity="5.7700711488723755e-01" nType="1"/>
                <Node pos="r" depth="5" NCoef="0" IVar="-1" Cut="0.0000000000000000e+00" cType="1" res="-9.9000000000000000e+01" rms="0.0000000000000000e+00" purity="4.4636368751525879e-01" nType="-1"/>
              </Node>
            </Node>
          </Node>
          <Node pos="r" depth="2" NCoef="0" IVar="-1" Cut="-4.4472172856330872e-02" cType="1" res="-9.9000000000000000e+01" rms="0.0000000000000000e+00" purity="4.1501379013061523e-01" nType="-1"/>
        </Node>
        <Node pos="r" depth="1" NCoef="0" IVar="-1" Cut="1.7539644241333008e-01" cType="0" res="-9.9000000000000000e+01" rms="0.0000000000000000e+00" purity="4.0315666794776917e-01" nType="-1"/>
      </Node>
    </BinaryTree>
    <BinaryTree type="DecisionTree" boostWeight="1.3685244869527777e-01" itree="13">
      <Node pos="s" depth="0" NCoef="0" IVar="11" Cut="1.9017955064773560e+00" cType="1" res="-9.9000000000000000e+01" rms="0.0000000000000000e+00" purity="5.0595712661743164e-01" nType="0">
        <Node pos="l" depth="1" NCoef="0" IVar="10" Cut="1.2450710535049438e+00" cType="1" res="-9.9000000000000000e+01" rms="0.0000000000000000e+00" purity="5.2154320478439331e-01" nType="0">
          <Node pos="l" depth="2" NCoef="0" IVar="13" Cut="2.0827823877334595e-01" cType="1" res="-9.9000000000000000e+01" rms="0.0000000000000000e+00" purity="5.4632294178009033e-01" nType="0">
            <Node pos="l" depth="3" NCoef="0" IVar="-1" Cut="7.6776766777038574e-01" cType="1" res="-9.9000000000000000e+01" rms="0.0000000000000000e+00" purity="5.7847571372985840e-01" nType="1"/>
            <Node pos="r" depth="3" NCoef="0" IVar="8" Cut="2.2024643421173096e+00" cType="1" res="-9.9000000000000000e+01" rms="0.0000000000000000e+00" purity="4.8764801025390625e-01" nType="0">
              <Node pos="l" depth="4" NCoef="0" IVar="-1" Cut="0.0000000000000000e+00" cType="1" res="-9.9000000000000000e+01" rms="0.0000000000000000e+00" purity="5.3797727823257446e-01" nType="1"/>
              <Node pos="r" depth="4" NCoef="0" IVar="-1" Cut="-3.3491589128971100e-02" cType="0" res="-9.9000000000000000e+01" rms="0.0000000000000000e+00" purity="4.4869548082351685e-01" nType="-1"/>
            </Node>
          </Node>
          <Node pos="r" depth="2" NCoef="0" IVar="-1" Cut="3.7431843578815460e-02" cType="0" res="-9.9000000000000000e+01" rms="0.0000000000000000e+00" purity="4.4600400328636169e-01" nType="-1"/>
        </Node>
        <Node pos="r" depth="1" NCoef="0" IVar="-1" Cut="1.0552068948745728e+00" cType="0" res="-9.9000000000000000e+01" rms="0.0000000000000000e+00" purity="4.0322026610374451e-01" nType="-1"/>
      </Node>
    </BinaryTree>
    <BinaryTree type="DecisionTree" boostWeight="1.4354433494940505e-01" itree="14">
      <Node pos="s" depth="0" NCoef="0" IVar="2" Cut="-1.1712745577096939e-01" cType="0" res="-9.9000000000000000e+01" rms="0.0000000000000000e+00" purity="5.0440376996994019e-01" nType="0">
        <Node pos="l" depth="1" NCoef="0" IVar="1" Cut="1.6509923934936523e+00" cType="0" res="-9.9000000000000000e+01" rms="0.0000000000000000e+00" purity="5.1955753564834595e-01" nType="0">
          <Node pos="l" depth="2" NCoef="0" IVar="-1" Cut="0.0000000000000000e+00" cType="1" res="-9.9000000000000000e+01" rms="0.0000000000000000e+00" purity="6.7015415430068970e-01" nType="1"/>
          <Node pos="r" depth="2" NCoef="0" IVar="12" Cut="1.4273771047592163e+00" cType="1" res="-9.9000000000000000e+01" rms="0.0000000000000000e+00" purity="5.0816398859024048e-01" nType="0">
            <Node pos="l" depth="3" NCoef="0" IVar="12" Cut="2.1055386960506439e-01" cType="0" res="-9.9000000000000000e+01" rms="0.0000000000000000e+00" purity="5.2245664596557617e-01" nType="0">
              <Node pos="l" depth="4" NCoef="0" IVar="-1" Cut="1.4206620454788208e+00" cType="0" res="-9.9000000000000000e+01" rms="0.0000000000000000e+00" purity="5.8175021409988403e-01" nType="1"/>
              <Node pos="r" depth="4" NCoef="0" IVar="12" Cut="-6.7246472463011742e-03" cType="1" res="-9.9000000000000000e+01" rms="0.0000000000000000e+00" purity="4.9237853288650513e-01" nType="0">
                <Node pos="l" depth="5" NCoef="0" IVar="-1" Cut="0.0000000000000000e+00" cType="1" res="-9.9000000000000000e+01" rms="0.0000000000000000e+00" purity="5.4466122388839722e-01" nType="1"/>
                <Node pos="r" depth="5" NCoef="0" IVar="-1" Cut="0.0000000000000000e+00" cType="1" res="-9.9000000000000000e+01" rms="0.0000000000000000e+00" purity="4.5901778340339661e-01" nType="-1"/>
              </Node>
            </Node>
            <Node pos="r" depth="3" NCoef="0" IVar="-1" Cut="0.0000000000000000e+00" cType="1" res="-9.9000000000000000e+01" rms="0.0000000000000000e+00" purity="4.0516427159309387e-01" nType="-1"/>
          </Node>
        </Node>
        <Node pos="r" depth="1" NCoef="0" IVar="-1" Cut="-5.7290345430374146e-01" cType="1" res="-9.9000000000000000e+01" rms="0.0000000000000000e+00" purity="4.0895354747772217e-01" nType="-1"/>
      </Node>
    </BinaryTree>
    <BinaryTree type="DecisionTree" boostWeight="1.3645677570967082e-01" itree="15">
      <Node pos="s" depth="0" NCoef="0" IVar="5" Cut="-8.7752079963684082e-01" cType="0" res="-9.9000000000000000e+01" rms="0.0000000000000000e+00" purity="5.0590550899505615e-01" nType="0">
        <Node pos="l" depth="1" NCoef="0" IVar="5" Cut="-5.2222218364477158e-02" cType="1" res="-9.9000000000000000e+01" rms="0.0000000000000000e+00" purity="5.2444028854370117e-01" nType="0">
          <Node pos="l" depth="2" NCoef="0" IVar="3" Cut="3.3806011080741882e-01" cType="1" res="-9.9000000000000000e+01" rms="0.0000000000000000e+00" purity="5.5544579029083252e-01" nType="0">
            <Node pos="l" depth="3" NCoef="0" IVar="-1" Cut="6.4404380321502686e-01" cType="1" res="-9.9000000000000000e+01" rms="0.0000000000000000e+00" purity="6.3076704740524292e-01" nType="1"/>
            <Node pos="r" depth="3" NCoef="0" IVar="1" Cut="3.9953669905662537e-01" cType="0" res="-9.9000000000000000e+01" rms="0.0000000000000000e+00" purity="5.3234308958053589e-01" nType="0">
              <Node pos="l" depth="4" NCoef="0" IVar="-1" Cut="-3.6661365628242493e-01" cType="1" res="-9.9000000000000000e+01" rms="0.0000000000000000e+00" purity="5.7842510938644409e-01" nType="1"/>
              <Node pos="r" depth="4" NCoef="0" IVar="2" Cut="1.5654942989349365e+00" cType="0" res="-9.9000000000000000e+01" rms="0.0000000000000000e+00" purity="5.0656324625015259e-01" nType="0">
                <Node pos="l" depth="5" NCoef="0" IVar="-1" Cut="0.0000000000000000e+00" cType="1" res="-9.9000000000000000e+01" rms="0.0000000000000000e+00" purity="5.6286066770553589e-01" nType="1"/>
                <Node pos="r" depth="5" NCoef="0" IVar="-1" Cut="0.0000000000000000e+00" cType="1" res="-9.9000000000000000e+01" rms="0.0000000000000000e+00" purity="4.7758898138999939e-01" nType="-1"/>
              </Node>
            </Node>
          </Node>
          <Node pos="r" depth="2" NCoef="0" IVar="0" Cut="8.7212908267974854e-01" cType="1" res="-9.9000000000000000e+01" rms="0.0000000000000000e+00" purity="4.6117973327636719e-01" nType="0">
            <Node pos="l" depth="3" NCoef="0" IVar="7" Cut="-2.1302813291549683e-01" cType="1" res="-9.9000000000000000e+01" rms="0.0000000000000000e+00" purity="4.8327195644378662e-01" nType="0">
              <Node pos="l" depth="4" NCoef="0" IVar="9" Cut="5.3397092819213867e+00" cType="0" res="-9.9000000000000000e+01" rms="0.0000000000000000e+00" purity="5.0900244712829590e-01" nType="0">
                <Node pos="l" depth="5" NCoef="0" IVar="-1" Cut="0.0000000000000000e+00" cType="1" res="-9.9000000000000000e+01" rms="0.0000000000000000e+00" purity="5.4953724145889282e-01" nType="1"/>
                <Node pos="r" depth="5" NCoef="0" IVar="-1" Cut="0.0000000000000000e+00" cType="1" res="-9.9000000000000000e+01" rms="0.0000000000000000e+00" purity="4.7683531045913696e-01" nType="-1"/>
              </Node>
              <Node pos="r" depth="4" NCoef="0" IVar="-1" Cut="0.0000000000000000e+00" cType="1" res="-9.9000000000000000e+01" rms="0.0000000000000000e+00" purity="4.3199169635772705e-01" nType="-1"/>
            </Node>
            <Node pos="r" depth="3" NCoef="0" IVar="-1" Cut="0.0000000000000000e+00" cType="1" res="-9.9000000000000000e+01" rms="0.0000000000000000e+00" purity="3.7517949938774109e-01" nType="-1"/>
          </Node>
        </Node>
        <Node pos="r" depth="1" NCoef="0" IVar="-1" Cut="-1.7663087844848633e+00" cType="0" res="-9.9000000000000000e+01" rms="0.0000000000000000e+00" purity="4.3037223815917969e-01" nType="-1"/>
      </Node>
    </BinaryTree>
    <BinaryTree type="DecisionTree" boostWeight="1.3112158161783874e-01" itree="16">
      <Node pos="s" depth="0" NCoef="0" IVar="4" Cut="-1.4196350239217281e-02" cType="1" res="-9.9000000000000000e+01" rms="0.0000000000000000e+00" purity="5.1103627681732178e-01" nType="0">
        <Node pos="l" depth="1" NCoef="0" IVar="7" Cut="-2.1418324112892151e-01" cType="1" res="-9.9000000000000000e+01" rms="0.0000000000000000e+00" purity="5.3139883279800415e-01" nType="0">
          <Node pos="l" depth="2" NCoef="0" IVar="7" Cut="-7.3661780357360840e-01" cType="0" res="-9.9000000000000000e+01" rms="0.0000000000000000e+00" purity="5.5419772863388062e-01" nType="0">
            <Node pos="l" depth="3" NCoef="0" IVar="-1" Cut="3.0695590376853943e-01" cType="1" res="-9.9000000000000000e+01" rms="0.0000000000000000e+00" purity="5.9093481302261353e-01" nType="1"/>
            <Node pos="r" depth="3" NCoef="0" IVar="4" Cut="-7.5399011373519897e-01" cType="0" res="-9.9000000000000000e+01" rms="0.0000000000000000e+00" purity="4.9880823493003845e-01" nType="0">
              <Node pos="l" depth="4" NCoef="0" IVar="-1" Cut="8.9220494031906128e-01" cType="0" res="-9.9000000000000000e+01" rms="0.0000000000000000e+00" purity="5.2698898315429688e-01" nType="1"/>
              <Node pos="r" depth="4" NCoef="0" IVar="-1" Cut="0.0000000000000000e+00" cType="1" res="-9.9000000000000000e+01" rms="0.0000000000000000e+00" purity="4.4126996397972107e-01" nType="-1"/>
            </Node>
          </Node>
          <Node pos="r" depth="2" NCoef="0" IVar="0" Cut="4.9585539102554321e-01" cType="1" res="-9.9000000000000000e+01" rms="0.0000000000000000e+00" purity="4.8424619436264038e-01" nType="0">
            <Node pos="l" depth="3" NCoef="0" IVar="1" Cut="8.3192914724349976e-02" cType="0" res="-9.9000000000000000e+01" rms="0.0000000000000000e+00" purity="5.0690549612045288e-01" nType="0">
              <Node pos="l" depth="4" NCoef="0" IVar="-1" Cut="0.0000000000000000e+00" cType="1" res="-9.9000000000000000e+01" rms="0.0000000000000000e+00" purity="5.4086416959762573e-01" nType="1"/>
              <Node pos="r" depth="4" NCoef="0" IVar="-1" Cut="0.0000000000000000e+00" cType="1" res="-9.9000000000000000e+01" rms="0.0000000000000000e+00" purity="4.4836476445198059e-01" nType="-1"/>
            </Node>
            <Node pos="r" depth="3" NCoef="0" IVar="-1" Cut="0.0000000000000000e+00" cType="1" res="-9.9000000000000000e+01" rms="0.0000000000000000e+00" purity="4.3510648608207703e-01" nType="-1"/>
          </Node>
        </Node>
        <Node pos="r" depth="1" NCoef="0" IVar="0" Cut="6.8508535623550415e-01" cType="1" res="-9.9000000000000000e+01" rms="0.0000000000000000e+00" purity="4.5284250378608704e-01" nType="0">
          <Node pos="l" depth="2" NCoef="0" IVar="0" Cut="-6.7967581748962402e-01" cType="0" res="-9.9000000000000000e+01" rms="0.0000000000000000e+00" purity="4.7722971439361572e-01" nType="0">
            <Node pos="l" depth="3" NCoef="0" IVar="1" Cut="7.5204914808273315e-01" cType="0" res="-9.9000000000000000e+01" rms="0.0000000000000000e+00" purity="5.0629711151123047e-01" nType="0">
              <Node pos="l" depth="4" NCoef="0" IVar="-1" Cut="0.0000000000000000e+00" cType="1" res="-9.9000000000000000e+01" rms="0.0000000000000000e+00" purity="5.4215532541275024e-01" nType="1"/>
              <Node pos="r" depth="4" NCoef="0" IVar="-1" Cut="0.0000000000000000e+00" cType="1" res="-9.9000000000000000e+01" rms="0.0000000000000000e+00" purity="4.6805116534233093e-01" nType="-1"/>
            </Node>
            <Node pos="r" depth="3" NCoef="0" IVar="-1" Cut="0.0000000000000000e+00" cType="1" res="-9.9000000000000000e+01" rms="0.0000000000000000e+00" purity="4.1363266110420227e-01" nType="-1"/>
          </Node>
          <Node pos="r" depth="2" NCoef="0" IVar="-1" Cut="0.0000000000000000e+00" cType="1" res="-9.9000000000000000e+01" rms="0.0000000000000000e+00" purity="3.7685263156890869e-01" nType="-1"/>
        </Node>
      </Node>
    </BinaryTree>
    <BinaryTree type="DecisionTree" boostWeight="1.3857670431560026e-01" itree="17">
      <Node pos="s" depth="0" NCoef="0" IVar="1" Cut="-1.4507364034652710e+00" cType="1" res="-9.9000000000000000e+01" rms="0.0000000000000000e+00" purity="5.0400179624557495e-01" nType="0">
        <Node pos="l" depth="1" NCoef="0" IVar="-1" Cut="0.0000000000000000e+00" cType="1" res="-9.9000000000000000e+01" rms="0.0000000000000000e+00" purity="6.4338529109954834e-01" nType="1"/>
        <Node pos="r" depth="1" NCoef="0" IVar="0" Cut="1.0502508878707886e+00" cType="1" res="-9.9000000000000000e+01" rms="0.0000000000000000e+00" purity="4.9497497081756592e-01" nType="0">
          <Node pos="l" depth="2" NCoef="0" IVar="13" Cut="1.5691450834274292e+00" cType="1" res="-9.9000000000000000e+01" rms="0.0000000000000000e+00" purity="5.0861185789108276e-01" nType="0">
            <Node pos="l" depth="3" NCoef="0" IVar="0" Cut="-1.3784656524658203e+00" cType="0" res="-9.9000000000000000e+01" rms="0.0000000000000000e+00" purity="5.2123814821243286e-01" nType="0">
              <Node pos="l" depth="4" NCoef="0" IVar="2" Cut="2.2935049533843994e+00" cType="1" res="-9.9000000000000000e+01" rms="0.0000000000000000e+00" purity="5.3297054767608643e-01" nType="0">
                <Node pos="l" depth="5" NCoef="0" IVar="-1" Cut="0.0000000000000000e+00" cType="1" res="-9.9000000000000000e+01" rms="0.0000000000000000e+00" purity="5.4906314611434937e-01" nType="1"/>
                <Node pos="r" depth="5" NCoef="0" IVar="-1" Cut="0.0000000000000000e+00" cType="1" res="-9.9000000000000000e+01" rms="0.0000000000000000e+00" purity="4.0355637669563293e-01" nType="-1"/>
              </Node>
              <Node pos="r" depth="4" NCoef="0" IVar="-1" Cut="0.0000000000000000e+00" cType="1" res="-9.9000000000000000e+01" rms="0.0000000000000000e+00" purity="4.0180262923240662e-01" nType="-1"/>
            </Node>
            <Node pos="r" depth="3" NCoef="0" IVar="-1" Cut="0.0000000000000000e+00" cType="1" res="-9.9000000000000000e+01" rms="0.0000000000000000e+00" purity="4.1286313533782959e-01" nType="-1"/>
          </Node>
          <Node pos="r" depth="2" NCoef="0" IVar="-1" Cut="-4.6980056166648865e-01" cType="1" res="-9.9000000000000000e+01" rms="0.0000000000000000e+00" purity="4.2322725057601929e-01" nType="-1"/>
        </Node>
      </Node>
    </BinaryTree>
    <BinaryTree type="DecisionTree" boostWeight="1.2389162041707195e-01" itree="18">
      <Node pos="s" depth="0" NCoef="0" IVar="11" Cut="2.5224132537841797e+00" cType="1" res="-9.9000000000000000e+01" rms="0.0000000000000000e+00" purity="4.9527636170387268e-01" nType="0">
        <Node pos="l" depth="1" NCoef="0" IVar="6" Cut="-2.6275682449340820e-01" cType="1" res="-9.9000000000000000e+01" rms="0.0000000000000000e+00" purity="5.0255441665649414e-01" nType="0">
          <Node pos="l" depth="2" NCoef="0" IVar="6" Cut="-8.5563588142395020e-01" cType="0" res="-9.9000000000000000e+01" rms="0.0000000000000000e+00" purity="5.2416783571243286e-01" nType="0">
            <Node pos="l" depth="3" NCoef="0" IVar="-1" Cut="-9.0532195568084717e-01" cType="1" res="-9.9000000000000000e+01" rms="0.0000000000000000e+00" purity="5.5318063497543335e-01" nType="1"/>
            <Node pos="r" depth="3" NCoef="0" IVar="2" Cut="5.0157779455184937e-01" cType="0" res="-9.9000000000000000e+01" rms="0.0000000000000000e+00" purity="4.6880972385406494e-01" nType="0">
              <Node pos="l" depth="4" NCoef="0" IVar="14" Cut="6.8888068199157715e-01" cType="1" res="-9.9000000000000000e+01" rms="0.0000000000000000e+00" purity="4.9851605296134949e-01" nType="0">
                <Node pos="l" depth="5" NCoef="0" IVar="-1" Cut="0.0000000000000000e+00" cType="1" res="-9.9000000000000000e+01" rms="0.0000000000000000e+00" purity="5.3619664907455444e-01" nType="1"/>
                <Node pos="r" depth="5" NCoef="0" IVar="-1" Cut="0.0000000000000000e+00" cType="1" res="-9.9000000000000000e+01" rms="0.0000000000000000e+00" purity="4.6620318293571472e-01" nType="-1"/>
              </Node>
              <Node pos="r" depth="4" NCoef="0" IVar="-1" Cut="0.0000000000000000e+00" cType="1" res="-9.9000000000000000e+01" rms="0.0000000000000000e+00" purity="4.2237457633018494e-01" nType="-1"/>
            </Node>
          </Node>
          <Node pos="r" depth="2" NCoef="0" IVar="2" Cut="1.4847612380981445e+00" cType="0" res="-9.9000000000000000e+01" rms="0.0000000000000000e+00" purity="4.5712968707084656e-01" nType="0">
            <Node pos="l" depth="3" NCoef="0" IVar="-1" Cut="0.0000000000000000e+00" cType="1" res="-9.9000000000000000e+01" rms="0.0000000000000000e+00" purity="5.3870421648025513e-01" nType="1"/>
            <Node pos="r" depth="3" NCoef="0" IVar="-1" Cut="5.7734417915344238e-01" cType="0" res="-9.9000000000000000e+01" rms="0.0000000000000000e+00" purity="4.1894185543060303e-01" nType="-1"/>
          </Node>
        </Node>
        <Node pos="r" depth="1" NCoef="0" IVar="-1" Cut="0.0000000000000000e+00" cType="1" res="-9.9000000000000000e+01" rms="0.0000000000000000e+00" purity="3.6110007762908936e-01" nType="-1"/>
      </Node>
    </BinaryTree>
    <BinaryTree type="DecisionTree" boostWeight="1.1774745885170519e-01" itree="19">
      <Node pos="s" depth="0" NCoef="0" IVar="1" Cut="-1.1060998439788818e+00" cType="1" res="-9.9000000000000000e+01" rms="0.0000000000000000e+00" purity="4.9016207456588745e-01" nType="0">
        <Node pos="l" depth="1" NCoef="0" IVar="-1" Cut="-8.0174559354782104e-01" cType="1" res="-9.9000000000000000e+01" rms="0.0000000000000000e+00" purity="5.8252006769180298e-01" nType="1"/>
        <Node pos="r" depth="1" NCoef="0" IVar="5" Cut="-1.8774008750915527e+00" cType="0" res="-9.9000000000000000e+01" rms="0.0000000000000000e+00" purity="4.7982424497604370e-01" nType="0">
          <Node pos="l" depth="2" NCoef="0" IVar="5" Cut="9.1594117879867554e-01" cType="1" res="-9.9000000000000000e+01" rms="0.0000000000000000e+00" purity="4.8695674538612366e-01" nType="0">
            <Node pos="l" depth="3" NCoef="0" IVar="2" Cut="1.5244944095611572e+00" cType="0" res="-9.9000000000000000e+01" rms="0.0000000000000000e+00" purity="4.9569341540336609e-01" nType="0">
              <Node pos="l" depth="4" NCoef="0" IVar="2" Cut="2.3253159523010254e+00" cType="1" res="-9.9000000000000000e+01" rms="0.0000000000000000e+00" purity="5.4114842414855957e-01" nType="0">
                <Node pos="l" depth="5" NCoef="0" IVar="-1" Cut="0.0000000000000000e+00" cType="1" res="-9.9000000000000000e+01" rms="0.0000000000000000e+00" purity="5.8653426170349121e-01" nType="1"/>
                <Node pos="r" depth="5" NCoef="0" IVar="-1" Cut="0.0000000000000000e+00" cType="1" res="-9.9000000000000000e+01" rms="0.0000000000000000e+00" purity="4.5937848091125488e-01" nType="-1"/>
              </Node>
              <Node pos="r" depth="4" NCoef="0" IVar="1" Cut="3.8735127449035645e-01" cType="0" res="-9.9000000000000000e+01" rms="0.0000000000000000e+00" purity="4.7524550557136536e-01" nType="0">
                <Node pos="l" depth="5" NCoef="0" IVar="-1" Cut="0.0000000000000000e+00" cType="1" res="-9.9000000000000000e+01" rms="0.0000000000000000e+00" purity="5.1166081428527832e-01" nType="1"/>
                <Node pos="r" depth="5" NCoef="0" IVar="-1" Cut="0.0000000000000000e+00" cType="1" res="-9.9000000000000000e+01" rms="0.0000000000000000e+00" purity="4.3972852826118469e-01" nType="-1"/>
              </Node>
            </Node>
            <Node pos="r" depth="3" NCoef="0" IVar="-1" Cut="0.0000000000000000e+00" cType="1" res="-9.9000000000000000e+01" rms="0.0000000000000000e+00" purity="4.0852510929107666e-01" nType="-1"/>
          </Node>
          <Node pos="r" depth="2" NCoef="0" IVar="-1" Cut="0.0000000000000000e+00" cType="1" res="-9.9000000000000000e+01" rms="0.0000000000000000e+00" purity="3.7645477056503296e-01" nType="-1"/>
        </Node>
      </Node>
    </BinaryTree>
    <BinaryTree type="DecisionTree" boostWeight="9.8739093648752649e-02" itree="20">
      <Node pos="s" depth="0" NCoef="0" IVar="7" Cut="-2.1418324112892151e-01" cType="1" res="-9.9000000000000000e+01" rms="0.0000000000000000e+00" purity="4.8953184485435486e-01" nType="0">
        <Node pos="l" depth="1" NCoef="0" IVar="7" Cut="-7.3661780357360840e-01" cType="0" res="-9.9000000000000000e+01" rms="0.0000000000000000e+00" purity="5.0609141588211060e-01" nType="0">
          <Node pos="l" depth="2" NCoef="0" IVar="3" Cut="3.3542767167091370e-01" cType="1" res="-9.9000000000000000e+01" rms="0.0000000000000000e+00" purity="5.3148502111434937e-01" nType="0">
            <Node pos="l" depth="3" NCoef="0" IVar="-1" Cut="0.0000000000000000e+00" cType="1" res="-9.9000000000000000e+01" rms="0.0000000000000000e+00" purity="6.0869103670120239e-01" nType="1"/>
            <Node pos="r" depth="3" NCoef="0" IVar="3" Cut="1.1260327100753784e+00" cType="1" res="-9.9000000000000000e+01" rms="0.0000000000000000e+00" purity="5.0954353809356689e-01" nType="0">
              <Node pos="l" depth="4" NCoef="0" IVar="-1" Cut="1.2042855024337769e+00" cType="0" res="-9.9000000000000000e+01" rms="0.0000000000000000e+00" purity="5.4056698083877563e-01" nType="1"/>
              <Node pos="r" depth="4" NCoef="0" IVar="7" Cut="-4.3807968497276306e-01" cType="1" res="-9.9000000000000000e+01" rms="0.0000000000000000e+00" purity="4.8622649908065796e-01" nType="0">
                <Node pos="l" depth="5" NCoef="0" IVar="-1" Cut="0.0000000000000000e+00" cType="1" res="-9.9000000000000000e+01" rms="0.0000000000000000e+00" purity="5.0550502538681030e-01" nType="1"/>
                <Node pos="r" depth="5" NCoef="0" IVar="-1" Cut="0.0000000000000000e+00" cType="1" res="-9.9000000000000000e+01" rms="0.0000000000000000e+00" purity="4.5687508583068848e-01" nType="-1"/>
              </Node>
            </Node>
          </Node>
          <Node pos="r" depth="2" NCoef="0" IVar="5" Cut="-8.5567831993103027e-01" cType="0" res="-9.9000000000000000e+01" rms="0.0000000000000000e+00" purity="4.6910485625267029e-01" nType="0">
            <Node pos="l" depth="3" NCoef="0" IVar="5" Cut="-3.4521825611591339e-02" cType="1" res="-9.9000000000000000e+01" rms="0.0000000000000000e+00" purity="4.8196601867675781e-01" nType="0">
              <Node pos="l" depth="4" NCoef="0" IVar="8" Cut="2.5170843601226807e+00" cType="0" res="-9.9000000000000000e+01" rms="0.0000000000000000e+00" purity="4.9902826547622681e-01" nType="0">
                <Node pos="l" depth="5" NCoef="0" IVar="-1" Cut="0.0000000000000000e+00" cType="1" res="-9.9000000000000000e+01" rms="0.0000000000000000e+00" purity="5.2683347463607788e-01" nType="1"/>
                <Node pos="r" depth="5" NCoef="0" IVar="-1" Cut="0.0000000000000000e+00" cType="1" res="-9.9000000000000000e+01" rms="0.0000000000000000e+00" purity="4.7246825695037842e-01" nType="-1"/>
              </Node>
              <Node pos="r" depth="4" NCoef="0" IVar="-1" Cut="0.0000000000000000e+00" cType="1" res="-9.9000000000000000e+01" rms="0.0000000000000000e+00" purity="4.4817608594894409e-01" nType="-1"/>
            </Node>
            <Node pos="r" depth="3" NCoef="0" IVar="-1" Cut="0.0000000000000000e+00" cType="1" res="-9.9000000000000000e+01" rms="0.0000000000000000e+00" purity="4.1740846633911133e-01" nType="-1"/>
          </Node>
        </Node>
        <Node pos="r" depth="1" NCoef="0" IVar="4" Cut="1.2662467360496521e-01" cType="1" res="-9.9000000000000000e+01" rms="0.0000000000000000e+00" purity="4.5578062534332275e-01" nType="0">
          <Node pos="l" depth="2" NCoef="0" IVar="4" Cut="-9.3880337476730347e-01" cType="0" res="-9.9000000000000000e+01" rms="0.0000000000000000e+00" purity="4.7350886464118958e-01" nType="0">
            <Node pos="l" depth="3" NCoef="0" IVar="14" Cut="1.6123758554458618e+00" cType="0" res="-9.9000000000000000e+01" rms="0.0000000000000000e+00" purity="4.9300009012222290e-01" nType="0">
              <Node pos="l" depth="4" NCoef="0" IVar="-1" Cut="0.0000000000000000e+00" cType="1" res="-9.9000000000000000e+01" rms="0.0000000000000000e+00" purity="5.1877796649932861e-01" nType="1"/>
              <Node pos="r" depth="4" NCoef="0" IVar="-1" Cut="0.0000000000000000e+00" cType="1" res="-9.9000000000000000e+01" rms="0.0000000000000000e+00" purity="4.6421918272972107e-01" nType="-1"/>
            </Node>
            <Node pos="r" depth="3" NCoef="0" IVar="-1" Cut="0.0000000000000000e+00" cType="1" res="-9.9000000000000000e+01" rms="0.0000000000000000e+00" purity="4.1462713479995728e-01" nType="-1"/>
          </Node>
          <Node pos="r" depth="2" NCoef="0" IVar="-1" Cut="0.0000000000000000e+00" cType="1" res="-9.9000000000000000e+01" rms="0.0000000000000000e+00" purity="3.9164742827415466e-01" nType="-1"/>
        </Node>
      </Node>
    </BinaryTree>
    <BinaryTree type="DecisionTree" boostWeight="9.5895090917681752e-02" itree="21">
      <Node pos="s" depth="0" NCoef="0" IVar="6" Cut="6.7102092504501343e-01" cType="1" res="-9.9000000000000000e+01" rms="0.0000000000000000e+00" purity="4.8943859338760376e-01" nType="0">
        <Node pos="l" depth="1" NCoef="0" IVar="1" Cut="-9.0311223268508911e-01" cType="1" res="-9.9000000000000000e+01" rms="0.0000000000000000e+00" purity="4.9789181351661682e-01" nType="0">
          <Node pos="l" depth="2" NCoef="0" IVar="-1" Cut="-1.1795661449432373e+00" cType="1" res="-9.9000000000000000e+01" rms="0.0000000000000000e+00" purity="5.6039816141128540e-01" nType="1"/>
          <Node pos="r" depth="2" NCoef="0" IVar="2" Cut="1.1798040866851807e+00" cType="0" res="-9.9000000000000000e+01" rms="0.0000000000000000e+00" purity="4.8798930644989014e-01" nType="0">
            <Node pos="l" depth="3" NCoef="0" IVar="3" Cut="4.7308292984962463e-01" cType="1" res="-9.9000000000000000e+01" rms="0.0000000000000000e+00" purity="5.1840978860855103e-01" nType="0">
              <Node pos="l" depth="4" NCoef="0" IVar="-1" Cut="0.0000000000000000e+00" cType="1" res="-9.9000000000000000e+01" rms="0.0000000000000000e+00" purity="5.7856631278991699e-01" nType="1"/>
              <Node pos="r" depth="4" NCoef="0" IVar="14" Cut="1.9728492498397827e+00" cType="0" res="-9.9000000000000000e+01" rms="0.0000000000000000e+00" purity="4.9512061476707458e-01" nType="0">
                <Node pos="l" depth="5" NCoef="0" IVar="-1" Cut="0.0000000000000000e+00" cType="1" res="-9.9000000000000000e+01" rms="0.0000000000000000e+00" purity="5.5172461271286011e-01" nType="1"/>
                <Node pos="r" depth="5" NCoef="0" IVar="-1" Cut="0.0000000000000000e+00" cType="1" res="-9.9000000000000000e+01" rms="0.0000000000000000e+00" purity="4.6105235815048218e-01" nType="-1"/>
              </Node>
            </Node>
            <Node pos="r" depth="3" NCoef="0" IVar="-1" Cut="1.1980280876159668e+00" cType="1" res="-9.9000000000000000e+01" rms="0.0000000000000000e+00" purity="4.6668669581413269e-01" nType="-1"/>
          </Node>
        </Node>
        <Node pos="r" depth="1" NCoef="0" IVar="-1" Cut="2.4869678914546967e-01" cType="0" res="-9.9000000000000000e+01" rms="0.0000000000000000e+00" purity="4.2432305216789246e-01" nType="-1"/>
      </Node>
    </BinaryTree>
    <BinaryTree type="DecisionTree" boostWeight="9.8463778529309237e-02" itree="22">
      <Node pos="s" depth="0" NCoef="0" IVar="11" Cut="2.5224132537841797e+00" cType="1" res="-9.9000000000000000e+01" rms="0.0000000000000000e+00" purity="4.9929988384246826e-01" nType="0">
        <Node pos="l" depth="1" NCoef="0" IVar="4" Cut="-1.4196350239217281e-02" cType="1" res="-9.9000000000000000e+01" rms="0.0000000000000000e+00" purity="5.0429242849349976e-01" nType="0">
          <Node pos="l" depth="2" NCoef="0" IVar="10" Cut="7.1071225404739380e-01" cType="1" res="-9.9000000000000000e+01" rms="0.0000000000000000e+00" purity="5.1637613773345947e-01" nType="0">
            <Node pos="l" depth="3" NCoef="0" IVar="3" Cut="8.9355891942977905e-01" cType="1" res="-9.9000000000000000e+01" rms="0.0000000000000000e+00" purity="5.3122848272323608e-01" nType="0">
              <Node pos="l" depth="4" NCoef="0" IVar="-1" Cut="6.3967579603195190e-01" cType="1" res="-9.9000000000000000e+01" rms="0.0000000000000000e+00" purity="5.6974238157272339e-01" nType="1"/>
              <Node pos="r" depth="4" NCoef="0" IVar="11" Cut="9.5886242389678955e-01" cType="0" res="-9.9000000000000000e+01" rms="0.0000000000000000e+00" purity="4.9870052933692932e-01" nType="0">
                <Node pos="l" depth="5" NCoef="0" IVar="-1" Cut="0.0000000000000000e+00" cType="1" res="-9.9000000000000000e+01" rms="0.0000000000000000e+00" purity="5.5363714694976807e-01" nType="1"/>
                <Node pos="r" depth="5" NCoef="0" IVar="-1" Cut="0.0000000000000000e+00" cType="1" res="-9.9000000000000000e+01" rms="0.0000000000000000e+00" purity="4.8124992847442627e-01" nType="-1"/>
              </Node>
            </Node>
            <Node pos="r" depth="3" NCoef="0" IVar="11" Cut="4.7427845001220703e-01" cType="0" res="-9.9000000000000000e+01" rms="0.0000000000000000e+00" purity="4.8367038369178772e-01" nType="0">
              <Node pos="l" depth="4" NCoef="0" IVar="-1" Cut="0.0000000000000000e+00" cType="1" res="-9.9000000000000000e+01" rms="0.0000000000000000e+00" purity="5.2491343021392822e-01" nType="1"/>
              <Node pos="r" depth="4" NCoef="0" IVar="-1" Cut="4.9433188438415527e+00" cType="1" res="-9.9000000000000000e+01" rms="0.0000000000000000e+00" purity="4.5628559589385986e-01" nType="-1"/>
            </Node>
          </Node>
          <Node pos="r" depth="2" NCoef="0" IVar="9" Cut="5.7039566040039062e+00" cType="0" res="-9.9000000000000000e+01" rms="0.0000000000000000e+00" purity="4.6973043680191040e-01" nType="0">
            <Node pos="l" depth="3" NCoef="0" IVar="-1" Cut="0.0000000000000000e+00" cType="1" res="-9.9000000000000000e+01" rms="0.0000000000000000e+00" purity="5.1900488138198853e-01" nType="1"/>
            <Node pos="r" depth="3" NCoef="0" IVar="12" Cut="1.9575130194425583e-02" cType="1" res="-9.9000000000000000e+01" rms="0.0000000000000000e+00" purity="4.4969499111175537e-01" nType="0">
              <Node pos="l" depth="4" NCoef="0" IVar="-1" Cut="0.0000000000000000e+00" cType="1" res="-9.9000000000000000e+01" rms="0.0000000000000000e+00" purity="5.2729105949401855e-01" nType="1"/>
              <Node pos="r" depth="4" NCoef="0" IVar="-1" Cut="4.7078485488891602e+00" cType="0" res="-9.9000000000000000e+01" rms="0.0000000000000000e+00" purity="4.0204152464866638e-01" nType="-1"/>
            </Node>
          </Node>
        </Node>
        <Node pos="r" depth="1" NCoef="0" IVar="-1" Cut="0.0000000000000000e+00" cType="1" res="-9.9000000000000000e+01" rms="0.0000000000000000e+00" purity="4.0588033199310303e-01" nType="-1"/>
      </Node>
    </BinaryTree>
    <BinaryTree type="DecisionTree" boostWeight="7.2163483720061858e-02" itree="23">
      <Node pos="s" depth="0" NCoef="0" IVar="4" Cut="3.3887949585914612e-01" cType="1" res="-9.9000000000000000e+01" rms="0.0000000000000000e+00" purity="4.9880516529083252e-01" nType="0">
        <Node pos="l" depth="1" NCoef="0" IVar="10" Cut="2.4736030101776123e+00" cType="1" res="-9.9000000000000000e+01" rms="0.0000000000000000e+00" purity="5.0821608304977417e-01" nType="0">
          <Node pos="l" depth="2" NCoef="0" IVar="11" Cut="1.9753805398941040e+00" cType="1" res="-9.9000000000000000e+01" rms="0.0000000000000000e+00" purity="5.1569342613220215e-01" nType="0">
            <Node pos="l" depth="3" NCoef="0" IVar="3" Cut="3.8363444805145264e-01" cType="1" res="-9.9000000000000000e+01" rms="0.0000000000000000e+00" purity="5.2374756336212158e-01" nType="0">
              <Node pos="l" depth="4" NCoef="0" IVar="13" Cut="2.6156514883041382e-01" cType="1" res="-9.9000000000000000e+01" rms="0.0000000000000000e+00" purity="5.6246572732925415e-01" nType="0">
                <Node pos="l" depth="5" NCoef="0" IVar="-1" Cut="0.0000000000000000e+00" cType="1" res="-9.9000000000000000e+01" rms="0.0000000000000000e+00" purity="6.1024385690689087e-01" nType="1"/>
                <Node pos="r" depth="5" NCoef="0" IVar="-1" Cut="0.0000000000000000e+00" cType="1" res="-9.9000000000000000e+01" rms="0.0000000000000000e+00" purity="4.8412466049194336e-01" nType="-1"/>
              </Node>
              <Node pos="r" depth="4" NCoef="0" IVar="12" Cut="3.6601815372705460e-02" cType="1" res="-9.9000000000000000e+01" rms="0.0000000000000000e+00" purity="5.1172494888305664e-01" nType="0">
                <Node pos="l" depth="5" NCoef="0" IVar="-1" Cut="0.0000000000000000e+00" cType="1" res="-9.9000000000000000e+01" rms="0.0000000000000000e+00" purity="5.3898954391479492e-01" nType="1"/>
                <Node pos="r" depth="5" NCoef="0" IVar="-1" Cut="0.0000000000000000e+00" cType="1" res="-9.9000000000000000e+01" rms="0.0000000000000000e+00" purity="4.9840220808982849e-01" nType="-1"/>
              </Node>
            </Node>
            <Node pos="r" depth="3" NCoef="0" IVar="-1" Cut="0.0000000000000000e+00" cType="1" res="-9.9000000000000000e+01" rms="0.0000000000000000e+00" purity="4.6060216426849365e-01" nType="-1"/>
          </Node>
          <Node pos="r" depth="2" NCoef="0" IVar="-1" Cut="0.0000000000000000e+00" cType="1" res="-9.9000000000000000e+01" rms="0.0000000000000000e+00" purity="4.1515463590621948e-01" nType="-1"/>
        </Node>
        <Node pos="r" depth="1" NCoef="0" IVar="-1" Cut="-2.3319267202168703e-03" cType="1" res="-9.9000000000000000e+01" rms="0.0000000000000000e+00" purity="4.5300281047821045e-01" nType="-1"/>
      </Node>
    </BinaryTree>
    <BinaryTree type="DecisionTree" boostWeight="8.8651257407409242e-02" itree="24">
      <Node pos="s" depth="0" NCoef="0" IVar="5" Cut="-1.5441075563430786e+00" cType="0" res="-9.9000000000000000e+01" rms="0.0000000000000000e+00" purity="5.0724917650222778e-01" nType="0">
        <Node pos="l" depth="1" NCoef="0" IVar="5" Cut="-1.1568219214677811e-01" cType="1" res="-9.9000000000000000e+01" rms="0.0000000000000000e+00" purity="5.1360869407653809e-01" nType="0">
          <Node pos="l" depth="2" NCoef="0" IVar="14" Cut="6.2453347444534302e-01" cType="1" res="-9.9000000000000000e+01" rms="0.0000000000000000e+00" purity="5.2765542268753052e-01" nType="0">
            <Node pos="l" depth="3" NCoef="0" IVar="4" Cut="-1.7396862804889679e-01" cType="1" res="-9.9000000000000000e+01" rms="0.0000000000000000e+00" purity="5.5539751052856445e-01" nType="0">
              <Node pos="l" depth="4" NCoef="0" IVar="-1" Cut="5.3508144617080688e-01" cType="1" res="-9.9000000000000000e+01" rms="0.0000000000000000e+00" purity="5.7906615734100342e-01" nType="1"/>
              <Node pos="r" depth="4" NCoef="0" IVar="-1" Cut="0.0000000000000000e+00" cType="1" res="-9.9000000000000000e+01" rms="0.0000000000000000e+00" purity="4.9782714247703552e-01" nType="-1"/>
            </Node>
            <Node pos="r" depth="3" NCoef="0" IVar="12" Cut="3.8719436526298523e-01" cType="0" res="-9.9000000000000000e+01" rms="0.0000000000000000e+00" purity="5.0607341527938843e-01" nType="0">
              <Node pos="l" depth="4" NCoef="0" IVar="-1" Cut="0.0000000000000000e+00" cType="1" res="-9.9000000000000000e+01" rms="0.0000000000000000e+00" purity="5.4224622249603271e-01" nType="1"/>
              <Node pos="r" depth="4" NCoef="0" IVar="14" Cut="2.6961054801940918e+00" cType="0" res="-9.9000000000000000e+01" rms="0.0000000000000000e+00" purity="4.8618388175964355e-01" nType="0">
                <Node pos="l" depth="5" NCoef="0" IVar="-1" Cut="0.0000000000000000e+00" cType="1" res="-9.9000000000000000e+01" rms="0.0000000000000000e+00" purity="5.1637870073318481e-01" nType="1"/>
                <Node pos="r" depth="5" NCoef="0" IVar="-1" Cut="0.0000000000000000e+00" cType="1" res="-9.9000000000000000e+01" rms="0.0000000000000000e+00" purity="4.5250406861305237e-01" nType="-1"/>
              </Node>
            </Node>
          </Node>
          <Node pos="r" depth="2" NCoef="0" IVar="14" Cut="1.8047930002212524e+00" cType="0" res="-9.9000000000000000e+01" rms="0.0000000000000000e+00" purity="4.8399680852890015e-01" nType="0">
            <Node pos="l" depth="3" NCoef="0" IVar="1" Cut="3.3099913597106934e-01" cType="0" res="-9.9000000000000000e+01" rms="0.0000000000000000e+00" purity="5.2310252189636230e-01" nType="0">
              <Node pos="l" depth="4" NCoef="0" IVar="-1" Cut="0.0000000000000000e+00" cType="1" res="-9.9000000000000000e+01" rms="0.0000000000000000e+00" purity="5.5680358409881592e-01" nType="1"/>
              <Node pos="r" depth="4" NCoef="0" IVar="-1" Cut="0.0000000000000000e+00" cType="1" res="-9.9000000000000000e+01" rms="0.0000000000000000e+00" purity="4.9596834182739258e-01" nType="-1"/>
            </Node>
            <Node pos="r" depth="3" NCoef="0" IVar="-1" Cut="5.3450303077697754e+00" cType="0" res="-9.9000000000000000e+01" rms="0.0000000000000000e+00" purity="4.4990742206573486e-01" nType="-1"/>
          </Node>
        </Node>
        <Node pos="r" depth="1" NCoef="0" IVar="-1" Cut="0.0000000000000000e+00" cType="1" res="-9.9000000000000000e+01" rms="0.0000000000000000e+00" purity="4.4279962778091431e-01" nType="-1"/>
      </Node>
    </BinaryTree>
    <BinaryTree type="DecisionTree" boostWeight="8.8848018198657175e-02" itree="25">
      <Node pos="s" depth="0" NCoef="0" IVar="12" Cut="1.3774416446685791e+00" cType="1" res="-9.9000000000000000e+01" rms="0.0000000000000000e+00" purity="5.0756359100341797e-01" nType="0">
        <Node pos="l" depth="1" NCoef="0" IVar="12" Cut="1.0724611282348633e+00" cType="0" res="-9.9000000000000000e+01" rms="0.0000000000000000e+00" purity="5.1450467109680176e-01" nType="0">
          <Node pos="l" depth="2" NCoef="0" IVar="-1" Cut="0.0000000000000000e+00" cType="1" res="-9.9000000000000000e+01" rms="0.0000000000000000e+00" purity="5.7245743274688721e-01" nType="1"/>
          <Node pos="r" depth="2" NCoef="0" IVar="11" Cut="6.9605052471160889e-02" cType="1" res="-9.9000000000000000e+01" rms="0.0000000000000000e+00" purity="5.0282901525497437e-01" nType="0">
            <Node pos="l" depth="3" NCoef="0" IVar="-1" Cut="7.0871287584304810e-01" cType="1" res="-9.9000000000000000e+01" rms="0.0000000000000000e+00" purity="5.6837797164916992e-01" nType="1"/>
            <Node pos="r" depth="3" NCoef="0" IVar="6" Cut="6.1278200149536133e-01" cType="1" res="-9.9000000000000000e+01" rms="0.0000000000000000e+00" purity="4.8826265335083008e-01" nType="0">
              <Node pos="l" depth="4" NCoef="0" IVar="3" Cut="2.2140786051750183e-01" cType="1" res="-9.9000000000000000e+01" rms="0.0000000000000000e+00" purity="4.9752008914947510e-01" nType="0">
                <Node pos="l" depth="5" NCoef="0" IVar="-1" Cut="0.0000000000000000e+00" cType="1" res="-9.9000000000000000e+01" rms="0.0000000000000000e+00" purity="5.6559246778488159e-01" nType="1"/>
                <Node pos="r" depth="5" NCoef="0" IVar="-1" Cut="0.0000000000000000e+00" cType="1" res="-9.9000000000000000e+01" rms="0.0000000000000000e+00" purity="4.8403525352478027e-01" nType="-1"/>
              </Node>
              <Node pos="r" depth="4" NCoef="0" IVar="-1" Cut="0.0000000000000000e+00" cType="1" res="-9.9000000000000000e+01" rms="0.0000000000000000e+00" purity="3.8698694109916687e-01" nType="-1"/>
            </Node>
          </Node>
        </Node>
        <Node pos="r" depth="1" NCoef="0" IVar="9" Cut="4.7816877365112305e+00" cType="0" res="-9.9000000000000000e+01" rms="0.0000000000000000e+00" purity="4.5783600211143494e-01" nType="0">
          <Node pos="l" depth="2" NCoef="0" IVar="-1" Cut="0.0000000000000000e+00" cType="1" res="-9.9000000000000000e+01" rms="0.0000000000000000e+00" purity="5.0371015071868896e-01" nType="1"/>
          <Node pos="r" depth="2" NCoef="0" IVar="-1" Cut="0.0000000000000000e+00" cType="1" res="-9.9000000000000000e+01" rms="0.0000000000000000e+00" purity="3.9891517162322998e-01" nType="-1"/>
        </Node>
      </Node>
    </BinaryTree>
    <BinaryTree type="DecisionTree" boostWeight="1.1490826454799756e-01" itree="26">
