<?xml version="1.0"?>
<MethodSetup Method="BDT::BDTD">
  <GeneralInfo>
    <Info name="TMVA Release" value="4.2.1 [262657]"/>
    <Info name="ROOT Release" value="6.30/08 [400904]"/>
    <Info name="Creator" value="zinchenk"/>
    <Info name="Date" value="Thu Jul 17 17:04:56 2025"/>
    <Info name="Host" value="Linux buildkitsandbox 4.15.0-200-generic #211-Ubuntu SMP Thu Nov 24 18:16:04 UTC 2022 x86_64 x86_64 x86_64 GNU/Linux"/>
    <Info name="Dir" value="/data2/zinchenk/TMVA/VectorFinder/2025"/>
    <Info name="Training events" value="127445"/>
    <Info name="TrainingTime" value="9.10468109e+01"/>
    <Info name="AnalysisType" value="Classification"/>
  </GeneralInfo>
  <Options>
    <Option name="V" modified="Yes">False</Option>
    <Option name="VerbosityLevel" modified="No">Default</Option>
    <Option name="VarTransform" modified="Yes">Decorrelate</Option>
    <Option name="H" modified="Yes">False</Option>
    <Option name="CreateMVAPdfs" modified="No">False</Option>
    <Option name="IgnoreNegWeightsInTraining" modified="No">False</Option>
    <Option name="NTrees" modified="Yes">400</Option>
    <Option name="MaxDepth" modified="Yes">5</Option>
    <Option name="MinNodeSize" modified="Yes">5%</Option>
    <Option name="nCuts" modified="Yes">20</Option>
    <Option name="BoostType" modified="Yes">AdaBoost</Option>
    <Option name="AdaBoostR2Loss" modified="No">quadratic</Option>
    <Option name="UseBaggedBoost" modified="No">False</Option>
    <Option name="Shrinkage" modified="No">1.000000e+00</Option>
    <Option name="AdaBoostBeta" modified="No">5.000000e-01</Option>
    <Option name="UseRandomisedTrees" modified="No">False</Option>
    <Option name="UseNvars" modified="No">4</Option>
    <Option name="UsePoissonNvars" modified="No">True</Option>
    <Option name="BaggedSampleFraction" modified="No">6.000000e-01</Option>
    <Option name="UseYesNoLeaf" modified="No">True</Option>
    <Option name="NegWeightTreatment" modified="No">inverseboostnegweights</Option>
    <Option name="Css" modified="No">1.000000e+00</Option>
    <Option name="Cts_sb" modified="No">1.000000e+00</Option>
    <Option name="Ctb_ss" modified="No">1.000000e+00</Option>
    <Option name="Cbb" modified="No">1.000000e+00</Option>
    <Option name="NodePurityLimit" modified="No">5.000000e-01</Option>
    <Option name="SeparationType" modified="Yes">giniindex</Option>
    <Option name="RegressionLossFunctionBDTG" modified="No">huber</Option>
    <Option name="HuberQuantile" modified="No">7.000000e-01</Option>
    <Option name="DoBoostMonitor" modified="No">False</Option>
    <Option name="UseFisherCuts" modified="No">False</Option>
    <Option name="MinLinCorrForFisher" modified="No">8.000000e-01</Option>
    <Option name="UseExclusiveVars" modified="No">False</Option>
    <Option name="DoPreselection" modified="No">False</Option>
    <Option name="SigToBkgFraction" modified="No">1.000000e+00</Option>
    <Option name="PruneMethod" modified="No">nopruning</Option>
    <Option name="PruneStrength" modified="No">0.000000e+00</Option>
    <Option name="PruningValFraction" modified="No">5.000000e-01</Option>
    <Option name="SkipNormalization" modified="No">False</Option>
    <Option name="nEventsMin" modified="No">0</Option>
    <Option name="UseBaggedGrad" modified="No">False</Option>
    <Option name="GradBaggingFraction" modified="No">6.000000e-01</Option>
    <Option name="UseNTrainEvents" modified="No">0</Option>
    <Option name="NNodesMax" modified="No">0</Option>
  </Options>
  <Variables NVar="15">
    <Variable VarIndex="0" Expression="atan2(yb,xb)" Label="atan2(yb,xb)" Title="phib" Unit="" Internal="atan2_yb,xb_" Type="F" Min="-3.14156222e+00" Max="3.14155316e+00"/>
    <Variable VarIndex="1" Expression="tx" Label="tx" Title="tx" Unit="" Internal="tx" Type="F" Min="-6.64354086e-01" Max="7.61107862e-01"/>
    <Variable VarIndex="2" Expression="log(abs(momr))" Label="log(abs(momr))" Title="momr" Unit="" Internal="log_abs_momr__" Type="F" Min="-2.32066393e+00" Max="9.20767117e+00"/>
    <Variable VarIndex="3" Expression="chi2" Label="chi2" Title="chi2" Unit="" Internal="chi2" Type="F" Min="8.17784807e-04" Max="4.99948931e+00"/>
    <Variable VarIndex="4" Expression="corrq[0]" Label="corrq[0]" Title="corrq_0" Unit="" Internal="corrq_0_" Type="F" Min="-9.93267655e-01" Max="9.90153491e-01"/>
    <Variable VarIndex="5" Expression="corrq[1]" Label="corrq[1]" Title="corrq_1" Unit="" Internal="corrq_1_" Type="F" Min="-9.92630303e-01" Max="9.94466841e-01"/>
    <Variable VarIndex="6" Expression="corrq[2]" Label="corrq[2]" Title="corrq_2" Unit="" Internal="corrq_2_" Type="F" Min="-9.98052955e-01" Max="9.96159613e-01"/>
    <Variable VarIndex="7" Expression="corrq[3]" Label="corrq[3]" Title="corrq_3" Unit="" Internal="corrq_3_" Type="F" Min="-9.97761190e-01" Max="9.97353375e-01"/>
    <Variable VarIndex="8" Expression="corrq3" Label="corrq3" Title="corrQ" Unit="" Internal="corrq3" Type="F" Min="2.44855285e-02" Max="3.48100853e+00"/>
    <Variable VarIndex="9" Expression="nseqmx" Label="nseqmx" Title="nseqmx" Unit="" Internal="nseqmx" Type="F" Min="2.00000000e+00" Max="4.00000000e+00"/>
    <Variable VarIndex="10" Expression="corrn[0]" Label="corrn[0]" Title="over0" Unit="" Internal="corrn_0_" Type="F" Min="0.00000000e+00" Max="1.10000000e+01"/>
    <Variable VarIndex="11" Expression="corrn[1]" Label="corrn[1]" Title="over1" Unit="" Internal="corrn_1_" Type="F" Min="0.00000000e+00" Max="1.10000000e+01"/>
    <Variable VarIndex="12" Expression="corrn[2]" Label="corrn[2]" Title="over2" Unit="" Internal="corrn_2_" Type="F" Min="0.00000000e+00" Max="1.90000000e+01"/>
    <Variable VarIndex="13" Expression="corrn[3]" Label="corrn[3]" Title="over3" Unit="" Internal="corrn_3_" Type="F" Min="0.00000000e+00" Max="1.50000000e+01"/>
    <Variable VarIndex="14" Expression="nsigem" Label="nsigem" Title="nsigem" Unit="" Internal="nsigem" Type="F" Min="4.00000000e+00" Max="4.00000000e+01"/>
  </Variables>
  <Spectators NSpec="0"/>
  <Classes NClass="2">
    <Class Name="Signal" Index="0"/>
    <Class Name="Background" Index="1"/>
  </Classes>
  <Transformations NTransformations="1">
    <Transform Name="Decorrelation">
      <Selection>
        <Input NInputs="15">
          <Input Type="Variable" Label="atan2(yb,xb)" Expression="atan2(yb,xb)"/>
          <Input Type="Variable" Label="tx" Expression="tx"/>
          <Input Type="Variable" Label="log(abs(momr))" Expression="log(abs(momr))"/>
          <Input Type="Variable" Label="chi2" Expression="chi2"/>
          <Input Type="Variable" Label="corrq[0]" Expression="corrq[0]"/>
          <Input Type="Variable" Label="corrq[1]" Expression="corrq[1]"/>
          <Input Type="Variable" Label="corrq[2]" Expression="corrq[2]"/>
          <Input Type="Variable" Label="corrq[3]" Expression="corrq[3]"/>
          <Input Type="Variable" Label="corrq3" Expression="corrq3"/>
          <Input Type="Variable" Label="nseqmx" Expression="nseqmx"/>
          <Input Type="Variable" Label="corrn[0]" Expression="corrn[0]"/>
          <Input Type="Variable" Label="corrn[1]" Expression="corrn[1]"/>
          <Input Type="Variable" Label="corrn[2]" Expression="corrn[2]"/>
          <Input Type="Variable" Label="corrn[3]" Expression="corrn[3]"/>
          <Input Type="Variable" Label="nsigem" Expression="nsigem"/>
        </Input>
        <Output NOutputs="15">
          <Output Type="Variable" Label="atan2(yb,xb)" Expression="atan2(yb,xb)"/>
          <Output Type="Variable" Label="tx" Expression="tx"/>
          <Output Type="Variable" Label="log(abs(momr))" Expression="log(abs(momr))"/>
          <Output Type="Variable" Label="chi2" Expression="chi2"/>
          <Output Type="Variable" Label="corrq[0]" Expression="corrq[0]"/>
          <Output Type="Variable" Label="corrq[1]" Expression="corrq[1]"/>
          <Output Type="Variable" Label="corrq[2]" Expression="corrq[2]"/>
          <Output Type="Variable" Label="corrq[3]" Expression="corrq[3]"/>
          <Output Type="Variable" Label="corrq3" Expression="corrq3"/>
          <Output Type="Variable" Label="nseqmx" Expression="nseqmx"/>
          <Output Type="Variable" Label="corrn[0]" Expression="corrn[0]"/>
          <Output Type="Variable" Label="corrn[1]" Expression="corrn[1]"/>
          <Output Type="Variable" Label="corrn[2]" Expression="corrn[2]"/>
          <Output Type="Variable" Label="corrn[3]" Expression="corrn[3]"/>
          <Output Type="Variable" Label="nsigem" Expression="nsigem"/>
        </Output>
      </Selection>
      <Matrix Rows="15" Columns="15">
        6.549804281430883e-01 -3.492564796868902e-02 9.017485095081658e-03 -3.059961652004760e-03 6.745748912402482e-03 9.576693255771450e-03 -5.314841565037564e-03 -4.803394190024592e-03 2.625430821157452e-03 -2.030116553284783e-02 -2.852062496202189e-03 1.781227312861516e-03 3.371448877678334e-03 -1.537804266668735e-02 -8.150259572403760e-05 -3.492564796868902e-02 4.148117302460192e+00 -1.400775717041988e-01 -5.332509715606747e-03 -3.244617792386575e-02 -3.370358265946359e-02 -8.321607393137924e-02 -4.284564932546040e-02 -2.607537780656390e-01 -4.034428555622131e-02 -7.572302955505703e-02 -1.111996441352991e-02 3.410381828141933e-02 1.923910634567289e-01 -1.053350187719595e-02 9.017485095081662e-03 -1.400775717041988e-01 1.768955204436483e+00 -6.829040509809457e-02 2.033097604123570e-02 1.745951615553570e-02 -4.853291432411996e-03 5.189845516184328e-03 -2.079903958066606e-03 1.499119980650550e-03 1.070648778214330e-02 2.265056603780826e-02 2.781457184728784e-02 -3.484429202518011e-02 4.230956625650754e-02 -3.059961652004763e-03 -5.332509715606746e-03 -6.829040509809460e-02 1.037576412217681e+00 -1.443711559774823e-02 -1.189768266271102e-02 -8.772915788871087e-03 -3.548193001914414e-02 -1.264037695141186e-01 -4.679707153660615e-03 -3.682169639213322e-02 -1.431445096784284e-02 -9.501736635319152e-03 -3.552835718568890e-02 1.170812054990220e-03 6.745748912402483e-03 -3.244617792386578e-02 2.033097604123570e-02 -1.443711559774823e-02 4.876980457355044e+00 -2.863363050843187e-02 1.132817987666271e-02 4.416711697998628e-03 7.163915946148049e-03 3.220898150800523e-02 -1.905927333270359e-02 -2.588764870311332e-02 -2.750514816993616e-02 -1.265908975670454e-02 -1.917256271514578e-02 9.576693255771452e-03 -3.370358265946363e-02 1.745951615553570e-02 -1.189768266271102e-02 -2.863363050843194e-02 5.453983849910403e+00 1.743600826832066e-03 3.551191359634354e-02 1.051899454606059e-01 4.966352291393780e-02 -5.011744510226505e-03 5.590635359278080e-03 -3.628642518509418e-02 -1.584539413369847e-02 -2.564367566009712e-02 -5.314841565037563e-03 -8.321607393137939e-02 -4.853291432411993e-03 -8.772915788871089e-03 1.132817987666275e-02 1.743600826832090e-03 5.145310634582406e+00 1.759493680977801e-02 7.962577369080889e-02 -1.035601377878340e-02 -3.896359277264169e-02 -9.350907868613863e-04 -2.388982654700009e-02 -2.210859256243908e-02 -2.461024977993800e-02 -4.803394190024593e-03 -4.284564932546035e-02 5.189845516184324e-03 -3.548193001914414e-02 4.416711697998626e-03 3.551191359634354e-02 1.759493680977802e-02 3.747007063387123e+00 9.369473504542139e-02 -4.105400457356815e-02 -6.558367656267310e-03 -1.654283221145478e-02 -2.043158883456639e-02 -7.679869843152074e-03 -6.866060359841866e-03 2.625430821157453e-03 -2.607537780656392e-01 -2.079903958066580e-03 -1.264037695141186e-01 7.163915946148046e-03 1.051899454606059e-01 7.962577369080891e-02 9.369473504542150e-02 3.327781597691606e+00 4.214316132601006e-02 -1.344620312077859e-01 -1.223330178013697e-01 -1.287264878167160e-01 -1.325660515402504e-01 2.838081176500405e-02 -2.030116553284783e-02 -4.034428555622133e-02 1.499119980650540e-03 -4.679707153660614e-03 3.220898150800523e-02 4.966352291393782e-02 -1.035601377878340e-02 -4.105400457356816e-02 4.214316132601005e-02 1.384495818461440e+00 -1.119278348104824e-02 1.524079148727695e-02 3.789057988887952e-02 3.120906455619919e-02 1.950250099488781e-02 -2.852062496202188e-03 -7.572302955505701e-02 1.070648778214339e-02 -3.682169639213322e-02 -1.905927333270359e-02 -5.011744510226502e-03 -3.896359277264169e-02 -6.558367656267310e-03 -1.344620312077860e-01 -1.119278348104825e-02 1.733449334705436e+00 -7.527278830308630e-02 -3.770995729993878e-02 -7.551063716619495e-03 1.613998896353702e-02 1.781227312861517e-03 -1.111996441352991e-02 2.265056603780826e-02 -1.431445096784281e-02 -2.588764870311332e-02 5.590635359278073e-03 -9.350907868613872e-04 -1.654283221145478e-02 -1.223330178013698e-01 1.524079148727695e-02 -7.527278830308638e-02 1.950296091435124e+00 -8.377276709211930e-02 -3.315149807594393e-02 1.054541088848417e-02 3.371448877678335e-03 3.410381828141934e-02 2.781457184728783e-02 -9.501736635319138e-03 -2.750514816993615e-02 -3.628642518509417e-02 -2.388982654700009e-02 -2.043158883456640e-02 -1.287264878167160e-01 3.789057988887951e-02 -3.770995729993881e-02 -8.377276709211931e-02 1.947631422942985e+00 -7.599560985374391e-02 4.066822062949105e-03 -1.537804266668735e-02 1.923910634567289e-01 -3.484429202518011e-02 -3.552835718568889e-02 -1.265908975670454e-02 -1.584539413369846e-02 -2.210859256243907e-02 -7.679869843152080e-03 -1.325660515402504e-01 3.120906455619917e-02 -7.551063716619595e-03 -3.315149807594388e-02 -7.599560985374387e-02 1.670418669270358e+00 -1.106011023499583e-02 -8.150259572403752e-05 -1.053350187719595e-02 4.230956625650754e-02 1.170812054990221e-03 -1.917256271514579e-02 -2.564367566009712e-02 -2.461024977993800e-02 -6.866060359841864e-03 2.838081176500405e-02 1.950250099488781e-02 1.613998896353702e-02 1.054541088848417e-02 4.066822062949105e-03 -1.106011023499583e-02 8.094005907109497e-02 
      </Matrix>
      <Matrix Rows="15" Columns="15">
        5.294652673968170e-01 -5.238260395519000e-03 1.321092305243077e-02 1.306975056239870e-03 9.118385330935896e-04 1.838039518166606e-05 -8.606502056388426e-04 -2.056740721253723e-03 -9.595497384911184e-03 6.624153719241014e-04 -3.315134899502530e-03 9.035795587550011e-03 1.743524296002276e-03 -2.247306345618623e-03 6.524814806312407e-03 -5.238260395519000e-03 5.697586908263989e+00 -6.868522679992961e-02 -8.968378702893966e-03 1.009960657683283e-03 -1.108636078662533e-02 -3.653031269740371e-02 -3.987473136674671e-02 -5.857116350619622e-02 -1.061071673484031e-01 -3.957161267785813e-02 -1.571464562537810e-02 1.737782647329269e-02 8.744568763277846e-02 1.012105729166639e-02 1.321092305243076e-02 -6.868522679992961e-02 1.024666627638692e+00 -5.656941148201602e-02 -9.598050930902840e-05 5.354700943834266e-04 6.543337977728859e-03 3.871365132669055e-03 1.088760081650300e-02 2.714762137495511e-02 1.625760364223325e-03 -5.331985903823158e-03 -1.433163615182942e-02 3.690874285911567e-03 4.079313184691136e-02 1.306975056239870e-03 -8.968378702893957e-03 -5.656941148201607e-02 8.530814441629202e-01 7.588559052390642e-03 2.321245180719146e-03 -2.688667471349951e-04 1.766780596566611e-03 9.824247492712679e-03 3.232300422888237e-03 2.398422723448019e-02 4.068337447725994e-02 3.702477548099888e-02 2.191143764576164e-02 -3.871020031836390e-03 9.118385330935900e-04 1.009960657683284e-03 -9.598050930902883e-05 7.588559052390643e-03 2.888522675576684e+00 -2.134024860019262e-03 4.763072641592089e-03 7.115772238182720e-03 1.897603319256591e-02 4.504049956624514e-03 1.452554129559200e-02 -1.154788462810843e-02 -1.211684739399002e-02 -2.654534496671043e-03 -9.549086051438139e-03 1.838039518166671e-05 -1.108636078662534e-02 5.354700943834266e-04 2.321245180719147e-03 -2.134024860019263e-03 2.600315612228506e+00 -4.440541583145587e-03 -6.814900055302216e-04 4.093837696073262e-02 1.023136626334257e-02 -7.130475943989235e-03 8.793857512125570e-03 -9.214112653874167e-03 -7.362283688449934e-04 -8.648423943517008e-03 -8.606502056388427e-04 -3.653031269740370e-02 6.543337977728860e-03 -2.688667471349954e-04 4.763072641592089e-03 -4.440541583145589e-03 2.392433253782582e+00 -2.566205223964853e-03 4.342535024802807e-02 -6.592120240062681e-03 -1.163152440018865e-02 -5.038828786039914e-03 1.406507320052958e-02 -4.725019843921872e-03 -5.727684382022788e-03 -2.056740721253724e-03 -3.987473136674671e-02 3.871365132669054e-03 1.766780596566611e-03 7.115772238182715e-03 -6.814900055302218e-04 -2.566205223964862e-03 2.220396538400039e+00 5.195199088323390e-02 -5.381770868122621e-03 -3.649875774076046e-03 -4.798068077871765e-03 -5.263409019724578e-03 2.150124509058077e-03 -8.888237964907907e-05 -9.595497384911189e-03 -5.857116350619623e-02 1.088760081650300e-02 9.824247492712677e-03 1.897603319256591e-02 4.093837696073263e-02 4.342535024802810e-02 5.195199088323391e-02 2.039331527784435e+00 -3.503157548696194e-04 -3.596879273349517e-02 -3.570048908775857e-02 -3.136641482751328e-02 -3.062002892874797e-02 3.196550524974893e-02 6.624153719241011e-04 -1.061071673484032e-01 2.714762137495511e-02 3.232300422888241e-03 4.504049956624517e-03 1.023136626334257e-02 -6.592120240062681e-03 -5.381770868122620e-03 -3.503157548696151e-04 1.298186704453664e+00 -2.213514523469380e-03 -5.922495535693698e-03 2.818026295098554e-02 1.688882465380860e-02 1.582982279764489e-02 -3.315134899502528e-03 -3.957161267785812e-02 1.625760364223319e-03 2.398422723448021e-02 1.452554129559201e-02 -7.130475943989233e-03 -1.163152440018865e-02 -3.649875774076044e-03 -3.596879273349517e-02 -2.213514523469391e-03 1.003911873493005e+00 5.685498852178240e-02 8.379712850835780e-02 6.741060337743456e-02 2.082319427270472e-02 9.035795587550015e-03 -1.571464562537809e-02 -5.331985903823160e-03 4.068337447725995e-02 -1.154788462810843e-02 8.793857512125566e-03 -5.038828786039914e-03 -4.798068077871765e-03 -3.570048908775857e-02 -5.922495535693703e-03 5.685498852178235e-02 9.376690574931305e-01 5.631463446765524e-02 6.573692278399000e-02 1.558299552366338e-02 1.743524296002278e-03 1.737782647329268e-02 -1.433163615182940e-02 3.702477548099889e-02 -1.211684739399002e-02 -9.214112653874168e-03 1.406507320052958e-02 -5.263409019724575e-03 -3.136641482751328e-02 2.818026295098553e-02 8.379712850835780e-02 5.631463446765529e-02 9.351558728400972e-01 3.104701235534179e-02 -2.626875207910527e-03 -2.247306345618622e-03 8.744568763277845e-02 3.690874285911565e-03 2.191143764576164e-02 -2.654534496671041e-03 -7.362283688449912e-04 -4.725019843921867e-03 2.150124509058081e-03 -3.062002892874795e-02 1.688882465380857e-02 6.741060337743454e-02 6.573692278398997e-02 3.104701235534179e-02 1.037211887910394e+00 -2.598652299740521e-02 6.524814806312406e-03 1.012105729166639e-02 4.079313184691135e-02 -3.871020031836387e-03 -9.549086051438139e-03 -8.648423943517010e-03 -5.727684382022788e-03 -8.888237964907908e-05 3.196550524974894e-02 1.582982279764489e-02 2.082319427270472e-02 1.558299552366338e-02 -2.626875207910530e-03 -2.598652299740521e-02 9.555246565217650e-02 
      </Matrix>
      <Matrix Rows="15" Columns="15">
        5.466447794016088e-01 -9.508995547941801e-03 1.137523856248043e-02 -2.129596600979190e-04 1.048476190453569e-03 5.968259923045944e-05 -1.767575509527969e-03 -2.907723635204855e-03 -1.272938486119567e-02 -3.486223599409048e-04 -5.621961640954640e-03 6.303863307418446e-03 2.987770174981630e-04 -3.674231075220171e-03 5.307060257311406e-03 -9.508995547941801e-03 5.157072230629586e+00 -7.024611700368491e-02 2.374642912991196e-02 2.417062951233326e-03 -5.196556144237789e-03 -3.384870898137322e-02 -2.957447058809773e-02 -3.261683011468189e-03 -1.219888909652133e-01 -8.976269894184385e-03 2.203981559631044e-02 5.971696080173127e-02 1.443990116499608e-01 2.294085708324930e-03 1.137523856248043e-02 -7.024611700368490e-02 1.086891982138300e+00 -6.218994348858946e-02 -5.332077711467016e-04 -1.281723441781759e-03 3.697055146204464e-03 1.642959184747824e-03 -5.305915095136959e-03 3.158453732957946e-02 -6.057190884905072e-03 -1.367549647959293e-02 -1.907556594031753e-02 8.733877145555343e-04 3.968320262688333e-02 -2.129596600979198e-04 2.374642912991197e-02 -6.218994348858951e-02 8.547543910725455e-01 2.405161660993093e-03 -2.104372290644268e-03 -3.729189937928732e-03 -5.407187918311563e-03 -4.561362505466163e-02 2.459619847828374e-02 -3.364656914917679e-03 1.101896536276744e-02 4.813865549392977e-03 -1.578447641404411e-02 -2.486567349358969e-04 1.048476190453570e-03 2.417062951233326e-03 -5.332077711466994e-04 2.405161660993093e-03 3.076891312917744e+00 -4.398300697577415e-03 3.997692256697646e-03 5.949132821980598e-03 8.639480858415708e-03 1.092548957920459e-02 9.013930855072429e-03 -1.772485404897450e-02 -1.791235659261095e-02 -7.607574446775635e-03 -1.053834859282174e-02 5.968259923045923e-05 -5.196556144237789e-03 -1.281723441781759e-03 -2.104372290644270e-03 -4.398300697577431e-03 2.805606178834628e+00 -6.245000621734066e-03 -1.188515811271661e-03 3.208956702083503e-02 1.780145708952682e-02 -1.296982892100158e-02 3.130732887681326e-03 -1.527675310576300e-02 -5.252416178106258e-03 -1.020876106020257e-02 -1.767575509527969e-03 -3.384870898137320e-02 3.697055146204466e-03 -3.729189937928734e-03 3.997692256697650e-03 -6.245000621734063e-03 2.584202861831136e+00 -3.704427887594915e-03 3.483779666787320e-02 -2.832268758244287e-03 -1.822962487866445e-02 -1.083930268670613e-02 9.973646781743509e-03 -8.174952273454111e-03 -7.586970213110739e-03 -2.907723635204855e-03 -2.957447058809775e-02 1.642959184747824e-03 -5.407187918311562e-03 5.949132821980598e-03 -1.188515811271664e-03 -3.704427887594915e-03 2.364016699959635e+00 4.179463152432469e-02 -3.661244673852532e-03 -1.011771929946192e-02 -1.212995720269186e-02 -1.188223006289882e-02 -3.422204035345955e-03 -8.726430750746897e-04 -1.272938486119568e-02 -3.261683011468198e-03 -5.305915095136950e-03 -4.561362505466161e-02 8.639480858415703e-03 3.208956702083503e-02 3.483779666787316e-02 4.179463152432469e-02 2.051208982000674e+00 5.193316398992172e-02 -9.507301130565499e-02 -1.002790312109458e-01 -9.413669902616928e-02 -9.454945451857047e-02 3.297567574812149e-02 -3.486223599409054e-04 -1.219888909652133e-01 3.158453732957950e-02 2.459619847828372e-02 1.092548957920459e-02 1.780145708952682e-02 -2.832268758244287e-03 -3.661244673852530e-03 5.193316398992171e-02 1.289225828099735e+00 2.079385824989146e-02 2.249949800939981e-02 5.670860043451319e-02 4.719914547365029e-02 1.477602663128669e-02 -5.621961640954641e-03 -8.976269894184371e-03 -6.057190884905072e-03 -3.364656914917654e-03 9.013930855072429e-03 -1.296982892100159e-02 -1.822962487866445e-02 -1.011771929946193e-02 -9.507301130565503e-02 2.079385824989144e-02 1.043431848643638e+00 2.418202239034174e-02 5.392346057853435e-02 3.710933539877528e-02 2.120661889947735e-02 6.303863307418447e-03 2.203981559631044e-02 -1.367549647959293e-02 1.101896536276743e-02 -1.772485404897449e-02 3.130732887681324e-03 -1.083930268670613e-02 -1.212995720269186e-02 -1.002790312109458e-01 2.249949800939979e-02 2.418202239034176e-02 9.761690023675627e-01 2.134772394165951e-02 3.062233207332770e-02 1.648902663084703e-02 2.987770174981635e-04 5.971696080173129e-02 -1.907556594031753e-02 4.813865549392976e-03 -1.791235659261096e-02 -1.527675310576300e-02 9.973646781743508e-03 -1.188223006289881e-02 -9.413669902616928e-02 5.670860043451317e-02 5.392346057853431e-02 2.134772394165951e-02 9.712168748917400e-01 -1.269684122938652e-02 1.157805767809175e-03 -3.674231075220173e-03 1.443990116499607e-01 8.733877145555465e-04 -1.578447641404409e-02 -7.607574446775634e-03 -5.252416178106263e-03 -8.174952273454111e-03 -3.422204035345957e-03 -9.454945451857050e-02 4.719914547365026e-02 3.710933539877535e-02 3.062233207332770e-02 -1.269684122938646e-02 1.051541286820636e+00 -1.936728843925016e-02 5.307060257311405e-03 2.294085708324934e-03 3.968320262688334e-02 -2.486567349358944e-04 -1.053834859282174e-02 -1.020876106020258e-02 -7.586970213110739e-03 -8.726430750746897e-04 3.297567574812148e-02 1.477602663128669e-02 2.120661889947735e-02 1.648902663084703e-02 1.157805767809175e-03 -1.936728843925016e-02 9.086629870611247e-02 
      </Matrix>
    </Transform>
  </Transformations>
  <MVAPdfs/>
  <Weights NTrees="400" AnalysisType="0">
    <BinaryTree type="DecisionTree" boostWeight="6.8227648179134559e-01" itree="0">
      <Node pos="s" depth="0" NCoef="0" IVar="12" Cut="6.9674497842788696e-01" cType="1" res="-9.9000000000000000e+01" rms="0.0000000000000000e+00" purity="5.0000000000000000e-01" nType="0">
        <Node pos="l" depth="1" NCoef="0" IVar="11" Cut="8.2871770858764648e-01" cType="1" res="-9.9000000000000000e+01" rms="0.0000000000000000e+00" purity="6.4592337608337402e-01" nType="0">
          <Node pos="l" depth="2" NCoef="0" IVar="13" Cut="5.5878633260726929e-01" cType="1" res="-9.9000000000000000e+01" rms="0.0000000000000000e+00" purity="7.8057461977005005e-01" nType="0">
            <Node pos="l" depth="3" NCoef="0" IVar="-1" Cut="2.9070663452148438e+00" cType="1" res="-9.9000000000000000e+01" rms="0.0000000000000000e+00" purity="8.5402822494506836e-01" nType="1"/>
            <Node pos="r" depth="3" NCoef="0" IVar="-1" Cut="0.0000000000000000e+00" cType="1" res="-9.9000000000000000e+01" rms="0.0000000000000000e+00" purity="4.4135826826095581e-01" nType="-1"/>
          </Node>
          <Node pos="r" depth="2" NCoef="0" IVar="-1" Cut="2.6770126819610596e+00" cType="1" res="-9.9000000000000000e+01" rms="0.0000000000000000e+00" purity="2.5042602419853210e-01" nType="-1"/>
        </Node>
        <Node pos="r" depth="1" NCoef="0" IVar="-1" Cut="2.5702905654907227e+00" cType="1" res="-9.9000000000000000e+01" rms="0.0000000000000000e+00" purity="1.8579296767711639e-01" nType="-1"/>
      </Node>
    </BinaryTree>
    <BinaryTree type="DecisionTree" boostWeight="5.2662888323787038e-01" itree="1">
      <Node pos="s" depth="0" NCoef="0" IVar="8" Cut="2.5109593868255615e+00" cType="1" res="-9.9000000000000000e+01" rms="0.0000000000000000e+00" purity="5.3314691781997681e-01" nType="0">
        <Node pos="l" depth="1" NCoef="0" IVar="10" Cut="1.0795023441314697e+00" cType="1" res="-9.9000000000000000e+01" rms="0.0000000000000000e+00" purity="6.9294834136962891e-01" nType="0">
          <Node pos="l" depth="2" NCoef="0" IVar="12" Cut="7.5940942764282227e-01" cType="1" res="-9.9000000000000000e+01" rms="0.0000000000000000e+00" purity="7.7101683616638184e-01" nType="0">
            <Node pos="l" depth="3" NCoef="0" IVar="-1" Cut="1.2648211717605591e+00" cType="1" res="-9.9000000000000000e+01" rms="0.0000000000000000e+00" purity="8.5374808311462402e-01" nType="1"/>
            <Node pos="r" depth="3" NCoef="0" IVar="1" Cut="2.7360168099403381e-01" cType="0" res="-9.9000000000000000e+01" rms="0.0000000000000000e+00" purity="5.0944656133651733e-01" nType="0">
              <Node pos="l" depth="4" NCoef="0" IVar="-1" Cut="0.0000000000000000e+00" cType="1" res="-9.9000000000000000e+01" rms="0.0000000000000000e+00" purity="6.0325551033020020e-01" nType="1"/>
              <Node pos="r" depth="4" NCoef="0" IVar="-1" Cut="0.0000000000000000e+00" cType="1" res="-9.9000000000000000e+01" rms="0.0000000000000000e+00" purity="4.0818649530410767e-01" nType="-1"/>
            </Node>
          </Node>
          <Node pos="r" depth="2" NCoef="0" IVar="9" Cut="4.2880783081054688e+00" cType="0" res="-9.9000000000000000e+01" rms="0.0000000000000000e+00" purity="4.3959465622901917e-01" nType="0">
            <Node pos="l" depth="3" NCoef="0" IVar="-1" Cut="0.0000000000000000e+00" cType="1" res="-9.9000000000000000e+01" rms="0.0000000000000000e+00" purity="5.7680636644363403e-01" nType="1"/>
            <Node pos="r" depth="3" NCoef="0" IVar="-1" Cut="0.0000000000000000e+00" cType="1" res="-9.9000000000000000e+01" rms="0.0000000000000000e+00" purity="2.5045490264892578e-01" nType="-1"/>
          </Node>
        </Node>
        <Node pos="r" depth="1" NCoef="0" IVar="1" Cut="1.1006017923355103e+00" cType="0" res="-9.9000000000000000e+01" rms="0.0000000000000000e+00" purity="3.1350722908973694e-01" nType="0">
          <Node pos="l" depth="2" NCoef="0" IVar="-1" Cut="0.0000000000000000e+00" cType="1" res="-9.9000000000000000e+01" rms="0.0000000000000000e+00" purity="5.6570386886596680e-01" nType="1"/>
          <Node pos="r" depth="2" NCoef="0" IVar="-1" Cut="3.1789565086364746e+00" cType="1" res="-9.9000000000000000e+01" rms="0.0000000000000000e+00" purity="2.3475454747676849e-01" nType="-1"/>
        </Node>
      </Node>
    </BinaryTree>
    <BinaryTree type="DecisionTree" boostWeight="4.8892183955289481e-01" itree="2">
      <Node pos="s" depth="0" NCoef="0" IVar="8" Cut="3.2303385734558105e+00" cType="1" res="-9.9000000000000000e+01" rms="0.0000000000000000e+00" purity="5.1709806919097900e-01" nType="0">
        <Node pos="l" depth="1" NCoef="0" IVar="3" Cut="1.1793564558029175e+00" cType="1" res="-9.9000000000000000e+01" rms="0.0000000000000000e+00" purity="5.9207785129547119e-01" nType="0">
          <Node pos="l" depth="2" NCoef="0" IVar="11" Cut="9.5016455650329590e-01" cType="1" res="-9.9000000000000000e+01" rms="0.0000000000000000e+00" purity="7.0681571960449219e-01" nType="0">
            <Node pos="l" depth="3" NCoef="0" IVar="-1" Cut="9.5689481496810913e-01" cType="1" res="-9.9000000000000000e+01" rms="0.0000000000000000e+00" purity="7.9180496931076050e-01" nType="1"/>
            <Node pos="r" depth="3" NCoef="0" IVar="9" Cut="4.3202533721923828e+00" cType="0" res="-9.9000000000000000e+01" rms="0.0000000000000000e+00" purity="4.6745747327804565e-01" nType="0">
              <Node pos="l" depth="4" NCoef="0" IVar="-1" Cut="0.0000000000000000e+00" cType="1" res="-9.9000000000000000e+01" rms="0.0000000000000000e+00" purity="5.7153457403182983e-01" nType="1"/>
              <Node pos="r" depth="4" NCoef="0" IVar="-1" Cut="0.0000000000000000e+00" cType="1" res="-9.9000000000000000e+01" rms="0.0000000000000000e+00" purity="3.4329459071159363e-01" nType="-1"/>
            </Node>
          </Node>
          <Node pos="r" depth="2" NCoef="0" IVar="9" Cut="4.2614398002624512e+00" cType="0" res="-9.9000000000000000e+01" rms="0.0000000000000000e+00" purity="4.2572924494743347e-01" nType="0">
            <Node pos="l" depth="3" NCoef="0" IVar="11" Cut="8.4298545122146606e-01" cType="1" res="-9.9000000000000000e+01" rms="0.0000000000000000e+00" purity="5.2088433504104614e-01" nType="0">
              <Node pos="l" depth="4" NCoef="0" IVar="-1" Cut="2.0908977985382080e+00" cType="1" res="-9.9000000000000000e+01" rms="0.0000000000000000e+00" purity="5.9766966104507446e-01" nType="1"/>
              <Node pos="r" depth="4" NCoef="0" IVar="-1" Cut="0.0000000000000000e+00" cType="1" res="-9.9000000000000000e+01" rms="0.0000000000000000e+00" purity="3.3970022201538086e-01" nType="-1"/>
            </Node>
            <Node pos="r" depth="3" NCoef="0" IVar="-1" Cut="4.4623589515686035e-01" cType="0" res="-9.9000000000000000e+01" rms="0.0000000000000000e+00" purity="2.6847779750823975e-01" nType="-1"/>
          </Node>
        </Node>
        <Node pos="r" depth="1" NCoef="0" IVar="-1" Cut="2.7251348495483398e+00" cType="0" res="-9.9000000000000000e+01" rms="0.0000000000000000e+00" purity="2.0229712128639221e-01" nType="-1"/>
      </Node>
    </BinaryTree>
    <BinaryTree type="DecisionTree" boostWeight="4.6319433222658996e-01" itree="3">
      <Node pos="s" depth="0" NCoef="0" IVar="10" Cut="9.6385282278060913e-01" cType="1" res="-9.9000000000000000e+01" rms="0.0000000000000000e+00" purity="5.0167322158813477e-01" nType="0">
        <Node pos="l" depth="1" NCoef="0" IVar="12" Cut="7.5558531284332275e-01" cType="1" res="-9.9000000000000000e+01" rms="0.0000000000000000e+00" purity="5.9232789278030396e-01" nType="0">
          <Node pos="l" depth="2" NCoef="0" IVar="12" Cut="1.1295118182897568e-01" cType="0" res="-9.9000000000000000e+01" rms="0.0000000000000000e+00" purity="6.9062757492065430e-01" nType="0">
            <Node pos="l" depth="3" NCoef="0" IVar="-1" Cut="2.6642099022865295e-01" cType="1" res="-9.9000000000000000e+01" rms="0.0000000000000000e+00" purity="7.7728688716888428e-01" nType="1"/>
            <Node pos="r" depth="3" NCoef="0" IVar="12" Cut="6.8967007100582123e-02" cType="0" res="-9.9000000000000000e+01" rms="0.0000000000000000e+00" purity="4.6078011393547058e-01" nType="0">
              <Node pos="l" depth="4" NCoef="0" IVar="-1" Cut="0.0000000000000000e+00" cType="1" res="-9.9000000000000000e+01" rms="0.0000000000000000e+00" purity="5.6438308954238892e-01" nType="1"/>
              <Node pos="r" depth="4" NCoef="0" IVar="-1" Cut="0.0000000000000000e+00" cType="1" res="-9.9000000000000000e+01" rms="0.0000000000000000e+00" purity="3.3631324768066406e-01" nType="-1"/>
            </Node>
          </Node>
          <Node pos="r" depth="2" NCoef="0" IVar="13" Cut="4.7685497999191284e-01" cType="1" res="-9.9000000000000000e+01" rms="0.0000000000000000e+00" purity="3.7925243377685547e-01" nType="0">
            <Node pos="l" depth="3" NCoef="0" IVar="8" Cut="2.5268654823303223e+00" cType="1" res="-9.9000000000000000e+01" rms="0.0000000000000000e+00" purity="4.9318990111351013e-01" nType="0">
              <Node pos="l" depth="4" NCoef="0" IVar="-1" Cut="0.0000000000000000e+00" cType="1" res="-9.9000000000000000e+01" rms="0.0000000000000000e+00" purity="5.9690612554550171e-01" nType="1"/>
              <Node pos="r" depth="4" NCoef="0" IVar="-1" Cut="0.0000000000000000e+00" cType="1" res="-9.9000000000000000e+01" rms="0.0000000000000000e+00" purity="3.6614048480987549e-01" nType="-1"/>
            </Node>
            <Node pos="r" depth="3" NCoef="0" IVar="-1" Cut="0.0000000000000000e+00" cType="1" res="-9.9000000000000000e+01" rms="0.0000000000000000e+00" purity="2.4202762544155121e-01" nType="-1"/>
          </Node>
        </Node>
        <Node pos="r" depth="1" NCoef="0" IVar="1" Cut="5.4931670427322388e-01" cType="0" res="-9.9000000000000000e+01" rms="0.0000000000000000e+00" purity="3.0316117405891418e-01" nType="0">
          <Node pos="l" depth="2" NCoef="0" IVar="8" Cut="2.5109593868255615e+00" cType="1" res="-9.9000000000000000e+01" rms="0.0000000000000000e+00" purity="4.2207863926887512e-01" nType="0">
            <Node pos="l" depth="3" NCoef="0" IVar="-1" Cut="0.0000000000000000e+00" cType="1" res="-9.9000000000000000e+01" rms="0.0000000000000000e+00" purity="5.5402237176895142e-01" nType="1"/>
            <Node pos="r" depth="3" NCoef="0" IVar="-1" Cut="0.0000000000000000e+00" cType="1" res="-9.9000000000000000e+01" rms="0.0000000000000000e+00" purity="2.9175436496734619e-01" nType="-1"/>
          </Node>
          <Node pos="r" depth="2" NCoef="0" IVar="-1" Cut="2.2525370121002197e+00" cType="1" res="-9.9000000000000000e+01" rms="0.0000000000000000e+00" purity="2.1535618603229523e-01" nType="-1"/>
        </Node>
      </Node>
    </BinaryTree>
    <BinaryTree type="DecisionTree" boostWeight="3.4143579651024963e-01" itree="4">
      <Node pos="s" depth="0" NCoef="0" IVar="3" Cut="9.1197222471237183e-01" cType="1" res="-9.9000000000000000e+01" rms="0.0000000000000000e+00" purity="4.9107775092124939e-01" nType="0">
        <Node pos="l" depth="1" NCoef="0" IVar="11" Cut="8.2871770858764648e-01" cType="1" res="-9.9000000000000000e+01" rms="0.0000000000000000e+00" purity="5.9897303581237793e-01" nType="0">
          <Node pos="l" depth="2" NCoef="0" IVar="10" Cut="1.3776021003723145e+00" cType="1" res="-9.9000000000000000e+01" rms="0.0000000000000000e+00" purity="6.7847591638565063e-01" nType="0">
            <Node pos="l" depth="3" NCoef="0" IVar="-1" Cut="1.3537216186523438e-01" cType="1" res="-9.9000000000000000e+01" rms="0.0000000000000000e+00" purity="7.3647850751876831e-01" nType="1"/>
            <Node pos="r" depth="3" NCoef="0" IVar="-1" Cut="0.0000000000000000e+00" cType="1" res="-9.9000000000000000e+01" rms="0.0000000000000000e+00" purity="4.1535013914108276e-01" nType="-1"/>
          </Node>
          <Node pos="r" depth="2" NCoef="0" IVar="8" Cut="2.3405730724334717e+00" cType="1" res="-9.9000000000000000e+01" rms="0.0000000000000000e+00" purity="4.1910976171493530e-01" nType="0">
            <Node pos="l" depth="3" NCoef="0" IVar="-1" Cut="0.0000000000000000e+00" cType="1" res="-9.9000000000000000e+01" rms="0.0000000000000000e+00" purity="5.2447223663330078e-01" nType="1"/>
            <Node pos="r" depth="3" NCoef="0" IVar="-1" Cut="0.0000000000000000e+00" cType="1" res="-9.9000000000000000e+01" rms="0.0000000000000000e+00" purity="3.2155692577362061e-01" nType="-1"/>
          </Node>
        </Node>
        <Node pos="r" depth="1" NCoef="0" IVar="2" Cut="1.4393568038940430e+00" cType="1" res="-9.9000000000000000e+01" rms="0.0000000000000000e+00" purity="4.0008366107940674e-01" nType="0">
          <Node pos="l" depth="2" NCoef="0" IVar="13" Cut="9.2971779406070709e-02" cType="1" res="-9.9000000000000000e+01" rms="0.0000000000000000e+00" purity="4.2902815341949463e-01" nType="0">
            <Node pos="l" depth="3" NCoef="0" IVar="10" Cut="1.0056663751602173e+00" cType="1" res="-9.9000000000000000e+01" rms="0.0000000000000000e+00" purity="4.9474027752876282e-01" nType="0">
              <Node pos="l" depth="4" NCoef="0" IVar="3" Cut="1.8998571634292603e+00" cType="1" res="-9.9000000000000000e+01" rms="0.0000000000000000e+00" purity="5.5679666996002197e-01" nType="0">
                <Node pos="l" depth="5" NCoef="0" IVar="-1" Cut="0.0000000000000000e+00" cType="1" res="-9.9000000000000000e+01" rms="0.0000000000000000e+00" purity="6.3006794452667236e-01" nType="1"/>
                <Node pos="r" depth="5" NCoef="0" IVar="-1" Cut="0.0000000000000000e+00" cType="1" res="-9.9000000000000000e+01" rms="0.0000000000000000e+00" purity="4.5481890439987183e-01" nType="-1"/>
              </Node>
              <Node pos="r" depth="4" NCoef="0" IVar="-1" Cut="0.0000000000000000e+00" cType="1" res="-9.9000000000000000e+01" rms="0.0000000000000000e+00" purity="3.6038967967033386e-01" nType="-1"/>
            </Node>
            <Node pos="r" depth="3" NCoef="0" IVar="-1" Cut="4.9866819381713867e+00" cType="0" res="-9.9000000000000000e+01" rms="0.0000000000000000e+00" purity="3.3588746190071106e-01" nType="-1"/>
          </Node>
          <Node pos="r" depth="2" NCoef="0" IVar="-1" Cut="0.0000000000000000e+00" cType="1" res="-9.9000000000000000e+01" rms="0.0000000000000000e+00" purity="1.7352205514907837e-01" nType="-1"/>
        </Node>
      </Node>
    </BinaryTree>
    <BinaryTree type="DecisionTree" boostWeight="2.9872601584461739e-01" itree="5">
      <Node pos="s" depth="0" NCoef="0" IVar="12" Cut="1.5883916616439819e+00" cType="1" res="-9.9000000000000000e+01" rms="0.0000000000000000e+00" purity="5.0135636329650879e-01" nType="0">
        <Node pos="l" depth="1" NCoef="0" IVar="13" Cut="7.0292049646377563e-01" cType="1" res="-9.9000000000000000e+01" rms="0.0000000000000000e+00" purity="5.3331625461578369e-01" nType="0">
          <Node pos="l" depth="2" NCoef="0" IVar="3" Cut="5.9247308969497681e-01" cType="1" res="-9.9000000000000000e+01" rms="0.0000000000000000e+00" purity="5.8085072040557861e-01" nType="0">
            <Node pos="l" depth="3" NCoef="0" IVar="-1" Cut="-2.7485343813896179e-01" cType="1" res="-9.9000000000000000e+01" rms="0.0000000000000000e+00" purity="7.1690726280212402e-01" nType="1"/>
            <Node pos="r" depth="3" NCoef="0" IVar="1" Cut="3.9587798714637756e-01" cType="0" res="-9.9000000000000000e+01" rms="0.0000000000000000e+00" purity="5.2134478092193604e-01" nType="0">
              <Node pos="l" depth="4" NCoef="0" IVar="-1" Cut="4.7654037475585938e+00" cType="0" res="-9.9000000000000000e+01" rms="0.0000000000000000e+00" purity="6.1185705661773682e-01" nType="1"/>
              <Node pos="r" depth="4" NCoef="0" IVar="13" Cut="-2.5894027948379517e-01" cType="1" res="-9.9000000000000000e+01" rms="0.0000000000000000e+00" purity="4.3512967228889465e-01" nType="0">
                <Node pos="l" depth="5" NCoef="0" IVar="-1" Cut="0.0000000000000000e+00" cType="1" res="-9.9000000000000000e+01" rms="0.0000000000000000e+00" purity="5.3933054208755493e-01" nType="1"/>
                <Node pos="r" depth="5" NCoef="0" IVar="-1" Cut="0.0000000000000000e+00" cType="1" res="-9.9000000000000000e+01" rms="0.0000000000000000e+00" purity="3.6967197060585022e-01" nType="-1"/>
              </Node>
            </Node>
          </Node>
          <Node pos="r" depth="2" NCoef="0" IVar="11" Cut="8.8135623931884766e-01" cType="1" res="-9.9000000000000000e+01" rms="0.0000000000000000e+00" purity="3.8349768519401550e-01" nType="0">
            <Node pos="l" depth="3" NCoef="0" IVar="9" Cut="4.5213961601257324e+00" cType="0" res="-9.9000000000000000e+01" rms="0.0000000000000000e+00" purity="4.5499855279922485e-01" nType="0">
              <Node pos="l" depth="4" NCoef="0" IVar="-1" Cut="0.0000000000000000e+00" cType="1" res="-9.9000000000000000e+01" rms="0.0000000000000000e+00" purity="5.1737016439437866e-01" nType="1"/>
              <Node pos="r" depth="4" NCoef="0" IVar="-1" Cut="0.0000000000000000e+00" cType="1" res="-9.9000000000000000e+01" rms="0.0000000000000000e+00" purity="3.9252915978431702e-01" nType="-1"/>
            </Node>
            <Node pos="r" depth="3" NCoef="0" IVar="-1" Cut="0.0000000000000000e+00" cType="1" res="-9.9000000000000000e+01" rms="0.0000000000000000e+00" purity="2.6871526241302490e-01" nType="-1"/>
          </Node>
        </Node>
        <Node pos="r" depth="1" NCoef="0" IVar="-1" Cut="1.6626548767089844e+00" cType="0" res="-9.9000000000000000e+01" rms="0.0000000000000000e+00" purity="2.9062652587890625e-01" nType="-1"/>
      </Node>
    </BinaryTree>
    <BinaryTree type="DecisionTree" boostWeight="2.8895123117069860e-01" itree="6">
      <Node pos="s" depth="0" NCoef="0" IVar="2" Cut="2.0104653835296631e+00" cType="1" res="-9.9000000000000000e+01" rms="0.0000000000000000e+00" purity="4.8911651968955994e-01" nType="0">
        <Node pos="l" depth="1" NCoef="0" IVar="8" Cut="3.5900280475616455e+00" cType="1" res="-9.9000000000000000e+01" rms="0.0000000000000000e+00" purity="5.0915282964706421e-01" nType="0">
          <Node pos="l" depth="2" NCoef="0" IVar="11" Cut="1.4844416379928589e+00" cType="1" res="-9.9000000000000000e+01" rms="0.0000000000000000e+00" purity="5.3649985790252686e-01" nType="0">
            <Node pos="l" depth="3" NCoef="0" IVar="6" Cut="6.0507375746965408e-02" cType="1" res="-9.9000000000000000e+01" rms="0.0000000000000000e+00" purity="5.6934130191802979e-01" nType="0">
              <Node pos="l" depth="4" NCoef="0" IVar="6" Cut="-9.9679177999496460e-01" cType="0" res="-9.9000000000000000e+01" rms="0.0000000000000000e+00" purity="6.0473048686981201e-01" nType="0">
                <Node pos="l" depth="5" NCoef="0" IVar="-1" Cut="0.0000000000000000e+00" cType="1" res="-9.9000000000000000e+01" rms="0.0000000000000000e+00" purity="6.3457441329956055e-01" nType="1"/>
                <Node pos="r" depth="5" NCoef="0" IVar="-1" Cut="0.0000000000000000e+00" cType="1" res="-9.9000000000000000e+01" rms="0.0000000000000000e+00" purity="4.2206889390945435e-01" nType="-1"/>
              </Node>
              <Node pos="r" depth="4" NCoef="0" IVar="-1" Cut="1.9762915372848511e+00" cType="0" res="-9.9000000000000000e+01" rms="0.0000000000000000e+00" purity="4.2870295047760010e-01" nType="-1"/>
            </Node>
            <Node pos="r" depth="3" NCoef="0" IVar="-1" Cut="4.5482654571533203e+00" cType="0" res="-9.9000000000000000e+01" rms="0.0000000000000000e+00" purity="3.7893652915954590e-01" nType="-1"/>
          </Node>
          <Node pos="r" depth="2" NCoef="0" IVar="-1" Cut="-2.7125430107116699e-01" cType="0" res="-9.9000000000000000e+01" rms="0.0000000000000000e+00" purity="2.8141751885414124e-01" nType="-1"/>
        </Node>
        <Node pos="r" depth="1" NCoef="0" IVar="-1" Cut="0.0000000000000000e+00" cType="1" res="-9.9000000000000000e+01" rms="0.0000000000000000e+00" purity="1.1016970127820969e-01" nType="-1"/>
      </Node>
    </BinaryTree>
    <BinaryTree type="DecisionTree" boostWeight="2.4264492644843791e-01" itree="7">
      <Node pos="s" depth="0" NCoef="0" IVar="2" Cut="1.4393568038940430e+00" cType="1" res="-9.9000000000000000e+01" rms="0.0000000000000000e+00" purity="4.9136608839035034e-01" nType="0">
        <Node pos="l" depth="1" NCoef="0" IVar="9" Cut="5.1015772819519043e+00" cType="0" res="-9.9000000000000000e+01" rms="0.0000000000000000e+00" purity="5.1619195938110352e-01" nType="0">
          <Node pos="l" depth="2" NCoef="0" IVar="13" Cut="6.2349432706832886e-01" cType="1" res="-9.9000000000000000e+01" rms="0.0000000000000000e+00" purity="6.0339444875717163e-01" nType="0">
            <Node pos="l" depth="3" NCoef="0" IVar="-1" Cut="8.8753169775009155e-01" cType="1" res="-9.9000000000000000e+01" rms="0.0000000000000000e+00" purity="6.4657115936279297e-01" nType="1"/>
            <Node pos="r" depth="3" NCoef="0" IVar="-1" Cut="0.0000000000000000e+00" cType="1" res="-9.9000000000000000e+01" rms="0.0000000000000000e+00" purity="4.7403398156166077e-01" nType="-1"/>
          </Node>
          <Node pos="r" depth="2" NCoef="0" IVar="13" Cut="-2.6962333917617798e-01" cType="1" res="-9.9000000000000000e+01" rms="0.0000000000000000e+00" purity="4.6100309491157532e-01" nType="0">
            <Node pos="l" depth="3" NCoef="0" IVar="3" Cut="8.0686914920806885e-01" cType="1" res="-9.9000000000000000e+01" rms="0.0000000000000000e+00" purity="5.6447964906692505e-01" nType="0">
              <Node pos="l" depth="4" NCoef="0" IVar="-1" Cut="0.0000000000000000e+00" cType="1" res="-9.9000000000000000e+01" rms="0.0000000000000000e+00" purity="7.0366579294204712e-01" nType="1"/>
              <Node pos="r" depth="4" NCoef="0" IVar="-1" Cut="0.0000000000000000e+00" cType="1" res="-9.9000000000000000e+01" rms="0.0000000000000000e+00" purity="4.6433264017105103e-01" nType="-1"/>
            </Node>
            <Node pos="r" depth="3" NCoef="0" IVar="-1" Cut="3.8033649325370789e-01" cType="1" res="-9.9000000000000000e+01" rms="0.0000000000000000e+00" purity="4.0234506130218506e-01" nType="-1"/>
          </Node>
        </Node>
        <Node pos="r" depth="1" NCoef="0" IVar="-1" Cut="0.0000000000000000e+00" cType="1" res="-9.9000000000000000e+01" rms="0.0000000000000000e+00" purity="2.7369907498359680e-01" nType="-1"/>
      </Node>
    </BinaryTree>
    <BinaryTree type="DecisionTree" boostWeight="2.3431102224414393e-01" itree="8">
      <Node pos="s" depth="0" NCoef="0" IVar="10" Cut="9.6385282278060913e-01" cType="1" res="-9.9000000000000000e+01" rms="0.0000000000000000e+00" purity="5.1049393415451050e-01" nType="0">
        <Node pos="l" depth="1" NCoef="0" IVar="1" Cut="5.2855902910232544e-01" cType="0" res="-9.9000000000000000e+01" rms="0.0000000000000000e+00" purity="5.5505263805389404e-01" nType="0">
          <Node pos="l" depth="2" NCoef="0" IVar="14" Cut="2.8138089179992676e+00" cType="0" res="-9.9000000000000000e+01" rms="0.0000000000000000e+00" purity="6.2810909748077393e-01" nType="0">
            <Node pos="l" depth="3" NCoef="0" IVar="-1" Cut="0.0000000000000000e+00" cType="1" res="-9.9000000000000000e+01" rms="0.0000000000000000e+00" purity="7.6702958345413208e-01" nType="1"/>
            <Node pos="r" depth="3" NCoef="0" IVar="8" Cut="2.0520236492156982e+00" cType="1" res="-9.9000000000000000e+01" rms="0.0000000000000000e+00" purity="5.5907011032104492e-01" nType="0">
              <Node pos="l" depth="4" NCoef="0" IVar="-1" Cut="0.0000000000000000e+00" cType="1" res="-9.9000000000000000e+01" rms="0.0000000000000000e+00" purity="6.4320808649063110e-01" nType="1"/>
              <Node pos="r" depth="4" NCoef="0" IVar="6" Cut="-4.1824701428413391e-01" cType="1" res="-9.9000000000000000e+01" rms="0.0000000000000000e+00" purity="5.0356978178024292e-01" nType="0">
                <Node pos="l" depth="5" NCoef="0" IVar="-1" Cut="0.0000000000000000e+00" cType="1" res="-9.9000000000000000e+01" rms="0.0000000000000000e+00" purity="5.4717129468917847e-01" nType="1"/>
                <Node pos="r" depth="5" NCoef="0" IVar="-1" Cut="0.0000000000000000e+00" cType="1" res="-9.9000000000000000e+01" rms="0.0000000000000000e+00" purity="4.5026463270187378e-01" nType="-1"/>
              </Node>
            </Node>
          </Node>
          <Node pos="r" depth="2" NCoef="0" IVar="1" Cut="-1.0480208396911621e+00" cType="1" res="-9.9000000000000000e+01" rms="0.0000000000000000e+00" purity="4.9993973970413208e-01" nType="0">
            <Node pos="l" depth="3" NCoef="0" IVar="-1" Cut="0.0000000000000000e+00" cType="1" res="-9.9000000000000000e+01" rms="0.0000000000000000e+00" purity="6.3970619440078735e-01" nType="1"/>
            <Node pos="r" depth="3" NCoef="0" IVar="5" Cut="1.1107962578535080e-01" cType="1" res="-9.9000000000000000e+01" rms="0.0000000000000000e+00" purity="4.5748695731163025e-01" nType="0">
              <Node pos="l" depth="4" NCoef="0" IVar="5" Cut="-7.4756014347076416e-01" cType="0" res="-9.9000000000000000e+01" rms="0.0000000000000000e+00" purity="4.8856455087661743e-01" nType="0">
                <Node pos="l" depth="5" NCoef="0" IVar="-1" Cut="0.0000000000000000e+00" cType="1" res="-9.9000000000000000e+01" rms="0.0000000000000000e+00" purity="5.2658140659332275e-01" nType="1"/>
                <Node pos="r" depth="5" NCoef="0" IVar="-1" Cut="0.0000000000000000e+00" cType="1" res="-9.9000000000000000e+01" rms="0.0000000000000000e+00" purity="3.4725323319435120e-01" nType="-1"/>
              </Node>
              <Node pos="r" depth="4" NCoef="0" IVar="-1" Cut="0.0000000000000000e+00" cType="1" res="-9.9000000000000000e+01" rms="0.0000000000000000e+00" purity="3.3427262306213379e-01" nType="-1"/>
            </Node>
          </Node>
        </Node>
        <Node pos="r" depth="1" NCoef="0" IVar="5" Cut="1.1594620347023010e-01" cType="1" res="-9.9000000000000000e+01" rms="0.0000000000000000e+00" purity="4.1470086574554443e-01" nType="0">
          <Node pos="l" depth="2" NCoef="0" IVar="5" Cut="-7.4177753925323486e-01" cType="0" res="-9.9000000000000000e+01" rms="0.0000000000000000e+00" purity="4.5280390977859497e-01" nType="0">
            <Node pos="l" depth="3" NCoef="0" IVar="0" Cut="5.0346922874450684e-01" cType="1" res="-9.9000000000000000e+01" rms="0.0000000000000000e+00" purity="4.9943059682846069e-01" nType="0">
              <Node pos="l" depth="4" NCoef="0" IVar="-1" Cut="-4.6720713376998901e-01" cType="0" res="-9.9000000000000000e+01" rms="0.0000000000000000e+00" purity="5.4147040843963623e-01" nType="1"/>
              <Node pos="r" depth="4" NCoef="0" IVar="-1" Cut="0.0000000000000000e+00" cType="1" res="-9.9000000000000000e+01" rms="0.0000000000000000e+00" purity="4.0334701538085938e-01" nType="-1"/>
            </Node>
            <Node pos="r" depth="3" NCoef="0" IVar="-1" Cut="0.0000000000000000e+00" cType="1" res="-9.9000000000000000e+01" rms="0.0000000000000000e+00" purity="3.4304091334342957e-01" nType="-1"/>
          </Node>
          <Node pos="r" depth="2" NCoef="0" IVar="-1" Cut="0.0000000000000000e+00" cType="1" res="-9.9000000000000000e+01" rms="0.0000000000000000e+00" purity="2.9455274343490601e-01" nType="-1"/>
        </Node>
      </Node>
    </BinaryTree>
    <BinaryTree type="DecisionTree" boostWeight="2.1291495978455330e-01" itree="9">
      <Node pos="s" depth="0" NCoef="0" IVar="2" Cut="1.4393568038940430e+00" cType="1" res="-9.9000000000000000e+01" rms="0.0000000000000000e+00" purity="4.9443352222442627e-01" nType="0">
        <Node pos="l" depth="1" NCoef="0" IVar="8" Cut="3.9497177600860596e+00" cType="1" res="-9.9000000000000000e+01" rms="0.0000000000000000e+00" purity="5.1532316207885742e-01" nType="0">
          <Node pos="l" depth="2" NCoef="0" IVar="0" Cut="6.9695717096328735e-01" cType="1" res="-9.9000000000000000e+01" rms="0.0000000000000000e+00" purity="5.2970063686370850e-01" nType="0">
            <Node pos="l" depth="3" NCoef="0" IVar="0" Cut="-3.4903070330619812e-01" cType="0" res="-9.9000000000000000e+01" rms="0.0000000000000000e+00" purity="5.6399989128112793e-01" nType="0">
              <Node pos="l" depth="4" NCoef="0" IVar="-1" Cut="7.7465051412582397e-01" cType="0" res="-9.9000000000000000e+01" rms="0.0000000000000000e+00" purity="6.2686890363693237e-01" nType="1"/>
              <Node pos="r" depth="4" NCoef="0" IVar="7" Cut="-1.2337259203195572e-01" cType="1" res="-9.9000000000000000e+01" rms="0.0000000000000000e+00" purity="4.9657261371612549e-01" nType="0">
                <Node pos="l" depth="5" NCoef="0" IVar="-1" Cut="0.0000000000000000e+00" cType="1" res="-9.9000000000000000e+01" rms="0.0000000000000000e+00" purity="5.3431349992752075e-01" nType="1"/>
                <Node pos="r" depth="5" NCoef="0" IVar="-1" Cut="0.0000000000000000e+00" cType="1" res="-9.9000000000000000e+01" rms="0.0000000000000000e+00" purity="4.1863632202148438e-01" nType="-1"/>
              </Node>
            </Node>
            <Node pos="r" depth="3" NCoef="0" IVar="2" Cut="3.8511323928833008e-01" cType="0" res="-9.9000000000000000e+01" rms="0.0000000000000000e+00" purity="4.3680560588836670e-01" nType="0">
              <Node pos="l" depth="4" NCoef="0" IVar="-1" Cut="0.0000000000000000e+00" cType="1" res="-9.9000000000000000e+01" rms="0.0000000000000000e+00" purity="5.3201037645339966e-01" nType="1"/>
              <Node pos="r" depth="4" NCoef="0" IVar="-1" Cut="-1.0143810510635376e-01" cType="1" res="-9.9000000000000000e+01" rms="0.0000000000000000e+00" purity="3.9908209443092346e-01" nType="-1"/>
            </Node>
          </Node>
          <Node pos="r" depth="2" NCoef="0" IVar="-1" Cut="0.0000000000000000e+00" cType="1" res="-9.9000000000000000e+01" rms="0.0000000000000000e+00" purity="2.7811619639396667e-01" nType="-1"/>
        </Node>
        <Node pos="r" depth="1" NCoef="0" IVar="-1" Cut="0.0000000000000000e+00" cType="1" res="-9.9000000000000000e+01" rms="0.0000000000000000e+00" purity="3.0735373497009277e-01" nType="-1"/>
      </Node>
    </BinaryTree>
    <BinaryTree type="DecisionTree" boostWeight="2.4012432345365237e-01" itree="10">
      <Node pos="s" depth="0" NCoef="0" IVar="14" Cut="2.7483341693878174e+00" cType="0" res="-9.9000000000000000e+01" rms="0.0000000000000000e+00" purity="4.8488870263099670e-01" nType="0">
        <Node pos="l" depth="1" NCoef="0" IVar="2" Cut="-1.4613375067710876e-01" cType="0" res="-9.9000000000000000e+01" rms="0.0000000000000000e+00" purity="5.5908638238906860e-01" nType="0">
          <Node pos="l" depth="2" NCoef="0" IVar="-1" Cut="1.5487724542617798e+00" cType="1" res="-9.9000000000000000e+01" rms="0.0000000000000000e+00" purity="6.2869459390640259e-01" nType="1"/>
          <Node pos="r" depth="2" NCoef="0" IVar="-1" Cut="0.0000000000000000e+00" cType="1" res="-9.9000000000000000e+01" rms="0.0000000000000000e+00" purity="3.6494177579879761e-01" nType="-1"/>
        </Node>
        <Node pos="r" depth="1" NCoef="0" IVar="2" Cut="1.4054837226867676e+00" cType="1" res="-9.9000000000000000e+01" rms="0.0000000000000000e+00" purity="4.4806715846061707e-01" nType="0">
          <Node pos="l" depth="2" NCoef="0" IVar="5" Cut="3.9560618996620178e-01" cType="1" res="-9.9000000000000000e+01" rms="0.0000000000000000e+00" purity="4.7783204913139343e-01" nType="0">
            <Node pos="l" depth="3" NCoef="0" IVar="12" Cut="1.5947420597076416e+00" cType="1" res="-9.9000000000000000e+01" rms="0.0000000000000000e+00" purity="5.0258851051330566e-01" nType="0">
              <Node pos="l" depth="4" NCoef="0" IVar="6" Cut="-1.9367615878582001e-01" cType="1" res="-9.9000000000000000e+01" rms="0.0000000000000000e+00" purity="5.2825766801834106e-01" nType="0">
                <Node pos="l" depth="5" NCoef="0" IVar="-1" Cut="0.0000000000000000e+00" cType="1" res="-9.9000000000000000e+01" rms="0.0000000000000000e+00" purity="5.6483566761016846e-01" nType="1"/>
                <Node pos="r" depth="5" NCoef="0" IVar="-1" Cut="0.0000000000000000e+00" cType="1" res="-9.9000000000000000e+01" rms="0.0000000000000000e+00" purity="4.3552109599113464e-01" nType="-1"/>
              </Node>
              <Node pos="r" depth="4" NCoef="0" IVar="-1" Cut="0.0000000000000000e+00" cType="1" res="-9.9000000000000000e+01" rms="0.0000000000000000e+00" purity="3.6676281690597534e-01" nType="-1"/>
            </Node>
            <Node pos="r" depth="3" NCoef="0" IVar="-1" Cut="-3.3719187974929810e-01" cType="1" res="-9.9000000000000000e+01" rms="0.0000000000000000e+00" purity="3.5470145940780640e-01" nType="-1"/>
          </Node>
          <Node pos="r" depth="2" NCoef="0" IVar="-1" Cut="0.0000000000000000e+00" cType="1" res="-9.9000000000000000e+01" rms="0.0000000000000000e+00" purity="1.2425342947244644e-01" nType="-1"/>
        </Node>
      </Node>
    </BinaryTree>
    <BinaryTree type="DecisionTree" boostWeight="1.8748507001522521e-01" itree="11">
      <Node pos="s" depth="0" NCoef="0" IVar="3" Cut="2.2950084209442139e+00" cType="1" res="-9.9000000000000000e+01" rms="0.0000000000000000e+00" purity="4.7811800241470337e-01" nType="0">
        <Node pos="l" depth="1" NCoef="0" IVar="10" Cut="9.6385282278060913e-01" cType="1" res="-9.9000000000000000e+01" rms="0.0000000000000000e+00" purity="5.0116080045700073e-01" nType="0">
          <Node pos="l" depth="2" NCoef="0" IVar="14" Cut="2.8450257778167725e+00" cType="0" res="-9.9000000000000000e+01" rms="0.0000000000000000e+00" purity="5.3483879566192627e-01" nType="0">
            <Node pos="l" depth="3" NCoef="0" IVar="-1" Cut="0.0000000000000000e+00" cType="1" res="-9.9000000000000000e+01" rms="0.0000000000000000e+00" purity="6.5914314985275269e-01" nType="1"/>
            <Node pos="r" depth="3" NCoef="0" IVar="2" Cut="9.1423577070236206e-01" cType="1" res="-9.9000000000000000e+01" rms="0.0000000000000000e+00" purity="5.0711369514465332e-01" nType="0">
              <Node pos="l" depth="4" NCoef="0" IVar="9" Cut="4.8498210906982422e+00" cType="0" res="-9.9000000000000000e+01" rms="0.0000000000000000e+00" purity="5.3490293025970459e-01" nType="0">
                <Node pos="l" depth="5" NCoef="0" IVar="-1" Cut="0.0000000000000000e+00" cType="1" res="-9.9000000000000000e+01" rms="0.0000000000000000e+00" purity="6.1041557788848877e-01" nType="1"/>
                <Node pos="r" depth="5" NCoef="0" IVar="-1" Cut="0.0000000000000000e+00" cType="1" res="-9.9000000000000000e+01" rms="0.0000000000000000e+00" purity="4.9342975020408630e-01" nType="-1"/>
              </Node>
              <Node pos="r" depth="4" NCoef="0" IVar="-1" Cut="0.0000000000000000e+00" cType="1" res="-9.9000000000000000e+01" rms="0.0000000000000000e+00" purity="3.4530547261238098e-01" nType="-1"/>
            </Node>
          </Node>
          <Node pos="r" depth="2" NCoef="0" IVar="7" Cut="1.1427103728055954e-01" cType="1" res="-9.9000000000000000e+01" rms="0.0000000000000000e+00" purity="4.2749005556106567e-01" nType="0">
            <Node pos="l" depth="3" NCoef="0" IVar="7" Cut="-8.4050041437149048e-01" cType="0" res="-9.9000000000000000e+01" rms="0.0000000000000000e+00" purity="4.6123895049095154e-01" nType="0">
              <Node pos="l" depth="4" NCoef="0" IVar="10" Cut="1.8803722858428955e+00" cType="1" res="-9.9000000000000000e+01" rms="0.0000000000000000e+00" purity="4.9845990538597107e-01" nType="0">
                <Node pos="l" depth="5" NCoef="0" IVar="-1" Cut="0.0000000000000000e+00" cType="1" res="-9.9000000000000000e+01" rms="0.0000000000000000e+00" purity="5.4391223192214966e-01" nType="1"/>
                <Node pos="r" depth="5" NCoef="0" IVar="-1" Cut="0.0000000000000000e+00" cType="1" res="-9.9000000000000000e+01" rms="0.0000000000000000e+00" purity="4.4328653812408447e-01" nType="-1"/>
              </Node>
              <Node pos="r" depth="4" NCoef="0" IVar="-1" Cut="0.0000000000000000e+00" cType="1" res="-9.9000000000000000e+01" rms="0.0000000000000000e+00" purity="3.5691210627555847e-01" nType="-1"/>
            </Node>
            <Node pos="r" depth="3" NCoef="0" IVar="-1" Cut="0.0000000000000000e+00" cType="1" res="-9.9000000000000000e+01" rms="0.0000000000000000e+00" purity="3.2478734850883484e-01" nType="-1"/>
          </Node>
        </Node>
        <Node pos="r" depth="1" NCoef="0" IVar="-1" Cut="5.7111877202987671e-01" cType="0" res="-9.9000000000000000e+01" rms="0.0000000000000000e+00" purity="3.6886876821517944e-01" nType="-1"/>
      </Node>
    </BinaryTree>
    <BinaryTree type="DecisionTree" boostWeight="1.4996359438956408e-01" itree="12">
      <Node pos="s" depth="0" NCoef="0" IVar="3" Cut="4.5096015930175781e-01" cType="1" res="-9.9000000000000000e+01" rms="0.0000000000000000e+00" purity="4.9462905526161194e-01" nType="0">
        <Node pos="l" depth="1" NCoef="0" IVar="14" Cut="2.2027928829193115e+00" cType="0" res="-9.9000000000000000e+01" rms="0.0000000000000000e+00" purity="5.8639180660247803e-01" nType="0">
          <Node pos="l" depth="2" NCoef="0" IVar="-1" Cut="0.0000000000000000e+00" cType="1" res="-9.9000000000000000e+01" rms="0.0000000000000000e+00" purity="6.8866384029388428e-01" nType="1"/>
          <Node pos="r" depth="2" NCoef="0" IVar="8" Cut="2.4838731288909912e+00" cType="1" res="-9.9000000000000000e+01" rms="0.0000000000000000e+00" purity="5.3699439764022827e-01" nType="0">
            <Node pos="l" depth="3" NCoef="0" IVar="-1" Cut="0.0000000000000000e+00" cType="1" res="-9.9000000000000000e+01" rms="0.0000000000000000e+00" purity="5.8481150865554810e-01" nType="1"/>
            <Node pos="r" depth="3" NCoef="0" IVar="-1" Cut="0.0000000000000000e+00" cType="1" res="-9.9000000000000000e+01" rms="0.0000000000000000e+00" purity="4.6128210425376892e-01" nType="-1"/>
          </Node>
        </Node>
        <Node pos="r" depth="1" NCoef="0" IVar="2" Cut="1.4393568038940430e+00" cType="1" res="-9.9000000000000000e+01" rms="0.0000000000000000e+00" purity="4.7105500102043152e-01" nType="0">
          <Node pos="l" depth="2" NCoef="0" IVar="13" Cut="1.6403691768646240e+00" cType="1" res="-9.9000000000000000e+01" rms="0.0000000000000000e+00" purity="4.8479875922203064e-01" nType="0">
            <Node pos="l" depth="3" NCoef="0" IVar="6" Cut="-7.2574204206466675e-01" cType="0" res="-9.9000000000000000e+01" rms="0.0000000000000000e+00" purity="4.9800541996955872e-01" nType="0">
              <Node pos="l" depth="4" NCoef="0" IVar="4" Cut="8.3911068737506866e-02" cType="1" res="-9.9000000000000000e+01" rms="0.0000000000000000e+00" purity="5.1829499006271362e-01" nType="0">
                <Node pos="l" depth="5" NCoef="0" IVar="-1" Cut="0.0000000000000000e+00" cType="1" res="-9.9000000000000000e+01" rms="0.0000000000000000e+00" purity="5.3790807723999023e-01" nType="1"/>
                <Node pos="r" depth="5" NCoef="0" IVar="-1" Cut="0.0000000000000000e+00" cType="1" res="-9.9000000000000000e+01" rms="0.0000000000000000e+00" purity="4.5736566185951233e-01" nType="-1"/>
              </Node>
              <Node pos="r" depth="4" NCoef="0" IVar="-1" Cut="-1.4013880491256714e+00" cType="0" res="-9.9000000000000000e+01" rms="0.0000000000000000e+00" purity="4.2687427997589111e-01" nType="-1"/>
            </Node>
            <Node pos="r" depth="3" NCoef="0" IVar="-1" Cut="0.0000000000000000e+00" cType="1" res="-9.9000000000000000e+01" rms="0.0000000000000000e+00" purity="3.4442797303199768e-01" nType="-1"/>
          </Node>
          <Node pos="r" depth="2" NCoef="0" IVar="-1" Cut="0.0000000000000000e+00" cType="1" res="-9.9000000000000000e+01" rms="0.0000000000000000e+00" purity="3.2798761129379272e-01" nType="-1"/>
        </Node>
      </Node>
    </BinaryTree>
    <BinaryTree type="DecisionTree" boostWeight="1.4140707975478314e-01" itree="13">
      <Node pos="s" depth="0" NCoef="0" IVar="11" Cut="2.4191114902496338e+00" cType="1" res="-9.9000000000000000e+01" rms="0.0000000000000000e+00" purity="4.9142390489578247e-01" nType="0">
        <Node pos="l" depth="1" NCoef="0" IVar="10" Cut="9.6385282278060913e-01" cType="1" res="-9.9000000000000000e+01" rms="0.0000000000000000e+00" purity="5.0184780359268188e-01" nType="0">
          <Node pos="l" depth="2" NCoef="0" IVar="3" Cut="4.9574086070060730e-01" cType="1" res="-9.9000000000000000e+01" rms="0.0000000000000000e+00" purity="5.3256309032440186e-01" nType="0">
            <Node pos="l" depth="3" NCoef="0" IVar="-1" Cut="4.6966132521629333e-01" cType="0" res="-9.9000000000000000e+01" rms="0.0000000000000000e+00" purity="6.2641328573226929e-01" nType="1"/>
            <Node pos="r" depth="3" NCoef="0" IVar="3" Cut="2.7093541622161865e+00" cType="1" res="-9.9000000000000000e+01" rms="0.0000000000000000e+00" purity="5.0481712818145752e-01" nType="0">
              <Node pos="l" depth="4" NCoef="0" IVar="-1" Cut="2.8450257778167725e+00" cType="0" res="-9.9000000000000000e+01" rms="0.0000000000000000e+00" purity="5.2052921056747437e-01" nType="1"/>
              <Node pos="r" depth="4" NCoef="0" IVar="-1" Cut="0.0000000000000000e+00" cType="1" res="-9.9000000000000000e+01" rms="0.0000000000000000e+00" purity="4.0824219584465027e-01" nType="-1"/>
            </Node>
          </Node>
          <Node pos="r" depth="2" NCoef="0" IVar="2" Cut="7.1830856800079346e-01" cType="1" res="-9.9000000000000000e+01" rms="0.0000000000000000e+00" purity="4.3592968583106995e-01" nType="0">
            <Node pos="l" depth="3" NCoef="0" IVar="7" Cut="-1.1357199400663376e-01" cType="1" res="-9.9000000000000000e+01" rms="0.0000000000000000e+00" purity="4.6808314323425293e-01" nType="0">
              <Node pos="l" depth="4" NCoef="0" IVar="7" Cut="-6.5605932474136353e-01" cType="0" res="-9.9000000000000000e+01" rms="0.0000000000000000e+00" purity="5.0230306386947632e-01" nType="0">
                <Node pos="l" depth="5" NCoef="0" IVar="-1" Cut="0.0000000000000000e+00" cType="1" res="-9.9000000000000000e+01" rms="0.0000000000000000e+00" purity="5.3785842657089233e-01" nType="1"/>
                <Node pos="r" depth="5" NCoef="0" IVar="-1" Cut="0.0000000000000000e+00" cType="1" res="-9.9000000000000000e+01" rms="0.0000000000000000e+00" purity="4.4404229521751404e-01" nType="-1"/>
              </Node>
              <Node pos="r" depth="4" NCoef="0" IVar="-1" Cut="0.0000000000000000e+00" cType="1" res="-9.9000000000000000e+01" rms="0.0000000000000000e+00" purity="3.9432886242866516e-01" nType="-1"/>
            </Node>
            <Node pos="r" depth="3" NCoef="0" IVar="-1" Cut="0.0000000000000000e+00" cType="1" res="-9.9000000000000000e+01" rms="0.0000000000000000e+00" purity="3.3881372213363647e-01" nType="-1"/>
          </Node>
        </Node>
        <Node pos="r" depth="1" NCoef="0" IVar="-1" Cut="0.0000000000000000e+00" cType="1" res="-9.9000000000000000e+01" rms="0.0000000000000000e+00" purity="3.2891917228698730e-01" nType="-1"/>
      </Node>
    </BinaryTree>
    <BinaryTree type="DecisionTree" boostWeight="1.6522997103807260e-01" itree="14">
      <Node pos="s" depth="0" NCoef="0" IVar="3" Cut="4.5096015930175781e-01" cType="1" res="-9.9000000000000000e+01" rms="0.0000000000000000e+00" purity="4.7943305969238281e-01" nType="0">
        <Node pos="l" depth="1" NCoef="0" IVar="14" Cut="2.2027928829193115e+00" cType="0" res="-9.9000000000000000e+01" rms="0.0000000000000000e+00" purity="5.5419474840164185e-01" nType="0">
          <Node pos="l" depth="2" NCoef="0" IVar="-1" Cut="0.0000000000000000e+00" cType="1" res="-9.9000000000000000e+01" rms="0.0000000000000000e+00" purity="6.3996368646621704e-01" nType="1"/>
          <Node pos="r" depth="2" NCoef="0" IVar="2" Cut="4.2544242739677429e-01" cType="1" res="-9.9000000000000000e+01" rms="0.0000000000000000e+00" purity="5.1367104053497314e-01" nType="0">
            <Node pos="l" depth="3" NCoef="0" IVar="-1" Cut="0.0000000000000000e+00" cType="1" res="-9.9000000000000000e+01" rms="0.0000000000000000e+00" purity="5.5954909324645996e-01" nType="1"/>
            <Node pos="r" depth="3" NCoef="0" IVar="-1" Cut="0.0000000000000000e+00" cType="1" res="-9.9000000000000000e+01" rms="0.0000000000000000e+00" purity="4.4485920667648315e-01" nType="-1"/>
          </Node>
        </Node>
        <Node pos="r" depth="1" NCoef="0" IVar="1" Cut="7.5549036264419556e-01" cType="0" res="-9.9000000000000000e+01" rms="0.0000000000000000e+00" purity="4.6049273014068604e-01" nType="0">
          <Node pos="l" depth="2" NCoef="0" IVar="0" Cut="-2.5793012976646423e-01" cType="0" res="-9.9000000000000000e+01" rms="0.0000000000000000e+00" purity="5.0641465187072754e-01" nType="0">
            <Node pos="l" depth="3" NCoef="0" IVar="0" Cut="4.0141490101814270e-01" cType="1" res="-9.9000000000000000e+01" rms="0.0000000000000000e+00" purity="5.3714048862457275e-01" nType="0">
              <Node pos="l" depth="4" NCoef="0" IVar="-1" Cut="1.5438457727432251e+00" cType="0" res="-9.9000000000000000e+01" rms="0.0000000000000000e+00" purity="5.9352940320968628e-01" nType="1"/>
              <Node pos="r" depth="4" NCoef="0" IVar="-1" Cut="0.0000000000000000e+00" cType="1" res="-9.9000000000000000e+01" rms="0.0000000000000000e+00" purity="4.0541887283325195e-01" nType="-1"/>
            </Node>
            <Node pos="r" depth="3" NCoef="0" IVar="-1" Cut="0.0000000000000000e+00" cType="1" res="-9.9000000000000000e+01" rms="0.0000000000000000e+00" purity="3.8755312561988831e-01" nType="-1"/>
          </Node>
          <Node pos="r" depth="2" NCoef="0" IVar="1" Cut="-1.2480739355087280e+00" cType="1" res="-9.9000000000000000e+01" rms="0.0000000000000000e+00" purity="4.3530017137527466e-01" nType="0">
            <Node pos="l" depth="3" NCoef="0" IVar="-1" Cut="0.0000000000000000e+00" cType="1" res="-9.9000000000000000e+01" rms="0.0000000000000000e+00" purity="5.2921670675277710e-01" nType="1"/>
            <Node pos="r" depth="3" NCoef="0" IVar="-1" Cut="1.8837766647338867e+00" cType="1" res="-9.9000000000000000e+01" rms="0.0000000000000000e+00" purity="4.2123532295227051e-01" nType="-1"/>
          </Node>
        </Node>
      </Node>
    </BinaryTree>
    <BinaryTree type="DecisionTree" boostWeight="1.4105778241176076e-01" itree="15">
      <Node pos="s" depth="0" NCoef="0" IVar="8" Cut="3.9497177600860596e+00" cType="1" res="-9.9000000000000000e+01" rms="0.0000000000000000e+00" purity="4.8988053202629089e-01" nType="0">
        <Node pos="l" depth="1" NCoef="0" IVar="2" Cut="1.5067354440689087e+00" cType="1" res="-9.9000000000000000e+01" rms="0.0000000000000000e+00" purity="4.9888741970062256e-01" nType="0">
          <Node pos="l" depth="2" NCoef="0" IVar="8" Cut="1.6888087987899780e+00" cType="1" res="-9.9000000000000000e+01" rms="0.0000000000000000e+00" purity="5.0924551486968994e-01" nType="0">
            <Node pos="l" depth="3" NCoef="0" IVar="-1" Cut="-2.3989208042621613e-01" cType="1" res="-9.9000000000000000e+01" rms="0.0000000000000000e+00" purity="5.6868487596511841e-01" nType="1"/>
            <Node pos="r" depth="3" NCoef="0" IVar="2" Cut="-4.9185785651206970e-01" cType="0" res="-9.9000000000000000e+01" rms="0.0000000000000000e+00" purity="4.9285727739334106e-01" nType="0">
              <Node pos="l" depth="4" NCoef="0" IVar="14" Cut="1.4954054355621338e+00" cType="0" res="-9.9000000000000000e+01" rms="0.0000000000000000e+00" purity="5.0722444057464600e-01" nType="0">
                <Node pos="l" depth="5" NCoef="0" IVar="-1" Cut="0.0000000000000000e+00" cType="1" res="-9.9000000000000000e+01" rms="0.0000000000000000e+00" purity="5.5067843198776245e-01" nType="1"/>
                <Node pos="r" depth="5" NCoef="0" IVar="-1" Cut="0.0000000000000000e+00" cType="1" res="-9.9000000000000000e+01" rms="0.0000000000000000e+00" purity="4.5206856727600098e-01" nType="-1"/>
              </Node>
              <Node pos="r" depth="4" NCoef="0" IVar="-1" Cut="0.0000000000000000e+00" cType="1" res="-9.9000000000000000e+01" rms="0.0000000000000000e+00" purity="3.8198891282081604e-01" nType="-1"/>
            </Node>
          </Node>
          <Node pos="r" depth="2" NCoef="0" IVar="-1" Cut="0.0000000000000000e+00" cType="1" res="-9.9000000000000000e+01" rms="0.0000000000000000e+00" purity="3.8220798969268799e-01" nType="-1"/>
        </Node>
        <Node pos="r" depth="1" NCoef="0" IVar="-1" Cut="0.0000000000000000e+00" cType="1" res="-9.9000000000000000e+01" rms="0.0000000000000000e+00" purity="3.3368813991546631e-01" nType="-1"/>
      </Node>
    </BinaryTree>
    <BinaryTree type="DecisionTree" boostWeight="1.2487270196455927e-01" itree="16">
      <Node pos="s" depth="0" NCoef="0" IVar="9" Cut="5.1015772819519043e+00" cType="0" res="-9.9000000000000000e+01" rms="0.0000000000000000e+00" purity="4.8802003264427185e-01" nType="0">
        <Node pos="l" depth="1" NCoef="0" IVar="14" Cut="2.7485506534576416e+00" cType="0" res="-9.9000000000000000e+01" rms="0.0000000000000000e+00" purity="5.3275620937347412e-01" nType="0">
          <Node pos="l" depth="2" NCoef="0" IVar="-1" Cut="0.0000000000000000e+00" cType="1" res="-9.9000000000000000e+01" rms="0.0000000000000000e+00" purity="6.1852288246154785e-01" nType="1"/>
          <Node pos="r" depth="2" NCoef="0" IVar="2" Cut="7.1830856800079346e-01" cType="1" res="-9.9000000000000000e+01" rms="0.0000000000000000e+00" purity="5.1098996400833130e-01" nType="0">
            <Node pos="l" depth="3" NCoef="0" IVar="5" Cut="-1.2330759316682816e-01" cType="1" res="-9.9000000000000000e+01" rms="0.0000000000000000e+00" purity="5.4227268695831299e-01" nType="0">
              <Node pos="l" depth="4" NCoef="0" IVar="-1" Cut="-6.3699799776077271e-01" cType="0" res="-9.9000000000000000e+01" rms="0.0000000000000000e+00" purity="5.6879311800003052e-01" nType="1"/>
              <Node pos="r" depth="4" NCoef="0" IVar="-1" Cut="0.0000000000000000e+00" cType="1" res="-9.9000000000000000e+01" rms="0.0000000000000000e+00" purity="4.8468849062919617e-01" nType="-1"/>
            </Node>
            <Node pos="r" depth="3" NCoef="0" IVar="-1" Cut="0.0000000000000000e+00" cType="1" res="-9.9000000000000000e+01" rms="0.0000000000000000e+00" purity="3.9336681365966797e-01" nType="-1"/>
          </Node>
        </Node>
        <Node pos="r" depth="1" NCoef="0" IVar="1" Cut="1.5216125249862671e+00" cType="0" res="-9.9000000000000000e+01" rms="0.0000000000000000e+00" purity="4.6013680100440979e-01" nType="0">
          <Node pos="l" depth="2" NCoef="0" IVar="-1" Cut="0.0000000000000000e+00" cType="1" res="-9.9000000000000000e+01" rms="0.0000000000000000e+00" purity="5.6875157356262207e-01" nType="1"/>
          <Node pos="r" depth="2" NCoef="0" IVar="4" Cut="-8.7235140800476074e-01" cType="0" res="-9.9000000000000000e+01" rms="0.0000000000000000e+00" purity="4.4771593809127808e-01" nType="0">
            <Node pos="l" depth="3" NCoef="0" IVar="4" Cut="2.4397404491901398e-01" cType="1" res="-9.9000000000000000e+01" rms="0.0000000000000000e+00" purity="4.6098199486732483e-01" nType="0">
              <Node pos="l" depth="4" NCoef="0" IVar="10" Cut="6.9766795635223389e-01" cType="1" res="-9.9000000000000000e+01" rms="0.0000000000000000e+00" purity="4.7500178217887878e-01" nType="0">
                <Node pos="l" depth="5" NCoef="0" IVar="-1" Cut="0.0000000000000000e+00" cType="1" res="-9.9000000000000000e+01" rms="0.0000000000000000e+00" purity="5.0051212310791016e-01" nType="1"/>
                <Node pos="r" depth="5" NCoef="0" IVar="-1" Cut="0.0000000000000000e+00" cType="1" res="-9.9000000000000000e+01" rms="0.0000000000000000e+00" purity="4.3622434139251709e-01" nType="-1"/>
              </Node>
              <Node pos="r" depth="4" NCoef="0" IVar="-1" Cut="0.0000000000000000e+00" cType="1" res="-9.9000000000000000e+01" rms="0.0000000000000000e+00" purity="4.0836372971534729e-01" nType="-1"/>
            </Node>
            <Node pos="r" depth="3" NCoef="0" IVar="-1" Cut="0.0000000000000000e+00" cType="1" res="-9.9000000000000000e+01" rms="0.0000000000000000e+00" purity="3.7111100554466248e-01" nType="-1"/>
          </Node>
        </Node>
      </Node>
    </BinaryTree>
    <BinaryTree type="DecisionTree" boostWeight="1.1419966325324270e-01" itree="17">
      <Node pos="s" depth="0" NCoef="0" IVar="9" Cut="5.1015772819519043e+00" cType="0" res="-9.9000000000000000e+01" rms="0.0000000000000000e+00" purity="4.8597857356071472e-01" nType="0">
        <Node pos="l" depth="1" NCoef="0" IVar="13" Cut="-1.5756605565547943e-01" cType="1" res="-9.9000000000000000e+01" rms="0.0000000000000000e+00" purity="5.2464371919631958e-01" nType="0">
          <Node pos="l" depth="2" NCoef="0" IVar="-1" Cut="0.0000000000000000e+00" cType="1" res="-9.9000000000000000e+01" rms="0.0000000000000000e+00" purity="5.9450453519821167e-01" nType="1"/>
          <Node pos="r" depth="2" NCoef="0" IVar="2" Cut="7.5430524349212646e-01" cType="1" res="-9.9000000000000000e+01" rms="0.0000000000000000e+00" purity="5.0393801927566528e-01" nType="0">
            <Node pos="l" depth="3" NCoef="0" IVar="7" Cut="-1.1868959665298462e-01" cType="1" res="-9.9000000000000000e+01" rms="0.0000000000000000e+00" purity="5.2292889356613159e-01" nType="0">
              <Node pos="l" depth="4" NCoef="0" IVar="-1" Cut="5.3932061195373535e+00" cType="1" res="-9.9000000000000000e+01" rms="0.0000000000000000e+00" purity="5.4779052734375000e-01" nType="1"/>
              <Node pos="r" depth="4" NCoef="0" IVar="-1" Cut="0.0000000000000000e+00" cType="1" res="-9.9000000000000000e+01" rms="0.0000000000000000e+00" purity="4.6986457705497742e-01" nType="-1"/>
            </Node>
            <Node pos="r" depth="3" NCoef="0" IVar="-1" Cut="0.0000000000000000e+00" cType="1" res="-9.9000000000000000e+01" rms="0.0000000000000000e+00" purity="4.3528220057487488e-01" nType="-1"/>
          </Node>
        </Node>
        <Node pos="r" depth="1" NCoef="0" IVar="2" Cut="1.5067354440689087e+00" cType="1" res="-9.9000000000000000e+01" rms="0.0000000000000000e+00" purity="4.6194046735763550e-01" nType="0">
          <Node pos="l" depth="2" NCoef="0" IVar="0" Cut="8.3450084924697876e-01" cType="1" res="-9.9000000000000000e+01" rms="0.0000000000000000e+00" purity="4.7154960036277771e-01" nType="0">
            <Node pos="l" depth="3" NCoef="0" IVar="13" Cut="1.4173971414566040e+00" cType="1" res="-9.9000000000000000e+01" rms="0.0000000000000000e+00" purity="4.9027150869369507e-01" nType="0">
              <Node pos="l" depth="4" NCoef="0" IVar="3" Cut="5.3254085779190063e-01" cType="1" res="-9.9000000000000000e+01" rms="0.0000000000000000e+00" purity="5.0360995531082153e-01" nType="0">
                <Node pos="l" depth="5" NCoef="0" IVar="-1" Cut="0.0000000000000000e+00" cType="1" res="-9.9000000000000000e+01" rms="0.0000000000000000e+00" purity="5.6232202053070068e-01" nType="1"/>
                <Node pos="r" depth="5" NCoef="0" IVar="-1" Cut="0.0000000000000000e+00" cType="1" res="-9.9000000000000000e+01" rms="0.0000000000000000e+00" purity="4.8414310812950134e-01" nType="-1"/>
              </Node>
              <Node pos="r" depth="4" NCoef="0" IVar="-1" Cut="0.0000000000000000e+00" cType="1" res="-9.9000000000000000e+01" rms="0.0000000000000000e+00" purity="4.1141122579574585e-01" nType="-1"/>
            </Node>
            <Node pos="r" depth="3" NCoef="0" IVar="-1" Cut="-1.7030310630798340e-01" cType="1" res="-9.9000000000000000e+01" rms="0.0000000000000000e+00" purity="4.1711357235908508e-01" nType="-1"/>
          </Node>
          <Node pos="r" depth="2" NCoef="0" IVar="-1" Cut="0.0000000000000000e+00" cType="1" res="-9.9000000000000000e+01" rms="0.0000000000000000e+00" purity="3.5353773832321167e-01" nType="-1"/>
        </Node>
      </Node>
    </BinaryTree>
    <BinaryTree type="DecisionTree" boostWeight="1.0572478439809377e-01" itree="18">
      <Node pos="s" depth="0" NCoef="0" IVar="8" Cut="3.9497177600860596e+00" cType="1" res="-9.9000000000000000e+01" rms="0.0000000000000000e+00" purity="4.9535107612609863e-01" nType="0">
        <Node pos="l" depth="1" NCoef="0" IVar="12" Cut="1.6405360698699951e+00" cType="1" res="-9.9000000000000000e+01" rms="0.0000000000000000e+00" purity="5.0204354524612427e-01" nType="0">
          <Node pos="l" depth="2" NCoef="0" IVar="3" Cut="1.6960281133651733e+00" cType="1" res="-9.9000000000000000e+01" rms="0.0000000000000000e+00" purity="5.1204591989517212e-01" nType="0">
            <Node pos="l" depth="3" NCoef="0" IVar="11" Cut="1.4706577062606812e+00" cType="1" res="-9.9000000000000000e+01" rms="0.0000000000000000e+00" purity="5.3057086467742920e-01" nType="0">
              <Node pos="l" depth="4" NCoef="0" IVar="7" Cut="-9.6656471490859985e-02" cType="1" res="-9.9000000000000000e+01" rms="0.0000000000000000e+00" purity="5.4749697446823120e-01" nType="0">
                <Node pos="l" depth="5" NCoef="0" IVar="-1" Cut="0.0000000000000000e+00" cType="1" res="-9.9000000000000000e+01" rms="0.0000000000000000e+00" purity="5.6913125514984131e-01" nType="1"/>
                <Node pos="r" depth="5" NCoef="0" IVar="-1" Cut="0.0000000000000000e+00" cType="1" res="-9.9000000000000000e+01" rms="0.0000000000000000e+00" purity="4.9934163689613342e-01" nType="-1"/>
              </Node>
              <Node pos="r" depth="4" NCoef="0" IVar="-1" Cut="-3.3724957704544067e-01" cType="1" res="-9.9000000000000000e+01" rms="0.0000000000000000e+00" purity="4.5552039146423340e-01" nType="-1"/>
            </Node>
            <Node pos="r" depth="3" NCoef="0" IVar="8" Cut="2.6057748794555664e+00" cType="0" res="-9.9000000000000000e+01" rms="0.0000000000000000e+00" purity="4.7055137157440186e-01" nType="0">
              <Node pos="l" depth="4" NCoef="0" IVar="-1" Cut="0.0000000000000000e+00" cType="1" res="-9.9000000000000000e+01" rms="0.0000000000000000e+00" purity="5.1568341255187988e-01" nType="1"/>
              <Node pos="r" depth="4" NCoef="0" IVar="9" Cut="4.1491079330444336e+00" cType="1" res="-9.9000000000000000e+01" rms="0.0000000000000000e+00" purity="4.4430226087570190e-01" nType="0">
                <Node pos="l" depth="5" NCoef="0" IVar="-1" Cut="0.0000000000000000e+00" cType="1" res="-9.9000000000000000e+01" rms="0.0000000000000000e+00" purity="5.0740355253219604e-01" nType="1"/>
                <Node pos="r" depth="5" NCoef="0" IVar="-1" Cut="0.0000000000000000e+00" cType="1" res="-9.9000000000000000e+01" rms="0.0000000000000000e+00" purity="4.1365811228752136e-01" nType="-1"/>
              </Node>
            </Node>
          </Node>
          <Node pos="r" depth="2" NCoef="0" IVar="-1" Cut="1.9986636638641357e+00" cType="0" res="-9.9000000000000000e+01" rms="0.0000000000000000e+00" purity="4.3528020381927490e-01" nType="-1"/>
        </Node>
        <Node pos="r" depth="1" NCoef="0" IVar="-1" Cut="0.0000000000000000e+00" cType="1" res="-9.9000000000000000e+01" rms="0.0000000000000000e+00" purity="3.7661951780319214e-01" nType="-1"/>
      </Node>
    </BinaryTree>
    <BinaryTree type="DecisionTree" boostWeight="1.1258455135002972e-01" itree="19">
      <Node pos="s" depth="0" NCoef="0" IVar="5" Cut="-1.2543066740036011e+00" cType="0" res="-9.9000000000000000e+01" rms="0.0000000000000000e+00" purity="4.9710789322853088e-01" nType="0">
        <Node pos="l" depth="1" NCoef="0" IVar="3" Cut="1.6351002454757690e+00" cType="1" res="-9.9000000000000000e+01" rms="0.0000000000000000e+00" purity="5.0577223300933838e-01" nType="0">
          <Node pos="l" depth="2" NCoef="0" IVar="5" Cut="6.9776207208633423e-01" cType="1" res="-9.9000000000000000e+01" rms="0.0000000000000000e+00" purity="5.2460598945617676e-01" nType="0">
            <Node pos="l" depth="3" NCoef="0" IVar="11" Cut="1.3961448669433594e+00" cType="1" res="-9.9000000000000000e+01" rms="0.0000000000000000e+00" purity="5.3750145435333252e-01" nType="0">
              <Node pos="l" depth="4" NCoef="0" IVar="9" Cut="4.2465820312500000e+00" cType="0" res="-9.9000000000000000e+01" rms="0.0000000000000000e+00" purity="5.5307799577713013e-01" nType="0">
                <Node pos="l" depth="5" NCoef="0" IVar="-1" Cut="0.0000000000000000e+00" cType="1" res="-9.9000000000000000e+01" rms="0.0000000000000000e+00" purity="5.8445054292678833e-01" nType="1"/>
                <Node pos="r" depth="5" NCoef="0" IVar="-1" Cut="0.0000000000000000e+00" cType="1" res="-9.9000000000000000e+01" rms="0.0000000000000000e+00" purity="4.9975571036338806e-01" nType="-1"/>
              </Node>
              <Node pos="r" depth="4" NCoef="0" IVar="-1" Cut="0.0000000000000000e+00" cType="1" res="-9.9000000000000000e+01" rms="0.0000000000000000e+00" purity="4.5969623327255249e-01" nType="-1"/>
            </Node>
            <Node pos="r" depth="3" NCoef="0" IVar="-1" Cut="0.0000000000000000e+00" cType="1" res="-9.9000000000000000e+01" rms="0.0000000000000000e+00" purity="4.1320934891700745e-01" nType="-1"/>
          </Node>
          <Node pos="r" depth="2" NCoef="0" IVar="0" Cut="5.1588660478591919e-01" cType="1" res="-9.9000000000000000e+01" rms="0.0000000000000000e+00" purity="4.6480953693389893e-01" nType="0">
            <Node pos="l" depth="3" NCoef="0" IVar="1" Cut="2.3097760975360870e-01" cType="0" res="-9.9000000000000000e+01" rms="0.0000000000000000e+00" purity="4.8532551527023315e-01" nType="0">
              <Node pos="l" depth="4" NCoef="0" IVar="10" Cut="6.9276160001754761e-01" cType="1" res="-9.9000000000000000e+01" rms="0.0000000000000000e+00" purity="5.1203316450119019e-01" nType="0">
                <Node pos="l" depth="5" NCoef="0" IVar="-1" Cut="0.0000000000000000e+00" cType="1" res="-9.9000000000000000e+01" rms="0.0000000000000000e+00" purity="5.2819156646728516e-01" nType="1"/>
                <Node pos="r" depth="5" NCoef="0" IVar="-1" Cut="0.0000000000000000e+00" cType="1" res="-9.9000000000000000e+01" rms="0.0000000000000000e+00" purity="4.9432238936424255e-01" nType="-1"/>
              </Node>
              <Node pos="r" depth="4" NCoef="0" IVar="-1" Cut="0.0000000000000000e+00" cType="1" res="-9.9000000000000000e+01" rms="0.0000000000000000e+00" purity="4.3986940383911133e-01" nType="-1"/>
            </Node>
            <Node pos="r" depth="3" NCoef="0" IVar="-1" Cut="0.0000000000000000e+00" cType="1" res="-9.9000000000000000e+01" rms="0.0000000000000000e+00" purity="4.1865405440330505e-01" nType="-1"/>
          </Node>
        </Node>
        <Node pos="r" depth="1" NCoef="0" IVar="-1" Cut="0.0000000000000000e+00" cType="1" res="-9.9000000000000000e+01" rms="0.0000000000000000e+00" purity="4.0991243720054626e-01" nType="-1"/>
      </Node>
    </BinaryTree>
    <BinaryTree type="DecisionTree" boostWeight="1.0623466252102476e-01" itree="20">
      <Node pos="s" depth="0" NCoef="0" IVar="6" Cut="-1.2171683311462402e+00" cType="0" res="-9.9000000000000000e+01" rms="0.0000000000000000e+00" purity="5.0510931015014648e-01" nType="0">
        <Node pos="l" depth="1" NCoef="0" IVar="7" Cut="-7.9602700471878052e-01" cType="0" res="-9.9000000000000000e+01" rms="0.0000000000000000e+00" purity="5.1379609107971191e-01" nType="0">
          <Node pos="l" depth="2" NCoef="0" IVar="7" Cut="-3.7740819156169891e-02" cType="1" res="-9.9000000000000000e+01" rms="0.0000000000000000e+00" purity="5.2605235576629639e-01" nType="0">
            <Node pos="l" depth="3" NCoef="0" IVar="3" Cut="6.0291993618011475e-01" cType="1" res="-9.9000000000000000e+01" rms="0.0000000000000000e+00" purity="5.4497295618057251e-01" nType="0">
              <Node pos="l" depth="4" NCoef="0" IVar="-1" Cut="1.6805889606475830e+00" cType="0" res="-9.9000000000000000e+01" rms="0.0000000000000000e+00" purity="6.0257279872894287e-01" nType="1"/>
              <Node pos="r" depth="4" NCoef="0" IVar="11" Cut="2.7889367938041687e-01" cType="0" res="-9.9000000000000000e+01" rms="0.0000000000000000e+00" purity="5.2064061164855957e-01" nType="0">
                <Node pos="l" depth="5" NCoef="0" IVar="-1" Cut="0.0000000000000000e+00" cType="1" res="-9.9000000000000000e+01" rms="0.0000000000000000e+00" purity="5.3605681657791138e-01" nType="1"/>
                <Node pos="r" depth="5" NCoef="0" IVar="-1" Cut="0.0000000000000000e+00" cType="1" res="-9.9000000000000000e+01" rms="0.0000000000000000e+00" purity="4.7496184706687927e-01" nType="-1"/>
              </Node>
            </Node>
            <Node pos="r" depth="3" NCoef="0" IVar="7" Cut="1.3488167524337769e+00" cType="0" res="-9.9000000000000000e+01" rms="0.0000000000000000e+00" purity="4.9492117762565613e-01" nType="0">
              <Node pos="l" depth="4" NCoef="0" IVar="-1" Cut="0.0000000000000000e+00" cType="1" res="-9.9000000000000000e+01" rms="0.0000000000000000e+00" purity="5.6841808557510376e-01" nType="1"/>
              <Node pos="r" depth="4" NCoef="0" IVar="9" Cut="5.1038203239440918e+00" cType="0" res="-9.9000000000000000e+01" rms="0.0000000000000000e+00" purity="4.7236546874046326e-01" nType="0">
                <Node pos="l" depth="5" NCoef="0" IVar="-1" Cut="0.0000000000000000e+00" cType="1" res="-9.9000000000000000e+01" rms="0.0000000000000000e+00" purity="5.2185696363449097e-01" nType="1"/>
                <Node pos="r" depth="5" NCoef="0" IVar="-1" Cut="0.0000000000000000e+00" cType="1" res="-9.9000000000000000e+01" rms="0.0000000000000000e+00" purity="4.3911576271057129e-01" nType="-1"/>
              </Node>
            </Node>
          </Node>
          <Node pos="r" depth="2" NCoef="0" IVar="1" Cut="5.8735829591751099e-01" cType="0" res="-9.9000000000000000e+01" rms="0.0000000000000000e+00" purity="4.6707719564437866e-01" nType="0">
            <Node pos="l" depth="3" NCoef="0" IVar="-1" Cut="0.0000000000000000e+00" cType="1" res="-9.9000000000000000e+01" rms="0.0000000000000000e+00" purity="5.1221090555191040e-01" nType="1"/>
            <Node pos="r" depth="3" NCoef="0" IVar="-1" Cut="-1.5098696574568748e-02" cType="0" res="-9.9000000000000000e+01" rms="0.0000000000000000e+00" purity="4.3130025267601013e-01" nType="-1"/>
          </Node>
        </Node>
        <Node pos="r" depth="1" NCoef="0" IVar="-1" Cut="-2.7253267168998718e-01" cType="1" res="-9.9000000000000000e+01" rms="0.0000000000000000e+00" purity="4.2825943231582642e-01" nType="-1"/>
      </Node>
    </BinaryTree>
    <BinaryTree type="DecisionTree" boostWeight="1.0620713701456823e-01" itree="21">
      <Node pos="s" depth="0" NCoef="0" IVar="5" Cut="-1.2543066740036011e+00" cType="0" res="-9.9000000000000000e+01" rms="0.0000000000000000e+00" purity="5.0019526481628418e-01" nType="0">
        <Node pos="l" depth="1" NCoef="0" IVar="5" Cut="-8.3030991256237030e-02" cType="1" res="-9.9000000000000000e+01" rms="0.0000000000000000e+00" purity="5.0704705715179443e-01" nType="0">
          <Node pos="l" depth="2" NCoef="0" IVar="13" Cut="1.5117374658584595e+00" cType="1" res="-9.9000000000000000e+01" rms="0.0000000000000000e+00" purity="5.2406692504882812e-01" nType="0">
            <Node pos="l" depth="3" NCoef="0" IVar="14" Cut="5.1657003164291382e-01" cType="1" res="-9.9000000000000000e+01" rms="0.0000000000000000e+00" purity="5.3372776508331299e-01" nType="0">
              <Node pos="l" depth="4" NCoef="0" IVar="-1" Cut="-4.5843499898910522e-01" cType="1" res="-9.9000000000000000e+01" rms="0.0000000000000000e+00" purity="5.7724297046661377e-01" nType="1"/>
              <Node pos="r" depth="4" NCoef="0" IVar="3" Cut="1.7128896713256836e+00" cType="1" res="-9.9000000000000000e+01" rms="0.0000000000000000e+00" purity="5.1546865701675415e-01" nType="0">
                <Node pos="l" depth="5" NCoef="0" IVar="-1" Cut="0.0000000000000000e+00" cType="1" res="-9.9000000000000000e+01" rms="0.0000000000000000e+00" purity="5.3743588924407959e-01" nType="1"/>
                <Node pos="r" depth="5" NCoef="0" IVar="-1" Cut="0.0000000000000000e+00" cType="1" res="-9.9000000000000000e+01" rms="0.0000000000000000e+00" purity="4.6095678210258484e-01" nType="-1"/>
              </Node>
            </Node>
            <Node pos="r" depth="3" NCoef="0" IVar="-1" Cut="0.0000000000000000e+00" cType="1" res="-9.9000000000000000e+01" rms="0.0000000000000000e+00" purity="4.5944693684577942e-01" nType="-1"/>
          </Node>
          <Node pos="r" depth="2" NCoef="0" IVar="14" Cut="1.8850029706954956e+00" cType="0" res="-9.9000000000000000e+01" rms="0.0000000000000000e+00" purity="4.7401362657546997e-01" nType="0">
            <Node pos="l" depth="3" NCoef="0" IVar="0" Cut="5.6071650981903076e-01" cType="1" res="-9.9000000000000000e+01" rms="0.0000000000000000e+00" purity="5.1345270872116089e-01" nType="0">
              <Node pos="l" depth="4" NCoef="0" IVar="1" Cut="5.5868941545486450e-01" cType="0" res="-9.9000000000000000e+01" rms="0.0000000000000000e+00" purity="5.3626376390457153e-01" nType="0">
                <Node pos="l" depth="5" NCoef="0" IVar="-1" Cut="0.0000000000000000e+00" cType="1" res="-9.9000000000000000e+01" rms="0.0000000000000000e+00" purity="5.7414537668228149e-01" nType="1"/>
                <Node pos="r" depth="5" NCoef="0" IVar="-1" Cut="0.0000000000000000e+00" cType="1" res="-9.9000000000000000e+01" rms="0.0000000000000000e+00" purity="4.9640294909477234e-01" nType="-1"/>
              </Node>
              <Node pos="r" depth="4" NCoef="0" IVar="-1" Cut="0.0000000000000000e+00" cType="1" res="-9.9000000000000000e+01" rms="0.0000000000000000e+00" purity="4.6103107929229736e-01" nType="-1"/>
            </Node>
            <Node pos="r" depth="3" NCoef="0" IVar="-1" Cut="2.7681592106819153e-01" cType="1" res="-9.9000000000000000e+01" rms="0.0000000000000000e+00" purity="4.1826972365379333e-01" nType="-1"/>
          </Node>
        </Node>
        <Node pos="r" depth="1" NCoef="0" IVar="-1" Cut="0.0000000000000000e+00" cType="1" res="-9.9000000000000000e+01" rms="0.0000000000000000e+00" purity="4.3088909983634949e-01" nType="-1"/>
      </Node>
    </BinaryTree>
    <BinaryTree type="DecisionTree" boostWeight="1.1994641273295104e-01" itree="22">
      <Node pos="s" depth="0" NCoef="0" IVar="2" Cut="1.4393568038940430e+00" cType="1" res="-9.9000000000000000e+01" rms="0.0000000000000000e+00" purity="5.0118291378021240e-01" nType="0">
        <Node pos="l" depth="1" NCoef="0" IVar="0" Cut="1.0414071083068848e+00" cType="1" res="-9.9000000000000000e+01" rms="0.0000000000000000e+00" purity="5.0752460956573486e-01" nType="0">
          <Node pos="l" depth="2" NCoef="0" IVar="0" Cut="-1.3609751462936401e+00" cType="0" res="-9.9000000000000000e+01" rms="0.0000000000000000e+00" purity="5.1966863870620728e-01" nType="0">
            <Node pos="l" depth="3" NCoef="0" IVar="1" Cut="-1.0916358977556229e-01" cType="0" res="-9.9000000000000000e+01" rms="0.0000000000000000e+00" purity="5.2816325426101685e-01" nType="0">
              <Node pos="l" depth="4" NCoef="0" IVar="13" Cut="1.5134249925613403e+00" cType="1" res="-9.9000000000000000e+01" rms="0.0000000000000000e+00" purity="5.4113727807998657e-01" nType="0">
                <Node pos="l" depth="5" NCoef="0" IVar="-1" Cut="0.0000000000000000e+00" cType="1" res="-9.9000000000000000e+01" rms="0.0000000000000000e+00" purity="5.5011266469955444e-01" nType="1"/>
                <Node pos="r" depth="5" NCoef="0" IVar="-1" Cut="0.0000000000000000e+00" cType="1" res="-9.9000000000000000e+01" rms="0.0000000000000000e+00" purity="4.6893700957298279e-01" nType="-1"/>
              </Node>
              <Node pos="r" depth="4" NCoef="0" IVar="0" Cut="-1.0176925659179688e+00" cType="1" res="-9.9000000000000000e+01" rms="0.0000000000000000e+00" purity="4.6548137068748474e-01" nType="0">
                <Node pos="l" depth="5" NCoef="0" IVar="-1" Cut="0.0000000000000000e+00" cType="1" res="-9.9000000000000000e+01" rms="0.0000000000000000e+00" purity="5.6622970104217529e-01" nType="1"/>
                <Node pos="r" depth="5" NCoef="0" IVar="-1" Cut="0.0000000000000000e+00" cType="1" res="-9.9000000000000000e+01" rms="0.0000000000000000e+00" purity="3.5051769018173218e-01" nType="-1"/>
              </Node>
            </Node>
            <Node pos="r" depth="3" NCoef="0" IVar="-1" Cut="0.0000000000000000e+00" cType="1" res="-9.9000000000000000e+01" rms="0.0000000000000000e+00" purity="4.4225072860717773e-01" nType="-1"/>
          </Node>
          <Node pos="r" depth="2" NCoef="0" IVar="1" Cut="-2.0902042090892792e-01" cType="1" res="-9.9000000000000000e+01" rms="0.0000000000000000e+00" purity="4.5528537034988403e-01" nType="0">
            <Node pos="l" depth="3" NCoef="0" IVar="2" Cut="-1.9245597720146179e-01" cType="1" res="-9.9000000000000000e+01" rms="0.0000000000000000e+00" purity="4.9662572145462036e-01" nType="0">
              <Node pos="l" depth="4" NCoef="0" IVar="-1" Cut="0.0000000000000000e+00" cType="1" res="-9.9000000000000000e+01" rms="0.0000000000000000e+00" purity="5.3245919942855835e-01" nType="1"/>
              <Node pos="r" depth="4" NCoef="0" IVar="-1" Cut="0.0000000000000000e+00" cType="1" res="-9.9000000000000000e+01" rms="0.0000000000000000e+00" purity="4.6846270561218262e-01" nType="-1"/>
            </Node>
            <Node pos="r" depth="3" NCoef="0" IVar="-1" Cut="0.0000000000000000e+00" cType="1" res="-9.9000000000000000e+01" rms="0.0000000000000000e+00" purity="3.6033141613006592e-01" nType="-1"/>
          </Node>
        </Node>
        <Node pos="r" depth="1" NCoef="0" IVar="-1" Cut="0.0000000000000000e+00" cType="1" res="-9.9000000000000000e+01" rms="0.0000000000000000e+00" purity="4.3388432264328003e-01" nType="-1"/>
      </Node>
    </BinaryTree>
    <BinaryTree type="DecisionTree" boostWeight="1.0868129174489875e-01" itree="23">
      <Node pos="s" depth="0" NCoef="0" IVar="11" Cut="2.4191114902496338e+00" cType="1" res="-9.9000000000000000e+01" rms="0.0000000000000000e+00" purity="4.9477744102478027e-01" nType="0">
        <Node pos="l" depth="1" NCoef="0" IVar="7" Cut="-7.9710108041763306e-01" cType="0" res="-9.9000000000000000e+01" rms="0.0000000000000000e+00" purity="4.9980917572975159e-01" nType="0">
          <Node pos="l" depth="2" NCoef="0" IVar="2" Cut="-2.7396869659423828e-01" cType="0" res="-9.9000000000000000e+01" rms="0.0000000000000000e+00" purity="5.0968652963638306e-01" nType="0">
            <Node pos="l" depth="3" NCoef="0" IVar="14" Cut="2.7609908580780029e+00" cType="0" res="-9.9000000000000000e+01" rms="0.0000000000000000e+00" purity="5.1957774162292480e-01" nType="0">
              <Node pos="l" depth="4" NCoef="0" IVar="-1" Cut="7.5949913263320923e-01" cType="0" res="-9.9000000000000000e+01" rms="0.0000000000000000e+00" purity="5.7273101806640625e-01" nType="1"/>
              <Node pos="r" depth="4" NCoef="0" IVar="2" Cut="7.4592775106430054e-01" cType="1" res="-9.9000000000000000e+01" rms="0.0000000000000000e+00" purity="4.9375143647193909e-01" nType="0">
                <Node pos="l" depth="5" NCoef="0" IVar="-1" Cut="0.0000000000000000e+00" cType="1" res="-9.9000000000000000e+01" rms="0.0000000000000000e+00" purity="5.2466428279876709e-01" nType="1"/>
                <Node pos="r" depth="5" NCoef="0" IVar="-1" Cut="0.0000000000000000e+00" cType="1" res="-9.9000000000000000e+01" rms="0.0000000000000000e+00" purity="4.1227206587791443e-01" nType="-1"/>
              </Node>
            </Node>
            <Node pos="r" depth="3" NCoef="0" IVar="14" Cut="1.9770406484603882e+00" cType="1" res="-9.9000000000000000e+01" rms="0.0000000000000000e+00" purity="4.7086045145988464e-01" nType="0">
              <Node pos="l" depth="4" NCoef="0" IVar="-1" Cut="0.0000000000000000e+00" cType="1" res="-9.9000000000000000e+01" rms="0.0000000000000000e+00" purity="5.3121286630630493e-01" nType="1"/>
              <Node pos="r" depth="4" NCoef="0" IVar="-1" Cut="0.0000000000000000e+00" cType="1" res="-9.9000000000000000e+01" rms="0.0000000000000000e+00" purity="4.0229660272598267e-01" nType="-1"/>
            </Node>
          </Node>
          <Node pos="r" depth="2" NCoef="0" IVar="13" Cut="8.5462468862533569e-01" cType="0" res="-9.9000000000000000e+01" rms="0.0000000000000000e+00" purity="4.6187886595726013e-01" nType="0">
            <Node pos="l" depth="3" NCoef="0" IVar="-1" Cut="0.0000000000000000e+00" cType="1" res="-9.9000000000000000e+01" rms="0.0000000000000000e+00" purity="5.1023364067077637e-01" nType="1"/>
            <Node pos="r" depth="3" NCoef="0" IVar="-1" Cut="8.5004842281341553e-01" cType="1" res="-9.9000000000000000e+01" rms="0.0000000000000000e+00" purity="4.4024220108985901e-01" nType="-1"/>
          </Node>
        </Node>
