<?xml version="1.0"?>
<MethodSetup Method="BDT::BDTD">
  <GeneralInfo>
    <Info name="TMVA Release" value="4.2.1 [262657]"/>
    <Info name="ROOT Release" value="6.30/08 [400904]"/>
    <Info name="Creator" value="zinchenk"/>
    <Info name="Date" value="Thu Jul 17 17:10:42 2025"/>
    <Info name="Host" value="Linux buildkitsandbox 4.15.0-200-generic #211-Ubuntu SMP Thu Nov 24 18:16:04 UTC 2022 x86_64 x86_64 x86_64 GNU/Linux"/>
    <Info name="Dir" value="/data2/zinchenk/TMVA/VectorFinder/2025"/>
    <Info name="Training events" value="49857"/>
    <Info name="TrainingTime" value="3.11671069e+01"/>
    <Info name="AnalysisType" value="Classification"/>
  </GeneralInfo>
  <Options>
    <Option name="V" modified="Yes">False</Option>
    <Option name="VerbosityLevel" modified="No">Default</Option>
    <Option name="VarTransform" modified="Yes">Decorrelate</Option>
    <Option name="H" modified="Yes">False</Option>
    <Option name="CreateMVAPdfs" modified="No">False</Option>
    <Option name="IgnoreNegWeightsInTraining" modified="No">False</Option>
    <Option name="NTrees" modified="Yes">400</Option>
    <Option name="MaxDepth" modified="Yes">5</Option>
    <Option name="MinNodeSize" modified="Yes">5%</Option>
    <Option name="nCuts" modified="Yes">20</Option>
    <Option name="BoostType" modified="Yes">AdaBoost</Option>
    <Option name="AdaBoostR2Loss" modified="No">quadratic</Option>
    <Option name="UseBaggedBoost" modified="No">False</Option>
    <Option name="Shrinkage" modified="No">1.000000e+00</Option>
    <Option name="AdaBoostBeta" modified="No">5.000000e-01</Option>
    <Option name="UseRandomisedTrees" modified="No">False</Option>
    <Option name="UseNvars" modified="No">4</Option>
    <Option name="UsePoissonNvars" modified="No">True</Option>
    <Option name="BaggedSampleFraction" modified="No">6.000000e-01</Option>
    <Option name="UseYesNoLeaf" modified="No">True</Option>
    <Option name="NegWeightTreatment" modified="No">inverseboostnegweights</Option>
    <Option name="Css" modified="No">1.000000e+00</Option>
    <Option name="Cts_sb" modified="No">1.000000e+00</Option>
    <Option name="Ctb_ss" modified="No">1.000000e+00</Option>
    <Option name="Cbb" modified="No">1.000000e+00</Option>
    <Option name="NodePurityLimit" modified="No">5.000000e-01</Option>
    <Option name="SeparationType" modified="Yes">giniindex</Option>
    <Option name="RegressionLossFunctionBDTG" modified="No">huber</Option>
    <Option name="HuberQuantile" modified="No">7.000000e-01</Option>
    <Option name="DoBoostMonitor" modified="No">False</Option>
    <Option name="UseFisherCuts" modified="No">False</Option>
    <Option name="MinLinCorrForFisher" modified="No">8.000000e-01</Option>
    <Option name="UseExclusiveVars" modified="No">False</Option>
    <Option name="DoPreselection" modified="No">False</Option>
    <Option name="SigToBkgFraction" modified="No">1.000000e+00</Option>
    <Option name="PruneMethod" modified="No">nopruning</Option>
    <Option name="PruneStrength" modified="No">0.000000e+00</Option>
    <Option name="PruningValFraction" modified="No">5.000000e-01</Option>
    <Option name="SkipNormalization" modified="No">False</Option>
    <Option name="nEventsMin" modified="No">0</Option>
    <Option name="UseBaggedGrad" modified="No">False</Option>
    <Option name="GradBaggingFraction" modified="No">6.000000e-01</Option>
    <Option name="UseNTrainEvents" modified="No">0</Option>
    <Option name="NNodesMax" modified="No">0</Option>
  </Options>
  <Variables NVar="17">
    <Variable VarIndex="0" Expression="atan2(yb,xb)" Label="atan2(yb,xb)" Title="phib" Unit="" Internal="atan2_yb,xb_" Type="F" Min="-3.14154625e+00" Max="3.14156270e+00"/>
    <Variable VarIndex="1" Expression="tx" Label="tx" Title="tx" Unit="" Internal="tx" Type="F" Min="-6.75423026e-01" Max="6.20441198e-01"/>
    <Variable VarIndex="2" Expression="log(abs(momr))" Label="log(abs(momr))" Title="momr" Unit="" Internal="log_abs_momr__" Type="F" Min="-2.05893803e+00" Max="7.72976303e+00"/>
    <Variable VarIndex="3" Expression="chi2" Label="chi2" Title="chi2" Unit="" Internal="chi2" Type="F" Min="1.03207296e-02" Max="4.99994707e+00"/>
    <Variable VarIndex="4" Expression="corrq[0]" Label="corrq[0]" Title="corrq_0" Unit="" Internal="corrq_0_" Type="F" Min="-9.96087432e-01" Max="9.88219142e-01"/>
    <Variable VarIndex="5" Expression="corrq[1]" Label="corrq[1]" Title="corrq_1" Unit="" Internal="corrq_1_" Type="F" Min="-9.89772797e-01" Max="9.86838281e-01"/>
    <Variable VarIndex="6" Expression="corrq[2]" Label="corrq[2]" Title="corrq_2" Unit="" Internal="corrq_2_" Type="F" Min="-9.87304807e-01" Max="9.88424778e-01"/>
    <Variable VarIndex="7" Expression="corrq[3]" Label="corrq[3]" Title="corrq_3" Unit="" Internal="corrq_3_" Type="F" Min="-9.87909734e-01" Max="9.88013685e-01"/>
    <Variable VarIndex="8" Expression="corrq[4]" Label="corrq[4]" Title="corrq4" Unit="" Internal="corrq_4_" Type="F" Min="-9.92963612e-01" Max="9.89315152e-01"/>
    <Variable VarIndex="9" Expression="corrq3" Label="corrq3" Title="corrQ" Unit="" Internal="corrq3" Type="F" Min="3.92719060e-02" Max="4.09694862e+00"/>
    <Variable VarIndex="10" Expression="nseqmx" Label="nseqmx" Title="nseqmx" Unit="" Internal="nseqmx" Type="F" Min="2.00000000e+00" Max="5.00000000e+00"/>
    <Variable VarIndex="11" Expression="corrn[0]" Label="corrn[0]" Title="over0" Unit="" Internal="corrn_0_" Type="F" Min="0.00000000e+00" Max="1.30000000e+01"/>
    <Variable VarIndex="12" Expression="corrn[1]" Label="corrn[1]" Title="over1" Unit="" Internal="corrn_1_" Type="F" Min="0.00000000e+00" Max="9.00000000e+00"/>
    <Variable VarIndex="13" Expression="corrn[2]" Label="corrn[2]" Title="over2" Unit="" Internal="corrn_2_" Type="F" Min="0.00000000e+00" Max="1.50000000e+01"/>
    <Variable VarIndex="14" Expression="corrn[3]" Label="corrn[3]" Title="over3" Unit="" Internal="corrn_3_" Type="F" Min="0.00000000e+00" Max="1.20000000e+01"/>
    <Variable VarIndex="15" Expression="corrn[4]" Label="corrn[4]" Title="over4" Unit="" Internal="corrn_4_" Type="F" Min="0.00000000e+00" Max="7.00000000e+00"/>
    <Variable VarIndex="16" Expression="nsigem" Label="nsigem" Title="nsigem" Unit="" Internal="nsigem" Type="F" Min="5.00000000e+00" Max="4.10000000e+01"/>
  </Variables>
  <Spectators NSpec="0"/>
  <Classes NClass="2">
    <Class Name="Signal" Index="0"/>
    <Class Name="Background" Index="1"/>
  </Classes>
  <Transformations NTransformations="1">
    <Transform Name="Decorrelation">
      <Selection>
        <Input NInputs="17">
          <Input Type="Variable" Label="atan2(yb,xb)" Expression="atan2(yb,xb)"/>
          <Input Type="Variable" Label="tx" Expression="tx"/>
          <Input Type="Variable" Label="log(abs(momr))" Expression="log(abs(momr))"/>
          <Input Type="Variable" Label="chi2" Expression="chi2"/>
          <Input Type="Variable" Label="corrq[0]" Expression="corrq[0]"/>
          <Input Type="Variable" Label="corrq[1]" Expression="corrq[1]"/>
          <Input Type="Variable" Label="corrq[2]" Expression="corrq[2]"/>
          <Input Type="Variable" Label="corrq[3]" Expression="corrq[3]"/>
          <Input Type="Variable" Label="corrq[4]" Expression="corrq[4]"/>
          <Input Type="Variable" Label="corrq3" Expression="corrq3"/>
          <Input Type="Variable" Label="nseqmx" Expression="nseqmx"/>
          <Input Type="Variable" Label="corrn[0]" Expression="corrn[0]"/>
          <Input Type="Variable" Label="corrn[1]" Expression="corrn[1]"/>
          <Input Type="Variable" Label="corrn[2]" Expression="corrn[2]"/>
          <Input Type="Variable" Label="corrn[3]" Expression="corrn[3]"/>
          <Input Type="Variable" Label="corrn[4]" Expression="corrn[4]"/>
          <Input Type="Variable" Label="nsigem" Expression="nsigem"/>
        </Input>
        <Output NOutputs="17">
          <Output Type="Variable" Label="atan2(yb,xb)" Expression="atan2(yb,xb)"/>
          <Output Type="Variable" Label="tx" Expression="tx"/>
          <Output Type="Variable" Label="log(abs(momr))" Expression="log(abs(momr))"/>
          <Output Type="Variable" Label="chi2" Expression="chi2"/>
          <Output Type="Variable" Label="corrq[0]" Expression="corrq[0]"/>
          <Output Type="Variable" Label="corrq[1]" Expression="corrq[1]"/>
          <Output Type="Variable" Label="corrq[2]" Expression="corrq[2]"/>
          <Output Type="Variable" Label="corrq[3]" Expression="corrq[3]"/>
          <Output Type="Variable" Label="corrq[4]" Expression="corrq[4]"/>
          <Output Type="Variable" Label="corrq3" Expression="corrq3"/>
          <Output Type="Variable" Label="nseqmx" Expression="nseqmx"/>
          <Output Type="Variable" Label="corrn[0]" Expression="corrn[0]"/>
          <Output Type="Variable" Label="corrn[1]" Expression="corrn[1]"/>
          <Output Type="Variable" Label="corrn[2]" Expression="corrn[2]"/>
          <Output Type="Variable" Label="corrn[3]" Expression="corrn[3]"/>
          <Output Type="Variable" Label="corrn[4]" Expression="corrn[4]"/>
          <Output Type="Variable" Label="nsigem" Expression="nsigem"/>
        </Output>
      </Selection>
      <Matrix Rows="17" Columns="17">
        5.115221968825688e-01 8.997553832405344e-03 2.688801409144619e-02 2.773457170672727e-03 8.095673689539404e-03 -6.581549616434511e-03 1.608791860742513e-03 2.023000252523305e-03 1.187875467479138e-03 1.222993761814973e-03 3.522628074552607e-03 -3.234424806224176e-03 1.261405122721920e-02 1.657480608591068e-03 -4.669148280743832e-03 -1.109125905247803e-02 3.148431237221555e-03 8.997553832405344e-03 4.948140904648719e+00 2.827153127929001e-01 -6.839946254868515e-02 -2.925153131420733e-03 2.223343150811781e-02 5.307138238626935e-02 -1.153602396004245e-03 7.472774698365570e-03 1.012172294647586e-01 1.952377900269620e-01 4.435975551532707e-02 9.239489553004899e-03 -5.801776204010593e-02 -1.334527750292039e-01 -3.036741618116989e-01 1.921717230041142e-02 2.688801409144618e-02 2.827153127929001e-01 2.039342384428467e+00 -6.081768634763787e-02 8.266481759364654e-03 2.134478125191921e-03 -8.639062038324081e-03 2.052745891755955e-05 -1.192545566386444e-02 -1.544225497963879e-02 1.132430239256891e-01 7.189077765542383e-03 2.207325022792570e-02 1.118568170132758e-02 7.187821966359313e-04 -6.603209127562476e-02 4.708721083557318e-02 2.773457170672727e-03 -6.839946254868512e-02 -6.081768634763786e-02 1.082871926960373e+00 -5.559370458275630e-03 -3.575284135374153e-03 -6.070231778085062e-03 -1.630720727661101e-02 -2.208013846399638e-02 -1.530682494107997e-01 6.569603998608141e-03 -5.574195368307874e-02 -3.816070517298139e-02 -1.032294878033360e-02 -2.941471053600602e-02 -5.293930077412935e-02 -5.015777305621315e-03 8.095673689539404e-03 -2.925153131420731e-03 8.266481759364654e-03 -5.559370458275636e-03 4.770073071886178e+00 -1.517598012191906e-02 3.755713515341141e-02 4.030878784855831e-02 7.020789897623538e-04 3.840683144565131e-02 3.346603092839386e-02 6.831851807375429e-03 -3.503325232282017e-02 -2.252412762490759e-02 -5.794842347848167e-03 3.660488353187702e-03 -1.795974383655852e-02 -6.581549616434512e-03 2.223343150811781e-02 2.134478125191927e-03 -3.575284135374156e-03 -1.517598012191898e-02 5.312588658716273e+00 4.458122409027686e-02 4.403864903315417e-02 -1.274670587183826e-04 5.949975142366824e-02 5.147495726588204e-02 -1.338461668970108e-02 5.758191303103872e-03 -2.652598173340618e-02 -8.070767687411794e-03 4.144110841398705e-03 -2.360823281383831e-02 1.608791860742513e-03 5.307138238626935e-02 -8.639062038324079e-03 -6.070231778085061e-03 3.755713515341141e-02 4.458122409027685e-02 5.533354183902380e+00 2.360023142116574e-02 9.196235852502762e-03 1.442677237366053e-01 1.373994219115645e-02 -3.283845887814808e-02 -5.328703797505004e-03 1.187824465592066e-02 -1.846569080206401e-02 -1.240913253128220e-02 -2.648706897463201e-02 2.023000252523305e-03 -1.153602396004216e-03 2.052745891755609e-05 -1.630720727661101e-02 4.030878784855822e-02 4.403864903315416e-02 2.360023142116594e-02 5.226954421424913e+00 1.115683844130186e-02 2.188809282672439e-01 -8.132480200448079e-02 -4.381016509469074e-02 -3.454505444775571e-02 -7.275192089365654e-04 -1.929571997264125e-02 -2.259134984575573e-02 -1.315833232297513e-02 1.187875467479138e-03 7.472774698365527e-03 -1.192545566386445e-02 -2.208013846399638e-02 7.020789897623528e-04 -1.274670587183778e-04 9.196235852502765e-03 1.115683844130186e-02 4.544062427903404e+00 1.760750628630693e-01 4.664932840453097e-03 -1.433141830817770e-02 -1.770751356559845e-02 -8.208639125154425e-03 -2.468864830188620e-02 -6.076535390186654e-02 -1.252879230413578e-04 1.222993761814973e-03 1.012172294647586e-01 -1.544225497963878e-02 -1.530682494107997e-01 3.840683144565131e-02 5.949975142366824e-02 1.442677237366053e-01 2.188809282672439e-01 1.760750628630693e-01 3.195460839014027e+00 1.595010062817845e-02 -1.324082961707300e-01 -1.255513907098888e-01 -1.083840541558426e-01 -1.337675148725604e-01 -1.508682106734208e-01 2.002295226723295e-02 3.522628074552607e-03 1.952377900269620e-01 1.132430239256891e-01 6.569603998608137e-03 3.346603092839386e-02 5.147495726588205e-02 1.373994219115645e-02 -8.132480200448076e-02 4.664932840453103e-03 1.595010062817845e-02 1.018958259013800e+00 -3.226518676735504e-04 1.344045334265538e-02 3.261231675187866e-02 4.733993554623833e-02 -6.045714061739768e-03 1.320377113839061e-02 -3.234424806224176e-03 4.435975551532705e-02 7.189077765542386e-03 -5.574195368307872e-02 6.831851807375429e-03 -1.338461668970109e-02 -3.283845887814808e-02 -4.381016509469075e-02 -1.433141830817770e-02 -1.324082961707300e-01 -3.226518676735539e-04 1.656542863676772e+00 -1.177941501874715e-01 -3.081296205921204e-02 -2.846992060572410e-02 -2.230696318205531e-02 1.811419686348715e-02 1.261405122721920e-02 9.239489553004914e-03 2.207325022792569e-02 -3.816070517298139e-02 -3.503325232282018e-02 5.758191303103872e-03 -5.328703797505007e-03 -3.454505444775572e-02 -1.770751356559845e-02 -1.255513907098888e-01 1.344045334265538e-02 -1.177941501874713e-01 1.792716246320792e+00 -1.084914073902303e-01 -3.737146041103041e-02 -1.672554266894243e-02 1.257514428788759e-02 1.657480608591068e-03 -5.801776204010598e-02 1.118568170132758e-02 -1.032294878033361e-02 -2.252412762490760e-02 -2.652598173340617e-02 1.187824465592065e-02 -7.275192089365662e-04 -8.208639125154432e-03 -1.083840541558426e-01 3.261231675187866e-02 -3.081296205921209e-02 -1.084914073902303e-01 1.915153368573001e+00 -9.613541275154383e-02 -4.804124717816314e-02 3.813050524625728e-03 -4.669148280743832e-03 -1.334527750292039e-01 7.187821966358797e-04 -2.941471053600598e-02 -5.794842347848171e-03 -8.070767687411794e-03 -1.846569080206401e-02 -1.929571997264125e-02 -2.468864830188620e-02 -1.337675148725604e-01 4.733993554623829e-02 -2.846992060572411e-02 -3.737146041103048e-02 -9.613541275154382e-02 1.716881734367491e+00 -1.484572905289225e-01 -7.035799775081587e-03 -1.109125905247803e-02 -3.036741618116989e-01 -6.603209127562476e-02 -5.293930077412935e-02 3.660488353187704e-03 4.144110841398708e-03 -1.240913253128220e-02 -2.259134984575573e-02 -6.076535390186656e-02 -1.508682106734208e-01 -6.045714061739754e-03 -2.230696318205535e-02 -1.672554266894242e-02 -4.804124717816310e-02 -1.484572905289224e-01 1.893209074831587e+00 -1.598839765455065e-02 3.148431237221555e-03 1.921717230041142e-02 4.708721083557318e-02 -5.015777305621315e-03 -1.795974383655852e-02 -2.360823281383831e-02 -2.648706897463201e-02 -1.315833232297513e-02 -1.252879230413575e-04 2.002295226723295e-02 1.320377113839061e-02 1.811419686348715e-02 1.257514428788759e-02 3.813050524625727e-03 -7.035799775081586e-03 -1.598839765455065e-02 7.892408512380458e-02 
      </Matrix>
      <Matrix Rows="17" Columns="17">
        8.198332419001321e-01 8.497718300882783e-02 -2.858228881265400e-03 -1.197569618122491e-03 1.495754331145044e-03 -9.940193976624355e-05 8.824035727679643e-04 -7.280791108559836e-03 -1.792476075620526e-03 -9.317098047372345e-03 2.319659957822303e-02 -1.847276913421830e-03 4.599132894328383e-03 -1.095026240172518e-02 -8.964320414528732e-03 -1.385231604000917e-02 4.660422381349729e-03 8.497718300882784e-02 7.219371248754352e+00 1.274273249382469e-01 4.365578695914647e-02 1.840539679582255e-02 -1.382229417522846e-02 -1.326497899956114e-02 -2.207180159720512e-02 2.305116684202706e-02 -5.198452249101398e-02 9.242211900182729e-02 2.422141141207679e-02 3.789385114251945e-02 1.461648613640991e-02 -6.059807558288142e-02 -9.760011888837621e-02 1.180562968648116e-02 -2.858228881265401e-03 1.274273249382469e-01 1.110933359340698e+00 -5.616635697331976e-02 -2.470346105786507e-03 -2.630248251500328e-03 1.618674844189593e-02 7.938453368608465e-03 -7.126308502665291e-04 1.335503328119768e-02 1.131141016991500e-02 1.441662362102023e-02 -1.399075301413757e-02 -4.051701584660602e-02 -1.252357269900886e-02 -9.652295776660413e-03 3.284473815217444e-02 -1.197569618122481e-03 4.365578695914649e-02 -5.616635697331984e-02 8.804777411707945e-01 6.382339017309006e-03 4.661683829066658e-03 -4.878842747507850e-03 3.856509172245606e-03 8.976073084346793e-03 -6.954447230640239e-03 9.894008783659305e-03 9.546555372264573e-03 1.114542585263573e-02 2.744038602725644e-02 2.268057396215645e-02 2.223540671596896e-04 3.203865515066053e-03 1.495754331145044e-03 1.840539679582254e-02 -2.470346105786507e-03 6.382339017309004e-03 3.151205689226032e+00 2.323332214644481e-03 -6.437252229008839e-03 7.146904599629757e-04 5.175158034073851e-03 8.106285444795877e-03 6.261032388032228e-03 2.006165498379901e-02 -1.779093629756901e-02 -5.609595402798618e-03 -4.340042942525828e-03 -1.291549608736538e-02 -1.013039523421704e-02 -9.940193976624209e-05 -1.382229417522846e-02 -2.630248251500329e-03 4.661683829066659e-03 2.323332214644480e-03 2.771803517739873e+00 -4.159235969222814e-03 -5.668359966742509e-03 -7.738721740666695e-03 2.924522108735722e-02 1.837480136311271e-02 -5.119539643722528e-03 1.709046960900889e-02 -9.467083357246366e-03 -3.287312207513522e-03 -1.495518051864665e-02 -9.183312269256137e-03 8.824035727679649e-04 -1.326497899956114e-02 1.618674844189593e-02 -4.878842747507851e-03 -6.437252229008844e-03 -4.159235969222819e-03 2.427145472190090e+00 -2.035875895755796e-02 1.093051407324407e-02 5.131830403642046e-02 -2.813872107788946e-03 -5.227742229732725e-03 -1.023389995344087e-02 9.456592696242347e-03 -1.129094945373717e-02 -3.185859446423869e-03 -6.130661104140670e-03 -7.280791108559839e-03 -2.207180159720512e-02 7.938453368608468e-03 3.856509172245607e-03 7.146904599629765e-04 -5.668359966742507e-03 -2.035875895755800e-02 2.289396238699595e+00 4.579388009029689e-04 7.313944961912666e-02 -9.691133368744338e-03 9.453461006745482e-03 -6.193589895280426e-03 3.642231722842696e-03 1.011313614888112e-02 -3.443938447606289e-03 -8.739602790622464e-04 -1.792476075620526e-03 2.305116684202705e-02 -7.126308502665280e-04 8.976073084346788e-03 5.175158034073851e-03 -7.738721740666694e-03 1.093051407324407e-02 4.579388009029650e-04 2.303176502068169e+00 5.768353991970969e-02 -7.775682860850624e-03 -6.960340320209535e-04 -3.019711596256817e-03 -2.452305848996595e-03 -4.627038059958957e-03 -5.699254381861306e-03 7.370449039365972e-04 -9.317098047372345e-03 -5.198452249101398e-02 1.335503328119769e-02 -6.954447230640236e-03 8.106285444795882e-03 2.924522108735726e-02 5.131830403642047e-02 7.313944961912662e-02 5.768353991970974e-02 1.866207654697074e+00 -6.266866425456898e-05 -2.480910824405601e-02 -1.961414954232894e-02 -2.053010546704787e-02 -2.571658359501239e-02 -1.667779372912468e-02 2.760157604249677e-02 2.319659957822303e-02 9.242211900182729e-02 1.131141016991498e-02 9.894008783659305e-03 6.261032388032228e-03 1.837480136311271e-02 -2.813872107788944e-03 -9.691133368744338e-03 -7.775682860850621e-03 -6.266866425456725e-05 1.018769903195926e+00 -3.436363344195283e-03 -2.345384141715342e-02 2.911811413241669e-02 1.180668616948388e-03 -3.052211857494928e-02 1.765377913220822e-02 -1.847276913421834e-03 2.422141141207678e-02 1.441662362102023e-02 9.546555372264537e-03 2.006165498379901e-02 -5.119539643722530e-03 -5.227742229732725e-03 9.453461006745488e-03 -6.960340320209567e-04 -2.480910824405601e-02 -3.436363344195279e-03 9.005603103110046e-01 2.691726487114377e-02 4.826522027367644e-02 4.166188792469760e-02 4.554383953827946e-02 2.645792707568742e-02 4.599132894328382e-03 3.789385114251944e-02 -1.399075301413759e-02 1.114542585263573e-02 -1.779093629756901e-02 1.709046960900889e-02 -1.023389995344087e-02 -6.193589895280428e-03 -3.019711596256818e-03 -1.961414954232897e-02 -2.345384141715342e-02 2.691726487114383e-02 8.088634996425832e-01 3.768210452683873e-02 2.595521177706930e-02 5.101710729737345e-02 2.576161577829460e-02 -1.095026240172518e-02 1.461648613640992e-02 -4.051701584660607e-02 2.744038602725643e-02 -5.609595402798618e-03 -9.467083357246366e-03 9.456592696242348e-03 3.642231722842696e-03 -2.452305848996596e-03 -2.053010546704788e-02 2.911811413241671e-02 4.826522027367643e-02 3.768210452683873e-02 7.430185947880640e-01 1.568879873429812e-02 2.669511817402687e-02 5.843997448109042e-03 -8.964320414528749e-03 -6.059807558288140e-02 -1.252357269900885e-02 2.268057396215646e-02 -4.340042942525825e-03 -3.287312207513520e-03 -1.129094945373717e-02 1.011313614888111e-02 -4.627038059958960e-03 -2.571658359501239e-02 1.180668616948375e-03 4.166188792469756e-02 2.595521177706934e-02 1.568879873429814e-02 8.228642630667053e-01 2.139722990052536e-02 -2.480640987907733e-02 -1.385231604000916e-02 -9.760011888837623e-02 -9.652295776660418e-03 2.223540671596902e-04 -1.291549608736538e-02 -1.495518051864665e-02 -3.185859446423867e-03 -3.443938447606290e-03 -5.699254381861307e-03 -1.667779372912468e-02 -3.052211857494926e-02 4.554383953827944e-02 5.101710729737349e-02 2.669511817402689e-02 2.139722990052539e-02 1.066729829268348e+00 -2.396793557477922e-02 4.660422381349728e-03 1.180562968648116e-02 3.284473815217444e-02 3.203865515066054e-03 -1.013039523421703e-02 -9.183312269256137e-03 -6.130661104140669e-03 -8.739602790622466e-04 7.370449039365979e-04 2.760157604249677e-02 1.765377913220822e-02 2.645792707568742e-02 2.576161577829459e-02 5.843997448109043e-03 -2.480640987907734e-02 -2.396793557477921e-02 1.014791639484533e-01 
      </Matrix>
      <Matrix Rows="17" Columns="17">
        5.553442723691508e-01 1.299819336644340e-02 1.514852234898595e-02 -6.588375665753697e-04 6.096443345390524e-03 -4.507249137563297e-03 1.021279281925869e-03 -9.289916380550377e-04 2.244797366714082e-05 -4.288394961132182e-03 7.189258631834334e-03 -4.016523819670361e-03 4.902439901221318e-03 -6.287101758123587e-03 -7.529514587248104e-03 -1.147366715988190e-02 3.344835162929735e-03 1.299819336644340e-02 5.198364813093241e+00 1.824940154358339e-01 -6.475999057010032e-02 -2.851521264717851e-03 2.671927737454522e-03 1.546576667364961e-02 -2.004321192550738e-02 -4.495698652975737e-03 -3.125430462661248e-02 1.854778098557505e-01 -4.319019971356298e-03 -2.971068715539367e-02 -6.357688727045517e-02 -1.315615751593450e-01 -2.333971803228780e-01 1.624716155334371e-02 1.514852234898595e-02 1.824940154358338e-01 1.595156495120626e+00 -8.136623230308310e-02 -7.506710826631492e-04 -4.745620869574086e-03 5.014455058957172e-03 3.460432276749387e-05 -1.022316677982409e-02 -3.790012580229131e-02 7.813701219705566e-02 -6.522695401746464e-03 -3.635857469517903e-02 -6.574372921241275e-02 -2.862326215530877e-02 -4.416774708901417e-02 3.880568661854213e-02 -6.588375665753741e-04 -6.475999057010033e-02 -8.136623230308306e-02 9.677897917872019e-01 -4.069402000920681e-03 -4.220560936804910e-03 -1.011579377429468e-02 -1.692060987547529e-02 -1.399570726503435e-02 -1.603661752958500e-01 3.944360065092904e-02 -6.748983729803867e-02 -6.845262215972123e-02 -5.678459500080651e-02 -6.099156953455633e-02 -7.607056548164014e-02 -1.571033185595013e-03 6.096443345390526e-03 -2.851521264717854e-03 -7.506710826631520e-04 -4.069402000920686e-03 4.143431086978396e+00 -6.622984148808657e-03 6.729005243407395e-03 1.223995416153156e-02 2.092915324458502e-03 1.061302197037027e-02 2.570757866656301e-02 1.190329056778575e-02 -3.358645009179270e-02 -1.843848723878567e-02 -1.010127706738469e-02 -1.138640657856010e-02 -1.520290046606578e-02 -4.507249137563297e-03 2.671927737454529e-03 -4.745620869574085e-03 -4.220560936804915e-03 -6.622984148808773e-03 4.107024599056702e+00 6.855464549674710e-03 4.213330742430486e-03 -8.557624761389621e-03 2.816421892542206e-02 3.874753224888976e-02 -1.602489307006599e-02 8.285381192191908e-03 -2.501335802331669e-02 -9.726587733565866e-03 -1.423474669665344e-02 -1.745594290836515e-02 1.021279281925869e-03 1.546576667364961e-02 5.014455058957175e-03 -1.011579377429468e-02 6.729005243407396e-03 6.855464549674710e-03 3.856496702587078e+00 -1.947659347620868e-02 9.935252562116031e-03 7.118058060924451e-02 8.080210746682344e-03 -2.254171129103827e-02 -2.321143654107150e-02 5.361912833973920e-03 -1.717107841893008e-02 -7.717288236922568e-03 -1.687350091182465e-02 -9.289916380550379e-04 -2.004321192550738e-02 3.460432276748953e-05 -1.692060987547529e-02 1.223995416153156e-02 4.213330742430487e-03 -1.947659347620873e-02 3.633828870085226e+00 -1.647669247483742e-03 9.636800005045894e-02 -3.716230799020841e-02 -2.082892390617670e-02 -3.502596309627031e-02 -1.847458674465199e-02 -8.899866337099015e-03 -2.209197740840720e-02 -7.692959398971533e-03 2.244797366714057e-05 -4.495698652975741e-03 -1.022316677982409e-02 -1.399570726503435e-02 2.092915324458506e-03 -8.557624761389621e-03 9.935252562116009e-03 -1.647669247483718e-03 3.454195662600253e+00 8.465464755327366e-02 4.863304683640058e-03 -1.633690135656438e-02 -2.172248600446337e-02 -1.958220944051516e-02 -2.384377512804178e-02 -3.589352255408074e-02 -9.295420911799464e-05 -4.288394961132178e-03 -3.125430462661247e-02 -3.790012580229132e-02 -1.603661752958501e-01 1.061302197037027e-02 2.816421892542207e-02 7.118058060924452e-02 9.636800005045894e-02 8.465464755327363e-02 2.440242832182537e+00 5.726019903500075e-02 -1.561378319442338e-01 -1.682979137594458e-01 -1.734658989479787e-01 -1.635358781806196e-01 -1.500476369843358e-01 2.062081731442673e-02 7.189258631834341e-03 1.854778098557505e-01 7.813701219705567e-02 3.944360065092906e-02 2.570757866656301e-02 3.874753224888977e-02 8.080210746682342e-03 -3.716230799020842e-02 4.863304683640056e-03 5.726019903500072e-02 9.931486774095454e-01 2.471767174258138e-02 2.657243400863843e-02 7.279832783163193e-02 6.741268762648980e-02 2.079176674349272e-02 1.202953194810905e-02 -4.016523819670358e-03 -4.319019971356301e-03 -6.522695401746463e-03 -6.748983729803863e-02 1.190329056778576e-02 -1.602489307006599e-02 -2.254171129103826e-02 -2.082892390617670e-02 -1.633690135656437e-02 -1.561378319442338e-01 2.471767174258139e-02 1.256048434728541e+00 -7.705534618583096e-02 -2.992402959583765e-02 -2.129058687921145e-02 -1.404072346272721e-02 1.894568403975251e-02 4.902439901221317e-03 -2.971068715539368e-02 -3.635857469517905e-02 -6.845262215972123e-02 -3.358645009179270e-02 8.285381192191906e-03 -2.321143654107150e-02 -3.502596309627032e-02 -2.172248600446338e-02 -1.682979137594458e-01 2.657243400863844e-02 -7.705534618583079e-02 1.184862680288723e+00 -7.013256742896797e-02 -4.658445644960734e-02 -1.042198794137278e-02 1.483379363157521e-02 -6.287101758123590e-03 -6.357688727045520e-02 -6.574372921241277e-02 -5.678459500080658e-02 -1.843848723878567e-02 -2.501335802331669e-02 5.361912833973921e-03 -1.847458674465199e-02 -1.958220944051514e-02 -1.734658989479787e-01 7.279832783163195e-02 -2.992402959583764e-02 -7.013256742896801e-02 1.122895678052873e+00 -9.784904312682893e-02 -6.063372478551889e-02 4.860457524652345e-03 -7.529514587248107e-03 -1.315615751593451e-01 -2.862326215530877e-02 -6.099156953455635e-02 -1.010127706738469e-02 -9.726587733565864e-03 -1.717107841893008e-02 -8.899866337099016e-03 -2.384377512804178e-02 -1.635358781806195e-01 6.741268762648978e-02 -2.129058687921147e-02 -4.658445644960738e-02 -9.784904312682902e-02 1.157215057321598e+00 -1.142473134128537e-01 -8.750015715327495e-03 -1.147366715988190e-02 -2.333971803228779e-01 -4.416774708901416e-02 -7.607056548164015e-02 -1.138640657856011e-02 -1.423474669665344e-02 -7.717288236922571e-03 -2.209197740840721e-02 -3.589352255408073e-02 -1.500476369843357e-01 2.079176674349274e-02 -1.404072346272721e-02 -1.042198794137275e-02 -6.063372478551889e-02 -1.142473134128538e-01 1.452379067449977e+00 -1.411434674131804e-02 3.344835162929736e-03 1.624716155334370e-02 3.880568661854213e-02 -1.571033185595014e-03 -1.520290046606578e-02 -1.745594290836514e-02 -1.687350091182465e-02 -7.692959398971532e-03 -9.295420911799507e-05 2.062081731442673e-02 1.202953194810905e-02 1.894568403975251e-02 1.483379363157521e-02 4.860457524652345e-03 -8.750015715327493e-03 -1.411434674131804e-02 8.222342159934987e-02 
      </Matrix>
    </Transform>
  </Transformations>
  <MVAPdfs/>
  <Weights NTrees="400" AnalysisType="0">
    <BinaryTree type="DecisionTree" boostWeight="8.8485919968050153e-01" itree="0">
      <Node pos="s" depth="0" NCoef="0" IVar="15" Cut="3.3726193010807037e-02" cType="1" res="-9.9000000000000000e+01" rms="0.0000000000000000e+00" purity="5.0000000000000000e-01" nType="0">
        <Node pos="l" depth="1" NCoef="0" IVar="15" Cut="-7.1038287878036499e-01" cType="0" res="-9.9000000000000000e+01" rms="0.0000000000000000e+00" purity="6.4885097742080688e-01" nType="0">
          <Node pos="l" depth="2" NCoef="0" IVar="-1" Cut="6.3225722312927246e-01" cType="1" res="-9.9000000000000000e+01" rms="0.0000000000000000e+00" purity="8.5863924026489258e-01" nType="1"/>
          <Node pos="r" depth="2" NCoef="0" IVar="-1" Cut="2.5926167964935303e+00" cType="0" res="-9.9000000000000000e+01" rms="0.0000000000000000e+00" purity="1.8233096599578857e-01" nType="-1"/>
        </Node>
        <Node pos="r" depth="1" NCoef="0" IVar="13" Cut="4.2078346014022827e-01" cType="1" res="-9.9000000000000000e+01" rms="0.0000000000000000e+00" purity="2.1018145978450775e-01" nType="0">
          <Node pos="l" depth="2" NCoef="0" IVar="13" Cut="-1.1000225692987442e-01" cType="0" res="-9.9000000000000000e+01" rms="0.0000000000000000e+00" purity="3.6527630686759949e-01" nType="0">
            <Node pos="l" depth="3" NCoef="0" IVar="-1" Cut="0.0000000000000000e+00" cType="1" res="-9.9000000000000000e+01" rms="0.0000000000000000e+00" purity="7.2209924459457397e-01" nType="1"/>
            <Node pos="r" depth="3" NCoef="0" IVar="-1" Cut="0.0000000000000000e+00" cType="1" res="-9.9000000000000000e+01" rms="0.0000000000000000e+00" purity="1.2313020229339600e-01" nType="-1"/>
          </Node>
          <Node pos="r" depth="2" NCoef="0" IVar="-1" Cut="2.7621583938598633e+00" cType="1" res="-9.9000000000000000e+01" rms="0.0000000000000000e+00" purity="8.2342669367790222e-02" nType="-1"/>
        </Node>
      </Node>
    </BinaryTree>
    <BinaryTree type="DecisionTree" boostWeight="6.8572725744410690e-01" itree="1">
      <Node pos="s" depth="0" NCoef="0" IVar="12" Cut="8.3738297224044800e-01" cType="1" res="-9.9000000000000000e+01" rms="0.0000000000000000e+00" purity="4.8955857753753662e-01" nType="0">
        <Node pos="l" depth="1" NCoef="0" IVar="13" Cut="5.9246236085891724e-01" cType="1" res="-9.9000000000000000e+01" rms="0.0000000000000000e+00" purity="6.1520051956176758e-01" nType="0">
          <Node pos="l" depth="2" NCoef="0" IVar="13" Cut="-3.6987610161304474e-02" cType="0" res="-9.9000000000000000e+01" rms="0.0000000000000000e+00" purity="7.8779959678649902e-01" nType="0">
            <Node pos="l" depth="3" NCoef="0" IVar="-1" Cut="1.2976559996604919e-01" cType="1" res="-9.9000000000000000e+01" rms="0.0000000000000000e+00" purity="9.1208016872406006e-01" nType="1"/>
            <Node pos="r" depth="3" NCoef="0" IVar="-1" Cut="0.0000000000000000e+00" cType="1" res="-9.9000000000000000e+01" rms="0.0000000000000000e+00" purity="3.9336851239204407e-01" nType="-1"/>
          </Node>
          <Node pos="r" depth="2" NCoef="0" IVar="12" Cut="-2.1439872682094574e-01" cType="0" res="-9.9000000000000000e+01" rms="0.0000000000000000e+00" purity="2.6529267430305481e-01" nType="0">
            <Node pos="l" depth="3" NCoef="0" IVar="3" Cut="1.1884845495223999e+00" cType="1" res="-9.9000000000000000e+01" rms="0.0000000000000000e+00" purity="3.7946996092796326e-01" nType="0">
              <Node pos="l" depth="4" NCoef="0" IVar="-1" Cut="0.0000000000000000e+00" cType="1" res="-9.9000000000000000e+01" rms="0.0000000000000000e+00" purity="5.0820547342300415e-01" nType="1"/>
              <Node pos="r" depth="4" NCoef="0" IVar="-1" Cut="0.0000000000000000e+00" cType="1" res="-9.9000000000000000e+01" rms="0.0000000000000000e+00" purity="2.6643916964530945e-01" nType="-1"/>
            </Node>
            <Node pos="r" depth="3" NCoef="0" IVar="-1" Cut="0.0000000000000000e+00" cType="1" res="-9.9000000000000000e+01" rms="0.0000000000000000e+00" purity="7.4724487960338593e-02" nType="-1"/>
          </Node>
        </Node>
        <Node pos="r" depth="1" NCoef="0" IVar="-1" Cut="1.7312445640563965e+00" cType="1" res="-9.9000000000000000e+01" rms="0.0000000000000000e+00" purity="2.2048062086105347e-01" nType="-1"/>
      </Node>
    </BinaryTree>
    <BinaryTree type="DecisionTree" boostWeight="6.2595220757237158e-01" itree="2">
      <Node pos="s" depth="0" NCoef="0" IVar="9" Cut="3.6181116104125977e+00" cType="1" res="-9.9000000000000000e+01" rms="0.0000000000000000e+00" purity="5.2275168895721436e-01" nType="0">
        <Node pos="l" depth="1" NCoef="0" IVar="13" Cut="5.1902133226394653e-01" cType="1" res="-9.9000000000000000e+01" rms="0.0000000000000000e+00" purity="5.9705299139022827e-01" nType="0">
          <Node pos="l" depth="2" NCoef="0" IVar="13" Cut="-1.9242370128631592e-01" cType="0" res="-9.9000000000000000e+01" rms="0.0000000000000000e+00" purity="7.5707083940505981e-01" nType="0">
            <Node pos="l" depth="3" NCoef="0" IVar="-1" Cut="1.5345798432826996e-01" cType="1" res="-9.9000000000000000e+01" rms="0.0000000000000000e+00" purity="8.5785943269729614e-01" nType="1"/>
            <Node pos="r" depth="3" NCoef="0" IVar="-1" Cut="0.0000000000000000e+00" cType="1" res="-9.9000000000000000e+01" rms="0.0000000000000000e+00" purity="3.2773870229721069e-01" nType="-1"/>
          </Node>
          <Node pos="r" depth="2" NCoef="0" IVar="10" Cut="5.0549983978271484e+00" cType="0" res="-9.9000000000000000e+01" rms="0.0000000000000000e+00" purity="3.3728757500648499e-01" nType="0">
            <Node pos="l" depth="3" NCoef="0" IVar="-1" Cut="0.0000000000000000e+00" cType="1" res="-9.9000000000000000e+01" rms="0.0000000000000000e+00" purity="5.9318321943283081e-01" nType="1"/>
            <Node pos="r" depth="3" NCoef="0" IVar="-1" Cut="9.8868459463119507e-01" cType="1" res="-9.9000000000000000e+01" rms="0.0000000000000000e+00" purity="2.4916337430477142e-01" nType="-1"/>
          </Node>
        </Node>
        <Node pos="r" depth="1" NCoef="0" IVar="-1" Cut="3.6223724484443665e-01" cType="1" res="-9.9000000000000000e+01" rms="0.0000000000000000e+00" purity="2.3102416098117828e-01" nType="-1"/>
      </Node>
    </BinaryTree>
    <BinaryTree type="DecisionTree" boostWeight="4.5097883540008604e-01" itree="3">
      <Node pos="s" depth="0" NCoef="0" IVar="14" Cut="1.2182755470275879e+00" cType="1" res="-9.9000000000000000e+01" rms="0.0000000000000000e+00" purity="5.3564822673797607e-01" nType="0">
        <Node pos="l" depth="1" NCoef="0" IVar="13" Cut="5.8889806270599365e-01" cType="1" res="-9.9000000000000000e+01" rms="0.0000000000000000e+00" purity="6.0393536090850830e-01" nType="0">
          <Node pos="l" depth="2" NCoef="0" IVar="15" Cut="1.7268119752407074e-01" cType="1" res="-9.9000000000000000e+01" rms="0.0000000000000000e+00" purity="7.2293984889984131e-01" nType="0">
            <Node pos="l" depth="3" NCoef="0" IVar="-1" Cut="-7.8367786481976509e-03" cType="0" res="-9.9000000000000000e+01" rms="0.0000000000000000e+00" purity="8.2102954387664795e-01" nType="1"/>
            <Node pos="r" depth="3" NCoef="0" IVar="3" Cut="1.3513667583465576e+00" cType="1" res="-9.9000000000000000e+01" rms="0.0000000000000000e+00" purity="4.6385928988456726e-01" nType="0">
              <Node pos="l" depth="4" NCoef="0" IVar="-1" Cut="0.0000000000000000e+00" cType="1" res="-9.9000000000000000e+01" rms="0.0000000000000000e+00" purity="5.8867186307907104e-01" nType="1"/>
              <Node pos="r" depth="4" NCoef="0" IVar="-1" Cut="0.0000000000000000e+00" cType="1" res="-9.9000000000000000e+01" rms="0.0000000000000000e+00" purity="3.7689262628555298e-01" nType="-1"/>
            </Node>
          </Node>
          <Node pos="r" depth="2" NCoef="0" IVar="13" Cut="1.6121232509613037e+00" cType="1" res="-9.9000000000000000e+01" rms="0.0000000000000000e+00" purity="4.0516632795333862e-01" nType="0">
            <Node pos="l" depth="3" NCoef="0" IVar="-1" Cut="0.0000000000000000e+00" cType="1" res="-9.9000000000000000e+01" rms="0.0000000000000000e+00" purity="5.3894233703613281e-01" nType="1"/>
            <Node pos="r" depth="3" NCoef="0" IVar="-1" Cut="0.0000000000000000e+00" cType="1" res="-9.9000000000000000e+01" rms="0.0000000000000000e+00" purity="2.6629084348678589e-01" nType="-1"/>
          </Node>
        </Node>
        <Node pos="r" depth="1" NCoef="0" IVar="-1" Cut="2.8037998080253601e-01" cType="1" res="-9.9000000000000000e+01" rms="0.0000000000000000e+00" purity="3.0035147070884705e-01" nType="-1"/>
      </Node>
    </BinaryTree>
    <BinaryTree type="DecisionTree" boostWeight="4.3715050091802554e-01" itree="4">
      <Node pos="s" depth="0" NCoef="0" IVar="11" Cut="1.2988440990447998e+00" cType="1" res="-9.9000000000000000e+01" rms="0.0000000000000000e+00" purity="5.2607816457748413e-01" nType="0">
        <Node pos="l" depth="1" NCoef="0" IVar="11" Cut="-1.0929911583662033e-01" cType="0" res="-9.9000000000000000e+01" rms="0.0000000000000000e+00" purity="6.0323208570480347e-01" nType="0">
          <Node pos="l" depth="2" NCoef="0" IVar="11" Cut="8.2945817708969116e-01" cType="1" res="-9.9000000000000000e+01" rms="0.0000000000000000e+00" purity="6.6459685564041138e-01" nType="0">
            <Node pos="l" depth="3" NCoef="0" IVar="15" Cut="-9.4053447246551514e-02" cType="1" res="-9.9000000000000000e+01" rms="0.0000000000000000e+00" purity="7.1954971551895142e-01" nType="0">
              <Node pos="l" depth="4" NCoef="0" IVar="-1" Cut="-5.9511411190032959e-01" cType="0" res="-9.9000000000000000e+01" rms="0.0000000000000000e+00" purity="8.1058853864669800e-01" nType="1"/>
              <Node pos="r" depth="4" NCoef="0" IVar="9" Cut="2.5660471916198730e+00" cType="1" res="-9.9000000000000000e+01" rms="0.0000000000000000e+00" purity="5.7283157110214233e-01" nType="0">
                <Node pos="l" depth="5" NCoef="0" IVar="-1" Cut="0.0000000000000000e+00" cType="1" res="-9.9000000000000000e+01" rms="0.0000000000000000e+00" purity="6.4249742031097412e-01" nType="1"/>
                <Node pos="r" depth="5" NCoef="0" IVar="-1" Cut="0.0000000000000000e+00" cType="1" res="-9.9000000000000000e+01" rms="0.0000000000000000e+00" purity="4.9219408631324768e-01" nType="-1"/>
              </Node>
            </Node>
            <Node pos="r" depth="3" NCoef="0" IVar="-1" Cut="0.0000000000000000e+00" cType="1" res="-9.9000000000000000e+01" rms="0.0000000000000000e+00" purity="3.4670743346214294e-01" nType="-1"/>
          </Node>
          <Node pos="r" depth="2" NCoef="0" IVar="-1" Cut="0.0000000000000000e+00" cType="1" res="-9.9000000000000000e+01" rms="0.0000000000000000e+00" purity="2.8317847847938538e-01" nType="-1"/>
        </Node>
        <Node pos="r" depth="1" NCoef="0" IVar="-1" Cut="2.0030152797698975e+00" cType="1" res="-9.9000000000000000e+01" rms="0.0000000000000000e+00" purity="3.1428596377372742e-01" nType="-1"/>
      </Node>
    </BinaryTree>
    <BinaryTree type="DecisionTree" boostWeight="3.7381773811162622e-01" itree="5">
      <Node pos="s" depth="0" NCoef="0" IVar="12" Cut="1.3894593715667725e+00" cType="1" res="-9.9000000000000000e+01" rms="0.0000000000000000e+00" purity="5.4481863975524902e-01" nType="0">
        <Node pos="l" depth="1" NCoef="0" IVar="13" Cut="5.8020967245101929e-01" cType="1" res="-9.9000000000000000e+01" rms="0.0000000000000000e+00" purity="6.0457420349121094e-01" nType="0">
          <Node pos="l" depth="2" NCoef="0" IVar="14" Cut="1.9627285003662109e-01" cType="1" res="-9.9000000000000000e+01" rms="0.0000000000000000e+00" purity="7.0956474542617798e-01" nType="0">
            <Node pos="l" depth="3" NCoef="0" IVar="-1" Cut="-3.3170631527900696e-01" cType="0" res="-9.9000000000000000e+01" rms="0.0000000000000000e+00" purity="8.0080449581146240e-01" nType="1"/>
            <Node pos="r" depth="3" NCoef="0" IVar="16" Cut="2.6077580451965332e+00" cType="0" res="-9.9000000000000000e+01" rms="0.0000000000000000e+00" purity="5.7262063026428223e-01" nType="0">
              <Node pos="l" depth="4" NCoef="0" IVar="-1" Cut="0.0000000000000000e+00" cType="1" res="-9.9000000000000000e+01" rms="0.0000000000000000e+00" purity="6.5850269794464111e-01" nType="1"/>
              <Node pos="r" depth="4" NCoef="0" IVar="-1" Cut="0.0000000000000000e+00" cType="1" res="-9.9000000000000000e+01" rms="0.0000000000000000e+00" purity="4.5948261022567749e-01" nType="-1"/>
            </Node>
          </Node>
          <Node pos="r" depth="2" NCoef="0" IVar="14" Cut="1.2673923373222351e-01" cType="1" res="-9.9000000000000000e+01" rms="0.0000000000000000e+00" purity="4.3291801214218140e-01" nType="0">
            <Node pos="l" depth="3" NCoef="0" IVar="-1" Cut="0.0000000000000000e+00" cType="1" res="-9.9000000000000000e+01" rms="0.0000000000000000e+00" purity="5.4786550998687744e-01" nType="1"/>
            <Node pos="r" depth="3" NCoef="0" IVar="-1" Cut="0.0000000000000000e+00" cType="1" res="-9.9000000000000000e+01" rms="0.0000000000000000e+00" purity="3.2992833852767944e-01" nType="-1"/>
          </Node>
        </Node>
        <Node pos="r" depth="1" NCoef="0" IVar="-1" Cut="1.6563713550567627e+00" cType="0" res="-9.9000000000000000e+01" rms="0.0000000000000000e+00" purity="3.3090305328369141e-01" nType="-1"/>
      </Node>
    </BinaryTree>
    <BinaryTree type="DecisionTree" boostWeight="3.5380016803883230e-01" itree="6">
      <Node pos="s" depth="0" NCoef="0" IVar="2" Cut="2.1609203815460205e+00" cType="1" res="-9.9000000000000000e+01" rms="0.0000000000000000e+00" purity="5.3977608680725098e-01" nType="0">
        <Node pos="l" depth="1" NCoef="0" IVar="13" Cut="4.9144288897514343e-01" cType="1" res="-9.9000000000000000e+01" rms="0.0000000000000000e+00" purity="5.6933307647705078e-01" nType="0">
          <Node pos="l" depth="2" NCoef="0" IVar="11" Cut="1.9306577444076538e+00" cType="1" res="-9.9000000000000000e+01" rms="0.0000000000000000e+00" purity="6.5957850217819214e-01" nType="0">
            <Node pos="l" depth="3" NCoef="0" IVar="-1" Cut="3.3726193010807037e-02" cType="1" res="-9.9000000000000000e+01" rms="0.0000000000000000e+00" purity="7.0016080141067505e-01" nType="1"/>
            <Node pos="r" depth="3" NCoef="0" IVar="-1" Cut="0.0000000000000000e+00" cType="1" res="-9.9000000000000000e+01" rms="0.0000000000000000e+00" purity="4.4520917534828186e-01" nType="-1"/>
          </Node>
          <Node pos="r" depth="2" NCoef="0" IVar="16" Cut="2.6326034069061279e+00" cType="0" res="-9.9000000000000000e+01" rms="0.0000000000000000e+00" purity="4.4258800148963928e-01" nType="0">
            <Node pos="l" depth="3" NCoef="0" IVar="-1" Cut="0.0000000000000000e+00" cType="1" res="-9.9000000000000000e+01" rms="0.0000000000000000e+00" purity="6.5154367685317993e-01" nType="1"/>
            <Node pos="r" depth="3" NCoef="0" IVar="9" Cut="2.7439832687377930e+00" cType="1" res="-9.9000000000000000e+01" rms="0.0000000000000000e+00" purity="3.7970262765884399e-01" nType="0">
              <Node pos="l" depth="4" NCoef="0" IVar="13" Cut="1.5238915681838989e+00" cType="1" res="-9.9000000000000000e+01" rms="0.0000000000000000e+00" purity="4.7299936413764954e-01" nType="0">
                <Node pos="l" depth="5" NCoef="0" IVar="-1" Cut="0.0000000000000000e+00" cType="1" res="-9.9000000000000000e+01" rms="0.0000000000000000e+00" purity="5.2633708715438843e-01" nType="1"/>
                <Node pos="r" depth="5" NCoef="0" IVar="-1" Cut="0.0000000000000000e+00" cType="1" res="-9.9000000000000000e+01" rms="0.0000000000000000e+00" purity="4.2441612482070923e-01" nType="-1"/>
              </Node>
              <Node pos="r" depth="4" NCoef="0" IVar="-1" Cut="0.0000000000000000e+00" cType="1" res="-9.9000000000000000e+01" rms="0.0000000000000000e+00" purity="2.7123570442199707e-01" nType="-1"/>
            </Node>
          </Node>
        </Node>
        <Node pos="r" depth="1" NCoef="0" IVar="-1" Cut="0.0000000000000000e+00" cType="1" res="-9.9000000000000000e+01" rms="0.0000000000000000e+00" purity="2.3658578097820282e-01" nType="-1"/>
      </Node>
    </BinaryTree>
    <BinaryTree type="DecisionTree" boostWeight="2.8725078098021045e-01" itree="7">
      <Node pos="s" depth="0" NCoef="0" IVar="1" Cut="3.7714904546737671e-01" cType="1" res="-9.9000000000000000e+01" rms="0.0000000000000000e+00" purity="5.2185016870498657e-01" nType="0">
        <Node pos="l" depth="1" NCoef="0" IVar="15" Cut="3.3726193010807037e-02" cType="1" res="-9.9000000000000000e+01" rms="0.0000000000000000e+00" purity="6.3434183597564697e-01" nType="0">
          <Node pos="l" depth="2" NCoef="0" IVar="-1" Cut="-6.0409754514694214e-01" cType="0" res="-9.9000000000000000e+01" rms="0.0000000000000000e+00" purity="7.2169274091720581e-01" nType="1"/>
          <Node pos="r" depth="2" NCoef="0" IVar="-1" Cut="0.0000000000000000e+00" cType="1" res="-9.9000000000000000e+01" rms="0.0000000000000000e+00" purity="4.7845557332038879e-01" nType="-1"/>
        </Node>
        <Node pos="r" depth="1" NCoef="0" IVar="13" Cut="3.5698518157005310e-01" cType="1" res="-9.9000000000000000e+01" rms="0.0000000000000000e+00" purity="4.5079755783081055e-01" nType="0">
          <Node pos="l" depth="2" NCoef="0" IVar="13" Cut="1.0530287772417068e-01" cType="0" res="-9.9000000000000000e+01" rms="0.0000000000000000e+00" purity="5.2823847532272339e-01" nType="0">
            <Node pos="l" depth="3" NCoef="0" IVar="-1" Cut="0.0000000000000000e+00" cType="1" res="-9.9000000000000000e+01" rms="0.0000000000000000e+00" purity="6.9971531629562378e-01" nType="1"/>
            <Node pos="r" depth="3" NCoef="0" IVar="12" Cut="3.6133340001106262e-01" cType="1" res="-9.9000000000000000e+01" rms="0.0000000000000000e+00" purity="4.7780010104179382e-01" nType="0">
              <Node pos="l" depth="4" NCoef="0" IVar="-1" Cut="0.0000000000000000e+00" cType="1" res="-9.9000000000000000e+01" rms="0.0000000000000000e+00" purity="5.3951191902160645e-01" nType="1"/>
              <Node pos="r" depth="4" NCoef="0" IVar="-1" Cut="0.0000000000000000e+00" cType="1" res="-9.9000000000000000e+01" rms="0.0000000000000000e+00" purity="3.9052808284759521e-01" nType="-1"/>
            </Node>
          </Node>
          <Node pos="r" depth="2" NCoef="0" IVar="16" Cut="1.6298605203628540e+00" cType="0" res="-9.9000000000000000e+01" rms="0.0000000000000000e+00" purity="3.6614951491355896e-01" nType="0">
            <Node pos="l" depth="3" NCoef="0" IVar="10" Cut="4.3291506767272949e+00" cType="0" res="-9.9000000000000000e+01" rms="0.0000000000000000e+00" purity="4.5585858821868896e-01" nType="0">
              <Node pos="l" depth="4" NCoef="0" IVar="-1" Cut="0.0000000000000000e+00" cType="1" res="-9.9000000000000000e+01" rms="0.0000000000000000e+00" purity="5.8627182245254517e-01" nType="1"/>
              <Node pos="r" depth="4" NCoef="0" IVar="-1" Cut="0.0000000000000000e+00" cType="1" res="-9.9000000000000000e+01" rms="0.0000000000000000e+00" purity="3.7481537461280823e-01" nType="-1"/>
            </Node>
            <Node pos="r" depth="3" NCoef="0" IVar="-1" Cut="0.0000000000000000e+00" cType="1" res="-9.9000000000000000e+01" rms="0.0000000000000000e+00" purity="2.4453401565551758e-01" nType="-1"/>
          </Node>
        </Node>
      </Node>
    </BinaryTree>
    <BinaryTree type="DecisionTree" boostWeight="2.6974837310662853e-01" itree="8">
      <Node pos="s" depth="0" NCoef="0" IVar="9" Cut="4.1290283203125000e+00" cType="1" res="-9.9000000000000000e+01" rms="0.0000000000000000e+00" purity="5.1825565099716187e-01" nType="0">
        <Node pos="l" depth="1" NCoef="0" IVar="3" Cut="8.0965894460678101e-01" cType="1" res="-9.9000000000000000e+01" rms="0.0000000000000000e+00" purity="5.4936683177947998e-01" nType="0">
          <Node pos="l" depth="2" NCoef="0" IVar="-1" Cut="5.0728040933609009e-01" cType="1" res="-9.9000000000000000e+01" rms="0.0000000000000000e+00" purity="6.9374185800552368e-01" nType="1"/>
          <Node pos="r" depth="2" NCoef="0" IVar="1" Cut="5.0020106136798859e-02" cType="1" res="-9.9000000000000000e+01" rms="0.0000000000000000e+00" purity="4.8838943243026733e-01" nType="0">
            <Node pos="l" depth="3" NCoef="0" IVar="-1" Cut="5.0225338935852051e+00" cType="0" res="-9.9000000000000000e+01" rms="0.0000000000000000e+00" purity="6.1863082647323608e-01" nType="1"/>
            <Node pos="r" depth="3" NCoef="0" IVar="7" Cut="-1.3990452885627747e-01" cType="1" res="-9.9000000000000000e+01" rms="0.0000000000000000e+00" purity="4.4146195054054260e-01" nType="0">
              <Node pos="l" depth="4" NCoef="0" IVar="7" Cut="-1.4053076505661011e+00" cType="0" res="-9.9000000000000000e+01" rms="0.0000000000000000e+00" purity="4.7952213883399963e-01" nType="0">
                <Node pos="l" depth="5" NCoef="0" IVar="-1" Cut="0.0000000000000000e+00" cType="1" res="-9.9000000000000000e+01" rms="0.0000000000000000e+00" purity="5.1775169372558594e-01" nType="1"/>
                <Node pos="r" depth="5" NCoef="0" IVar="-1" Cut="0.0000000000000000e+00" cType="1" res="-9.9000000000000000e+01" rms="0.0000000000000000e+00" purity="3.6231017112731934e-01" nType="-1"/>
              </Node>
              <Node pos="r" depth="4" NCoef="0" IVar="-1" Cut="0.0000000000000000e+00" cType="1" res="-9.9000000000000000e+01" rms="0.0000000000000000e+00" purity="3.1010895967483521e-01" nType="-1"/>
            </Node>
          </Node>
        </Node>
        <Node pos="r" depth="1" NCoef="0" IVar="-1" Cut="0.0000000000000000e+00" cType="1" res="-9.9000000000000000e+01" rms="0.0000000000000000e+00" purity="2.8523156046867371e-01" nType="-1"/>
      </Node>
    </BinaryTree>
    <BinaryTree type="DecisionTree" boostWeight="2.4816633546681102e-01" itree="9">
      <Node pos="s" depth="0" NCoef="0" IVar="3" Cut="1.4076026678085327e+00" cType="1" res="-9.9000000000000000e+01" rms="0.0000000000000000e+00" purity="4.9212607741355896e-01" nType="0">
        <Node pos="l" depth="1" NCoef="0" IVar="9" Cut="3.1071946620941162e+00" cType="1" res="-9.9000000000000000e+01" rms="0.0000000000000000e+00" purity="5.6470048427581787e-01" nType="0">
          <Node pos="l" depth="2" NCoef="0" IVar="15" Cut="5.4650932550430298e-02" cType="1" res="-9.9000000000000000e+01" rms="0.0000000000000000e+00" purity="6.3112783432006836e-01" nType="0">
            <Node pos="l" depth="3" NCoef="0" IVar="-1" Cut="-5.3961509466171265e-01" cType="0" res="-9.9000000000000000e+01" rms="0.0000000000000000e+00" purity="7.1470063924789429e-01" nType="1"/>
            <Node pos="r" depth="3" NCoef="0" IVar="-1" Cut="0.0000000000000000e+00" cType="1" res="-9.9000000000000000e+01" rms="0.0000000000000000e+00" purity="4.8857697844505310e-01" nType="-1"/>
          </Node>
          <Node pos="r" depth="2" NCoef="0" IVar="1" Cut="1.6056302189826965e-01" cType="1" res="-9.9000000000000000e+01" rms="0.0000000000000000e+00" purity="4.3463054299354553e-01" nType="0">
            <Node pos="l" depth="3" NCoef="0" IVar="-1" Cut="0.0000000000000000e+00" cType="1" res="-9.9000000000000000e+01" rms="0.0000000000000000e+00" purity="5.9287154674530029e-01" nType="1"/>
            <Node pos="r" depth="3" NCoef="0" IVar="-1" Cut="0.0000000000000000e+00" cType="1" res="-9.9000000000000000e+01" rms="0.0000000000000000e+00" purity="3.6690765619277954e-01" nType="-1"/>
          </Node>
        </Node>
        <Node pos="r" depth="1" NCoef="0" IVar="6" Cut="3.5249166190624237e-02" cType="1" res="-9.9000000000000000e+01" rms="0.0000000000000000e+00" purity="4.1990146040916443e-01" nType="0">
          <Node pos="l" depth="2" NCoef="0" IVar="6" Cut="-1.5354781150817871e+00" cType="0" res="-9.9000000000000000e+01" rms="0.0000000000000000e+00" purity="4.5332491397857666e-01" nType="0">
            <Node pos="l" depth="3" NCoef="0" IVar="1" Cut="2.4063247255980968e-03" cType="1" res="-9.9000000000000000e+01" rms="0.0000000000000000e+00" purity="4.9552220106124878e-01" nType="0">
              <Node pos="l" depth="4" NCoef="0" IVar="-1" Cut="0.0000000000000000e+00" cType="1" res="-9.9000000000000000e+01" rms="0.0000000000000000e+00" purity="5.8632558584213257e-01" nType="1"/>
              <Node pos="r" depth="4" NCoef="0" IVar="11" Cut="5.6456816196441650e-01" cType="1" res="-9.9000000000000000e+01" rms="0.0000000000000000e+00" purity="4.6472314000129700e-01" nType="0">
                <Node pos="l" depth="5" NCoef="0" IVar="-1" Cut="0.0000000000000000e+00" cType="1" res="-9.9000000000000000e+01" rms="0.0000000000000000e+00" purity="5.0553071498870850e-01" nType="1"/>
                <Node pos="r" depth="5" NCoef="0" IVar="-1" Cut="0.0000000000000000e+00" cType="1" res="-9.9000000000000000e+01" rms="0.0000000000000000e+00" purity="4.0534913539886475e-01" nType="-1"/>
              </Node>
            </Node>
            <Node pos="r" depth="3" NCoef="0" IVar="-1" Cut="0.0000000000000000e+00" cType="1" res="-9.9000000000000000e+01" rms="0.0000000000000000e+00" purity="3.0421417951583862e-01" nType="-1"/>
          </Node>
          <Node pos="r" depth="2" NCoef="0" IVar="-1" Cut="0.0000000000000000e+00" cType="1" res="-9.9000000000000000e+01" rms="0.0000000000000000e+00" purity="2.9602244496345520e-01" nType="-1"/>
        </Node>
      </Node>
    </BinaryTree>
    <BinaryTree type="DecisionTree" boostWeight="2.3588549577033666e-01" itree="10">
      <Node pos="s" depth="0" NCoef="0" IVar="3" Cut="1.4076026678085327e+00" cType="1" res="-9.9000000000000000e+01" rms="0.0000000000000000e+00" purity="4.9535015225410461e-01" nType="0">
        <Node pos="l" depth="1" NCoef="0" IVar="10" Cut="4.9620857238769531e+00" cType="0" res="-9.9000000000000000e+01" rms="0.0000000000000000e+00" purity="5.6452631950378418e-01" nType="0">
          <Node pos="l" depth="2" NCoef="0" IVar="-1" Cut="5.3746209144592285e+00" cType="1" res="-9.9000000000000000e+01" rms="0.0000000000000000e+00" purity="6.9487547874450684e-01" nType="1"/>
          <Node pos="r" depth="2" NCoef="0" IVar="11" Cut="7.1731400489807129e-01" cType="1" res="-9.9000000000000000e+01" rms="0.0000000000000000e+00" purity="5.0885570049285889e-01" nType="0">
            <Node pos="l" depth="3" NCoef="0" IVar="11" Cut="1.5229691565036774e-01" cType="0" res="-9.9000000000000000e+01" rms="0.0000000000000000e+00" purity="5.8493638038635254e-01" nType="0">
              <Node pos="l" depth="4" NCoef="0" IVar="-1" Cut="6.4758592844009399e-01" cType="1" res="-9.9000000000000000e+01" rms="0.0000000000000000e+00" purity="6.6273617744445801e-01" nType="1"/>
              <Node pos="r" depth="4" NCoef="0" IVar="-1" Cut="0.0000000000000000e+00" cType="1" res="-9.9000000000000000e+01" rms="0.0000000000000000e+00" purity="4.6497943997383118e-01" nType="-1"/>
            </Node>
            <Node pos="r" depth="3" NCoef="0" IVar="-1" Cut="0.0000000000000000e+00" cType="1" res="-9.9000000000000000e+01" rms="0.0000000000000000e+00" purity="3.9397326111793518e-01" nType="-1"/>
          </Node>
        </Node>
        <Node pos="r" depth="1" NCoef="0" IVar="12" Cut="1.4501161575317383e+00" cType="1" res="-9.9000000000000000e+01" rms="0.0000000000000000e+00" purity="4.2691546678543091e-01" nType="0">
          <Node pos="l" depth="2" NCoef="0" IVar="10" Cut="3.5886647701263428e+00" cType="0" res="-9.9000000000000000e+01" rms="0.0000000000000000e+00" purity="4.5461815595626831e-01" nType="0">
            <Node pos="l" depth="3" NCoef="0" IVar="8" Cut="-1.2343951314687729e-01" cType="1" res="-9.9000000000000000e+01" rms="0.0000000000000000e+00" purity="4.9099478125572205e-01" nType="0">
              <Node pos="l" depth="4" NCoef="0" IVar="1" Cut="2.3172304034233093e-01" cType="1" res="-9.9000000000000000e+01" rms="0.0000000000000000e+00" purity="5.2307927608489990e-01" nType="0">
                <Node pos="l" depth="5" NCoef="0" IVar="-1" Cut="0.0000000000000000e+00" cType="1" res="-9.9000000000000000e+01" rms="0.0000000000000000e+00" purity="6.0113030672073364e-01" nType="1"/>
                <Node pos="r" depth="5" NCoef="0" IVar="-1" Cut="0.0000000000000000e+00" cType="1" res="-9.9000000000000000e+01" rms="0.0000000000000000e+00" purity="4.8673287034034729e-01" nType="-1"/>
              </Node>
              <Node pos="r" depth="4" NCoef="0" IVar="-1" Cut="0.0000000000000000e+00" cType="1" res="-9.9000000000000000e+01" rms="0.0000000000000000e+00" purity="4.1676473617553711e-01" nType="-1"/>
            </Node>
            <Node pos="r" depth="3" NCoef="0" IVar="-1" Cut="0.0000000000000000e+00" cType="1" res="-9.9000000000000000e+01" rms="0.0000000000000000e+00" purity="3.8415905833244324e-01" nType="-1"/>
          </Node>
          <Node pos="r" depth="2" NCoef="0" IVar="-1" Cut="0.0000000000000000e+00" cType="1" res="-9.9000000000000000e+01" rms="0.0000000000000000e+00" purity="3.2245618104934692e-01" nType="-1"/>
        </Node>
      </Node>
    </BinaryTree>
    <BinaryTree type="DecisionTree" boostWeight="2.3235872900756557e-01" itree="11">
      <Node pos="s" depth="0" NCoef="0" IVar="8" Cut="-1.3972792029380798e-01" cType="1" res="-9.9000000000000000e+01" rms="0.0000000000000000e+00" purity="5.1523792743682861e-01" nType="0">
        <Node pos="l" depth="1" NCoef="0" IVar="8" Cut="-1.2478227615356445e+00" cType="0" res="-9.9000000000000000e+01" rms="0.0000000000000000e+00" purity="5.5410623550415039e-01" nType="0">
          <Node pos="l" depth="2" NCoef="0" IVar="7" Cut="2.5242808461189270e-01" cType="1" res="-9.9000000000000000e+01" rms="0.0000000000000000e+00" purity="6.0808831453323364e-01" nType="0">
            <Node pos="l" depth="3" NCoef="0" IVar="-1" Cut="1.1061456203460693e+00" cType="1" res="-9.9000000000000000e+01" rms="0.0000000000000000e+00" purity="6.4000749588012695e-01" nType="1"/>
            <Node pos="r" depth="3" NCoef="0" IVar="-1" Cut="0.0000000000000000e+00" cType="1" res="-9.9000000000000000e+01" rms="0.0000000000000000e+00" purity="4.2710095643997192e-01" nType="-1"/>
          </Node>
          <Node pos="r" depth="2" NCoef="0" IVar="-1" Cut="2.4767892435193062e-02" cType="0" res="-9.9000000000000000e+01" rms="0.0000000000000000e+00" purity="4.0703344345092773e-01" nType="-1"/>
        </Node>
        <Node pos="r" depth="1" NCoef="0" IVar="15" Cut="-4.9562153220176697e-01" cType="0" res="-9.9000000000000000e+01" rms="0.0000000000000000e+00" purity="4.1745892167091370e-01" nType="0">
          <Node pos="l" depth="2" NCoef="0" IVar="1" Cut="5.7465893030166626e-01" cType="1" res="-9.9000000000000000e+01" rms="0.0000000000000000e+00" purity="4.6960178017616272e-01" nType="0">
            <Node pos="l" depth="3" NCoef="0" IVar="-1" Cut="0.0000000000000000e+00" cType="1" res="-9.9000000000000000e+01" rms="0.0000000000000000e+00" purity="5.2822458744049072e-01" nType="1"/>
            <Node pos="r" depth="3" NCoef="0" IVar="-1" Cut="0.0000000000000000e+00" cType="1" res="-9.9000000000000000e+01" rms="0.0000000000000000e+00" purity="4.2093509435653687e-01" nType="-1"/>
          </Node>
          <Node pos="r" depth="2" NCoef="0" IVar="-1" Cut="0.0000000000000000e+00" cType="1" res="-9.9000000000000000e+01" rms="0.0000000000000000e+00" purity="3.1819432973861694e-01" nType="-1"/>
        </Node>
      </Node>
    </BinaryTree>
    <BinaryTree type="DecisionTree" boostWeight="1.9858262563006002e-01" itree="12">
      <Node pos="s" depth="0" NCoef="0" IVar="2" Cut="2.1609203815460205e+00" cType="1" res="-9.9000000000000000e+01" rms="0.0000000000000000e+00" purity="5.1214075088500977e-01" nType="0">
        <Node pos="l" depth="1" NCoef="0" IVar="10" Cut="3.0870988368988037e+00" cType="0" res="-9.9000000000000000e+01" rms="0.0000000000000000e+00" purity="5.3019672632217407e-01" nType="0">
          <Node pos="l" depth="2" NCoef="0" IVar="3" Cut="8.0965894460678101e-01" cType="1" res="-9.9000000000000000e+01" rms="0.0000000000000000e+00" purity="5.5317068099975586e-01" nType="0">
            <Node pos="l" depth="3" NCoef="0" IVar="-1" Cut="4.8599401116371155e-01" cType="1" res="-9.9000000000000000e+01" rms="0.0000000000000000e+00" purity="6.4497691392898560e-01" nType="1"/>
            <Node pos="r" depth="3" NCoef="0" IVar="6" Cut="-1.4494062662124634e+00" cType="0" res="-9.9000000000000000e+01" rms="0.0000000000000000e+00" purity="5.1789474487304688e-01" nType="0">
              <Node pos="l" depth="4" NCoef="0" IVar="6" Cut="-2.0287258923053741e-01" cType="1" res="-9.9000000000000000e+01" rms="0.0000000000000000e+00" purity="5.3910863399505615e-01" nType="0">
                <Node pos="l" depth="5" NCoef="0" IVar="-1" Cut="0.0000000000000000e+00" cType="1" res="-9.9000000000000000e+01" rms="0.0000000000000000e+00" purity="5.7351815700531006e-01" nType="1"/>
                <Node pos="r" depth="5" NCoef="0" IVar="-1" Cut="0.0000000000000000e+00" cType="1" res="-9.9000000000000000e+01" rms="0.0000000000000000e+00" purity="4.6249032020568848e-01" nType="-1"/>
              </Node>
              <Node pos="r" depth="4" NCoef="0" IVar="-1" Cut="0.0000000000000000e+00" cType="1" res="-9.9000000000000000e+01" rms="0.0000000000000000e+00" purity="4.1055285930633545e-01" nType="-1"/>
            </Node>
          </Node>
          <Node pos="r" depth="2" NCoef="0" IVar="-1" Cut="0.0000000000000000e+00" cType="1" res="-9.9000000000000000e+01" rms="0.0000000000000000e+00" purity="4.0086093544960022e-01" nType="-1"/>
        </Node>
        <Node pos="r" depth="1" NCoef="0" IVar="-1" Cut="0.0000000000000000e+00" cType="1" res="-9.9000000000000000e+01" rms="0.0000000000000000e+00" purity="3.1663089990615845e-01" nType="-1"/>
      </Node>
    </BinaryTree>
    <BinaryTree type="DecisionTree" boostWeight="2.0816490720240358e-01" itree="13">
      <Node pos="s" depth="0" NCoef="0" IVar="12" Cut="2.4936122894287109e+00" cType="1" res="-9.9000000000000000e+01" rms="0.0000000000000000e+00" purity="5.0840711593627930e-01" nType="0">
        <Node pos="l" depth="1" NCoef="0" IVar="11" Cut="7.9746550321578979e-01" cType="1" res="-9.9000000000000000e+01" rms="0.0000000000000000e+00" purity="5.2577507495880127e-01" nType="0">
          <Node pos="l" depth="2" NCoef="0" IVar="3" Cut="1.8789980411529541e+00" cType="1" res="-9.9000000000000000e+01" rms="0.0000000000000000e+00" purity="5.6810384988784790e-01" nType="0">
            <Node pos="l" depth="3" NCoef="0" IVar="-1" Cut="5.6488788127899170e-01" cType="1" res="-9.9000000000000000e+01" rms="0.0000000000000000e+00" purity="6.1895054578781128e-01" nType="1"/>
            <Node pos="r" depth="3" NCoef="0" IVar="12" Cut="1.1944905668497086e-01" cType="1" res="-9.9000000000000000e+01" rms="0.0000000000000000e+00" purity="4.8403972387313843e-01" nType="0">
              <Node pos="l" depth="4" NCoef="0" IVar="-1" Cut="0.0000000000000000e+00" cType="1" res="-9.9000000000000000e+01" rms="0.0000000000000000e+00" purity="5.6658262014389038e-01" nType="1"/>
              <Node pos="r" depth="4" NCoef="0" IVar="-1" Cut="0.0000000000000000e+00" cType="1" res="-9.9000000000000000e+01" rms="0.0000000000000000e+00" purity="4.1685143113136292e-01" nType="-1"/>
            </Node>
          </Node>
          <Node pos="r" depth="2" NCoef="0" IVar="13" Cut="5.1902133226394653e-01" cType="1" res="-9.9000000000000000e+01" rms="0.0000000000000000e+00" purity="4.5516490936279297e-01" nType="0">
            <Node pos="l" depth="3" NCoef="0" IVar="10" Cut="4.8149013519287109e+00" cType="0" res="-9.9000000000000000e+01" rms="0.0000000000000000e+00" purity="5.2161043882369995e-01" nType="0">
              <Node pos="l" depth="4" NCoef="0" IVar="-1" Cut="0.0000000000000000e+00" cType="1" res="-9.9000000000000000e+01" rms="0.0000000000000000e+00" purity="6.2071138620376587e-01" nType="1"/>
              <Node pos="r" depth="4" NCoef="0" IVar="-1" Cut="0.0000000000000000e+00" cType="1" res="-9.9000000000000000e+01" rms="0.0000000000000000e+00" purity="4.7595411539077759e-01" nType="-1"/>
            </Node>
            <Node pos="r" depth="3" NCoef="0" IVar="-1" Cut="0.0000000000000000e+00" cType="1" res="-9.9000000000000000e+01" rms="0.0000000000000000e+00" purity="3.7387618422508240e-01" nType="-1"/>
          </Node>
        </Node>
        <Node pos="r" depth="1" NCoef="0" IVar="-1" Cut="0.0000000000000000e+00" cType="1" res="-9.9000000000000000e+01" rms="0.0000000000000000e+00" purity="3.4003263711929321e-01" nType="-1"/>
      </Node>
    </BinaryTree>
    <BinaryTree type="DecisionTree" boostWeight="1.9235851244087868e-01" itree="14">
      <Node pos="s" depth="0" NCoef="0" IVar="16" Cut="3.3574714660644531e+00" cType="0" res="-9.9000000000000000e+01" rms="0.0000000000000000e+00" purity="5.0774699449539185e-01" nType="0">
        <Node pos="l" depth="1" NCoef="0" IVar="-1" Cut="0.0000000000000000e+00" cType="1" res="-9.9000000000000000e+01" rms="0.0000000000000000e+00" purity="6.8789970874786377e-01" nType="1"/>
        <Node pos="r" depth="1" NCoef="0" IVar="2" Cut="2.1609203815460205e+00" cType="1" res="-9.9000000000000000e+01" rms="0.0000000000000000e+00" purity="4.9262261390686035e-01" nType="0">
          <Node pos="l" depth="2" NCoef="0" IVar="7" Cut="-4.0268573164939880e-01" cType="1" res="-9.9000000000000000e+01" rms="0.0000000000000000e+00" purity="5.1003170013427734e-01" nType="0">
            <Node pos="l" depth="3" NCoef="0" IVar="7" Cut="-1.5804042816162109e+00" cType="0" res="-9.9000000000000000e+01" rms="0.0000000000000000e+00" purity="5.4242384433746338e-01" nType="0">
              <Node pos="l" depth="4" NCoef="0" IVar="-1" Cut="6.8756026029586792e-01" cType="1" res="-9.9000000000000000e+01" rms="0.0000000000000000e+00" purity="5.8053308725357056e-01" nType="1"/>
              <Node pos="r" depth="4" NCoef="0" IVar="-1" Cut="0.0000000000000000e+00" cType="1" res="-9.9000000000000000e+01" rms="0.0000000000000000e+00" purity="4.3158760666847229e-01" nType="-1"/>
            </Node>
            <Node pos="r" depth="3" NCoef="0" IVar="-1" Cut="2.8530648350715637e-01" cType="1" res="-9.9000000000000000e+01" rms="0.0000000000000000e+00" purity="4.2561936378479004e-01" nType="-1"/>
          </Node>
          <Node pos="r" depth="2" NCoef="0" IVar="-1" Cut="0.0000000000000000e+00" cType="1" res="-9.9000000000000000e+01" rms="0.0000000000000000e+00" purity="2.8771629929542542e-01" nType="-1"/>
        </Node>
      </Node>
    </BinaryTree>
    <BinaryTree type="DecisionTree" boostWeight="2.2175507387021240e-01" itree="15">
      <Node pos="s" depth="0" NCoef="0" IVar="15" Cut="1.1497781276702881e+00" cType="1" res="-9.9000000000000000e+01" rms="0.0000000000000000e+00" purity="5.0449949502944946e-01" nType="0">
        <Node pos="l" depth="1" NCoef="0" IVar="15" Cut="-4.4481498003005981e-01" cType="0" res="-9.9000000000000000e+01" rms="0.0000000000000000e+00" purity="5.2687013149261475e-01" nType="0">
          <Node pos="l" depth="2" NCoef="0" IVar="15" Cut="-6.5229736268520355e-02" cType="1" res="-9.9000000000000000e+01" rms="0.0000000000000000e+00" purity="5.8455097675323486e-01" nType="0">
            <Node pos="l" depth="3" NCoef="0" IVar="-1" Cut="8.6077785491943359e-01" cType="1" res="-9.9000000000000000e+01" rms="0.0000000000000000e+00" purity="7.0145881175994873e-01" nType="1"/>
            <Node pos="r" depth="3" NCoef="0" IVar="12" Cut="1.9997310638427734e-01" cType="1" res="-9.9000000000000000e+01" rms="0.0000000000000000e+00" purity="5.3152358531951904e-01" nType="0">
              <Node pos="l" depth="4" NCoef="0" IVar="-1" Cut="0.0000000000000000e+00" cType="1" res="-9.9000000000000000e+01" rms="0.0000000000000000e+00" purity="5.9608471393585205e-01" nType="1"/>
              <Node pos="r" depth="4" NCoef="0" IVar="-1" Cut="0.0000000000000000e+00" cType="1" res="-9.9000000000000000e+01" rms="0.0000000000000000e+00" purity="4.7878158092498779e-01" nType="-1"/>
            </Node>
          </Node>
          <Node pos="r" depth="2" NCoef="0" IVar="16" Cut="2.5870201587677002e+00" cType="0" res="-9.9000000000000000e+01" rms="0.0000000000000000e+00" purity="4.7977998852729797e-01" nType="0">
            <Node pos="l" depth="3" NCoef="0" IVar="-1" Cut="6.4243018627166748e-01" cType="0" res="-9.9000000000000000e+01" rms="0.0000000000000000e+00" purity="6.2925589084625244e-01" nType="1"/>
            <Node pos="r" depth="3" NCoef="0" IVar="-1" Cut="2.8530648350715637e-01" cType="1" res="-9.9000000000000000e+01" rms="0.0000000000000000e+00" purity="3.8619291782379150e-01" nType="-1"/>
          </Node>
        </Node>
        <Node pos="r" depth="1" NCoef="0" IVar="-1" Cut="0.0000000000000000e+00" cType="1" res="-9.9000000000000000e+01" rms="0.0000000000000000e+00" purity="4.0048024058341980e-01" nType="-1"/>
      </Node>
    </BinaryTree>
    <BinaryTree type="DecisionTree" boostWeight="1.5028320437901604e-01" itree="16">
      <Node pos="s" depth="0" NCoef="0" IVar="8" Cut="-1.3972792029380798e-01" cType="1" res="-9.9000000000000000e+01" rms="0.0000000000000000e+00" purity="5.1543879508972168e-01" nType="0">
        <Node pos="l" depth="1" NCoef="0" IVar="1" Cut="5.0020106136798859e-02" cType="1" res="-9.9000000000000000e+01" rms="0.0000000000000000e+00" purity="5.4318159818649292e-01" nType="0">
          <Node pos="l" depth="2" NCoef="0" IVar="-1" Cut="2.0055465698242188e+00" cType="1" res="-9.9000000000000000e+01" rms="0.0000000000000000e+00" purity="6.3091474771499634e-01" nType="1"/>
          <Node pos="r" depth="2" NCoef="0" IVar="1" Cut="1.8726012706756592e+00" cType="0" res="-9.9000000000000000e+01" rms="0.0000000000000000e+00" purity="5.1277178525924683e-01" nType="0">
            <Node pos="l" depth="3" NCoef="0" IVar="-1" Cut="0.0000000000000000e+00" cType="1" res="-9.9000000000000000e+01" rms="0.0000000000000000e+00" purity="6.5464735031127930e-01" nType="1"/>
            <Node pos="r" depth="3" NCoef="0" IVar="6" Cut="-1.4938350915908813e+00" cType="0" res="-9.9000000000000000e+01" rms="0.0000000000000000e+00" purity="4.9564889073371887e-01" nType="0">
              <Node pos="l" depth="4" NCoef="0" IVar="3" Cut="4.8927521705627441e-01" cType="1" res="-9.9000000000000000e+01" rms="0.0000000000000000e+00" purity="5.1559019088745117e-01" nType="0">
                <Node pos="l" depth="5" NCoef="0" IVar="-1" Cut="0.0000000000000000e+00" cType="1" res="-9.9000000000000000e+01" rms="0.0000000000000000e+00" purity="6.3910812139511108e-01" nType="1"/>
                <Node pos="r" depth="5" NCoef="0" IVar="-1" Cut="0.0000000000000000e+00" cType="1" res="-9.9000000000000000e+01" rms="0.0000000000000000e+00" purity="4.9130621552467346e-01" nType="-1"/>
              </Node>
              <Node pos="r" depth="4" NCoef="0" IVar="-1" Cut="0.0000000000000000e+00" cType="1" res="-9.9000000000000000e+01" rms="0.0000000000000000e+00" purity="3.9697363972663879e-01" nType="-1"/>
            </Node>
          </Node>
        </Node>
        <Node pos="r" depth="1" NCoef="0" IVar="16" Cut="2.6459383964538574e+00" cType="0" res="-9.9000000000000000e+01" rms="0.0000000000000000e+00" purity="4.4623920321464539e-01" nType="0">
          <Node pos="l" depth="2" NCoef="0" IVar="-1" Cut="0.0000000000000000e+00" cType="1" res="-9.9000000000000000e+01" rms="0.0000000000000000e+00" purity="5.3241509199142456e-01" nType="1"/>
          <Node pos="r" depth="2" NCoef="0" IVar="-1" Cut="2.3542109876871109e-02" cType="0" res="-9.9000000000000000e+01" rms="0.0000000000000000e+00" purity="4.0225732326507568e-01" nType="-1"/>
        </Node>
      </Node>
    </BinaryTree>
    <BinaryTree type="DecisionTree" boostWeight="1.5198687569393743e-01" itree="17">
      <Node pos="s" depth="0" NCoef="0" IVar="8" Cut="-1.3972792029380798e-01" cType="1" res="-9.9000000000000000e+01" rms="0.0000000000000000e+00" purity="5.2303344011306763e-01" nType="0">
        <Node pos="l" depth="1" NCoef="0" IVar="8" Cut="-9.3122977018356323e-01" cType="0" res="-9.9000000000000000e+01" rms="0.0000000000000000e+00" purity="5.4913270473480225e-01" nType="0">
          <Node pos="l" depth="2" NCoef="0" IVar="15" Cut="3.3726193010807037e-02" cType="1" res="-9.9000000000000000e+01" rms="0.0000000000000000e+00" purity="5.8527821302413940e-01" nType="0">
            <Node pos="l" depth="3" NCoef="0" IVar="15" Cut="-3.9271077513694763e-01" cType="0" res="-9.9000000000000000e+01" rms="0.0000000000000000e+00" purity="6.1566883325576782e-01" nType="0">
              <Node pos="l" depth="4" NCoef="0" IVar="-1" Cut="0.0000000000000000e+00" cType="1" res="-9.9000000000000000e+01" rms="0.0000000000000000e+00" purity="7.7536791563034058e-01" nType="1"/>
              <Node pos="r" depth="4" NCoef="0" IVar="16" Cut="1.6112127304077148e+00" cType="0" res="-9.9000000000000000e+01" rms="0.0000000000000000e+00" purity="5.8209216594696045e-01" nType="0">
                <Node pos="l" depth="5" NCoef="0" IVar="-1" Cut="0.0000000000000000e+00" cType="1" res="-9.9000000000000000e+01" rms="0.0000000000000000e+00" purity="6.3834756612777710e-01" nType="1"/>
                <Node pos="r" depth="5" NCoef="0" IVar="-1" Cut="0.0000000000000000e+00" cType="1" res="-9.9000000000000000e+01" rms="0.0000000000000000e+00" purity="4.9289309978485107e-01" nType="-1"/>
              </Node>
            </Node>
            <Node pos="r" depth="3" NCoef="0" IVar="-1" Cut="0.0000000000000000e+00" cType="1" res="-9.9000000000000000e+01" rms="0.0000000000000000e+00" purity="5.0241506099700928e-01" nType="1"/>
          </Node>
          <Node pos="r" depth="2" NCoef="0" IVar="15" Cut="2.4767892435193062e-02" cType="0" res="-9.9000000000000000e+01" rms="0.0000000000000000e+00" purity="4.8434749245643616e-01" nType="0">
            <Node pos="l" depth="3" NCoef="0" IVar="-1" Cut="0.0000000000000000e+00" cType="1" res="-9.9000000000000000e+01" rms="0.0000000000000000e+00" purity="5.4697948694229126e-01" nType="1"/>
            <Node pos="r" depth="3" NCoef="0" IVar="-1" Cut="0.0000000000000000e+00" cType="1" res="-9.9000000000000000e+01" rms="0.0000000000000000e+00" purity="4.0459519624710083e-01" nType="-1"/>
          </Node>
        </Node>
        <Node pos="r" depth="1" NCoef="0" IVar="15" Cut="-4.9562153220176697e-01" cType="0" res="-9.9000000000000000e+01" rms="0.0000000000000000e+00" purity="4.5791822671890259e-01" nType="0">
          <Node pos="l" depth="2" NCoef="0" IVar="8" Cut="9.0505474805831909e-01" cType="0" res="-9.9000000000000000e+01" rms="0.0000000000000000e+00" purity="4.9424400925636292e-01" nType="0">
            <Node pos="l" depth="3" NCoef="0" IVar="-1" Cut="0.0000000000000000e+00" cType="1" res="-9.9000000000000000e+01" rms="0.0000000000000000e+00" purity="5.2683550119400024e-01" nType="1"/>
            <Node pos="r" depth="3" NCoef="0" IVar="-1" Cut="0.0000000000000000e+00" cType="1" res="-9.9000000000000000e+01" rms="0.0000000000000000e+00" purity="4.5990803837776184e-01" nType="-1"/>
          </Node>
          <Node pos="r" depth="2" NCoef="0" IVar="-1" Cut="0.0000000000000000e+00" cType="1" res="-9.9000000000000000e+01" rms="0.0000000000000000e+00" purity="3.8248142600059509e-01" nType="-1"/>
        </Node>
      </Node>
    </BinaryTree>
    <BinaryTree type="DecisionTree" boostWeight="1.5272807652436224e-01" itree="18">
      <Node pos="s" depth="0" NCoef="0" IVar="16" Cut="5.4957824945449829e-01" cType="1" res="-9.9000000000000000e+01" rms="0.0000000000000000e+00" purity="5.1613712310791016e-01" nType="0">
        <Node pos="l" depth="1" NCoef="0" IVar="-1" Cut="4.7494196891784668e+00" cType="0" res="-9.9000000000000000e+01" rms="0.0000000000000000e+00" purity="6.2034010887145996e-01" nType="1"/>
        <Node pos="r" depth="1" NCoef="0" IVar="16" Cut="3.3723304271697998e+00" cType="0" res="-9.9000000000000000e+01" rms="0.0000000000000000e+00" purity="4.9892818927764893e-01" nType="0">
          <Node pos="l" depth="2" NCoef="0" IVar="-1" Cut="0.0000000000000000e+00" cType="1" res="-9.9000000000000000e+01" rms="0.0000000000000000e+00" purity="6.2852442264556885e-01" nType="1"/>
          <Node pos="r" depth="2" NCoef="0" IVar="2" Cut="1.6962286233901978e+00" cType="1" res="-9.9000000000000000e+01" rms="0.0000000000000000e+00" purity="4.8737612366676331e-01" nType="0">
            <Node pos="l" depth="3" NCoef="0" IVar="2" Cut="2.3950962722301483e-01" cType="0" res="-9.9000000000000000e+01" rms="0.0000000000000000e+00" purity="5.0328671932220459e-01" nType="0">
              <Node pos="l" depth="4" NCoef="0" IVar="13" Cut="-1.9205298274755478e-02" cType="1" res="-9.9000000000000000e+01" rms="0.0000000000000000e+00" purity="5.3416830301284790e-01" nType="0">
                <Node pos="l" depth="5" NCoef="0" IVar="-1" Cut="0.0000000000000000e+00" cType="1" res="-9.9000000000000000e+01" rms="0.0000000000000000e+00" purity="6.1411076784133911e-01" nType="1"/>
                <Node pos="r" depth="5" NCoef="0" IVar="-1" Cut="0.0000000000000000e+00" cType="1" res="-9.9000000000000000e+01" rms="0.0000000000000000e+00" purity="4.9148553609848022e-01" nType="-1"/>
              </Node>
              <Node pos="r" depth="4" NCoef="0" IVar="16" Cut="2.0281794071197510e+00" cType="1" res="-9.9000000000000000e+01" rms="0.0000000000000000e+00" purity="4.6278259158134460e-01" nType="0">
                <Node pos="l" depth="5" NCoef="0" IVar="-1" Cut="0.0000000000000000e+00" cType="1" res="-9.9000000000000000e+01" rms="0.0000000000000000e+00" purity="5.3448945283889771e-01" nType="1"/>
                <Node pos="r" depth="5" NCoef="0" IVar="-1" Cut="0.0000000000000000e+00" cType="1" res="-9.9000000000000000e+01" rms="0.0000000000000000e+00" purity="3.9223778247833252e-01" nType="-1"/>
              </Node>
            </Node>
            <Node pos="r" depth="3" NCoef="0" IVar="-1" Cut="2.2141611576080322e+00" cType="1" res="-9.9000000000000000e+01" rms="0.0000000000000000e+00" purity="4.0234670042991638e-01" nType="-1"/>
          </Node>
        </Node>
      </Node>
    </BinaryTree>
    <BinaryTree type="DecisionTree" boostWeight="1.3873823361555568e-01" itree="19">
      <Node pos="s" depth="0" NCoef="0" IVar="15" Cut="1.1497781276702881e+00" cType="1" res="-9.9000000000000000e+01" rms="0.0000000000000000e+00" purity="5.1744437217712402e-01" nType="0">
        <Node pos="l" depth="1" NCoef="0" IVar="8" Cut="5.2512127161026001e-01" cType="1" res="-9.9000000000000000e+01" rms="0.0000000000000000e+00" purity="5.3461724519729614e-01" nType="0">
          <Node pos="l" depth="2" NCoef="0" IVar="8" Cut="-1.3745491504669189e+00" cType="0" res="-9.9000000000000000e+01" rms="0.0000000000000000e+00" purity="5.5377882719039917e-01" nType="0">
            <Node pos="l" depth="3" NCoef="0" IVar="14" Cut="1.2882238626480103e+00" cType="1" res="-9.9000000000000000e+01" rms="0.0000000000000000e+00" purity="5.7710713148117065e-01" nType="0">
              <Node pos="l" depth="4" NCoef="0" IVar="-1" Cut="-3.3535292744636536e-01" cType="0" res="-9.9000000000000000e+01" rms="0.0000000000000000e+00" purity="6.0007280111312866e-01" nType="1"/>
              <Node pos="r" depth="4" NCoef="0" IVar="-1" Cut="0.0000000000000000e+00" cType="1" res="-9.9000000000000000e+01" rms="0.0000000000000000e+00" purity="4.9328294396400452e-01" nType="-1"/>
            </Node>
            <Node pos="r" depth="3" NCoef="0" IVar="-1" Cut="0.0000000000000000e+00" cType="1" res="-9.9000000000000000e+01" rms="0.0000000000000000e+00" purity="4.5901983976364136e-01" nType="-1"/>
          </Node>
          <Node pos="r" depth="2" NCoef="0" IVar="-1" Cut="0.0000000000000000e+00" cType="1" res="-9.9000000000000000e+01" rms="0.0000000000000000e+00" purity="4.3792253732681274e-01" nType="-1"/>
        </Node>
        <Node pos="r" depth="1" NCoef="0" IVar="-1" Cut="0.0000000000000000e+00" cType="1" res="-9.9000000000000000e+01" rms="0.0000000000000000e+00" purity="4.3873697519302368e-01" nType="-1"/>
      </Node>
    </BinaryTree>
    <BinaryTree type="DecisionTree" boostWeight="1.3817176626531305e-01" itree="20">
      <Node pos="s" depth="0" NCoef="0" IVar="11" Cut="2.1202542781829834e+00" cType="1" res="-9.9000000000000000e+01" rms="0.0000000000000000e+00" purity="5.2239930629730225e-01" nType="0">
        <Node pos="l" depth="1" NCoef="0" IVar="5" Cut="5.1000219583511353e-01" cType="1" res="-9.9000000000000000e+01" rms="0.0000000000000000e+00" purity="5.3956121206283569e-01" nType="0">
          <Node pos="l" depth="2" NCoef="0" IVar="5" Cut="-1.0556735992431641e+00" cType="0" res="-9.9000000000000000e+01" rms="0.0000000000000000e+00" purity="5.5574679374694824e-01" nType="0">
            <Node pos="l" depth="3" NCoef="0" IVar="3" Cut="4.6251285076141357e-01" cType="1" res="-9.9000000000000000e+01" rms="0.0000000000000000e+00" purity="5.8196884393692017e-01" nType="0">
              <Node pos="l" depth="4" NCoef="0" IVar="-1" Cut="0.0000000000000000e+00" cType="1" res="-9.9000000000000000e+01" rms="0.0000000000000000e+00" purity="6.9920307397842407e-01" nType="1"/>
              <Node pos="r" depth="4" NCoef="0" IVar="12" Cut="9.6186763048171997e-01" cType="1" res="-9.9000000000000000e+01" rms="0.0000000000000000e+00" purity="5.6160789728164673e-01" nType="0">
                <Node pos="l" depth="5" NCoef="0" IVar="-1" Cut="0.0000000000000000e+00" cType="1" res="-9.9000000000000000e+01" rms="0.0000000000000000e+00" purity="5.8270555734634399e-01" nType="1"/>
                <Node pos="r" depth="5" NCoef="0" IVar="-1" Cut="0.0000000000000000e+00" cType="1" res="-9.9000000000000000e+01" rms="0.0000000000000000e+00" purity="4.9555027484893799e-01" nType="-1"/>
              </Node>
            </Node>
            <Node pos="r" depth="3" NCoef="0" IVar="5" Cut="-1.6520833969116211e+00" cType="0" res="-9.9000000000000000e+01" rms="0.0000000000000000e+00" purity="4.7079074382781982e-01" nType="0">
              <Node pos="l" depth="4" NCoef="0" IVar="-1" Cut="0.0000000000000000e+00" cType="1" res="-9.9000000000000000e+01" rms="0.0000000000000000e+00" purity="5.1187235116958618e-01" nType="1"/>
              <Node pos="r" depth="4" NCoef="0" IVar="-1" Cut="0.0000000000000000e+00" cType="1" res="-9.9000000000000000e+01" rms="0.0000000000000000e+00" purity="4.3875077366828918e-01" nType="-1"/>
            </Node>
          </Node>
          <Node pos="r" depth="2" NCoef="0" IVar="-1" Cut="0.0000000000000000e+00" cType="1" res="-9.9000000000000000e+01" rms="0.0000000000000000e+00" purity="4.5060876011848450e-01" nType="-1"/>
        </Node>
        <Node pos="r" depth="1" NCoef="0" IVar="-1" Cut="0.0000000000000000e+00" cType="1" res="-9.9000000000000000e+01" rms="0.0000000000000000e+00" purity="4.3654733896255493e-01" nType="-1"/>
      </Node>
    </BinaryTree>
    <BinaryTree type="DecisionTree" boostWeight="1.5533600010286128e-01" itree="21">
      <Node pos="s" depth="0" NCoef="0" IVar="6" Cut="-1.8707878589630127e+00" cType="0" res="-9.9000000000000000e+01" rms="0.0000000000000000e+00" purity="5.2257567644119263e-01" nType="0">
        <Node pos="l" depth="1" NCoef="0" IVar="6" Cut="1.4117558486759663e-02" cType="1" res="-9.9000000000000000e+01" rms="0.0000000000000000e+00" purity="5.3549915552139282e-01" nType="0">
          <Node pos="l" depth="2" NCoef="0" IVar="3" Cut="5.9844571352005005e-01" cType="1" res="-9.9000000000000000e+01" rms="0.0000000000000000e+00" purity="5.5822324752807617e-01" nType="0">
            <Node pos="l" depth="3" NCoef="0" IVar="-1" Cut="8.7975013256072998e-01" cType="1" res="-9.9000000000000000e+01" rms="0.0000000000000000e+00" purity="6.5642780065536499e-01" nType="1"/>
            <Node pos="r" depth="3" NCoef="0" IVar="3" Cut="2.2734782695770264e+00" cType="1" res="-9.9000000000000000e+01" rms="0.0000000000000000e+00" purity="5.3368014097213745e-01" nType="0">
              <Node pos="l" depth="4" NCoef="0" IVar="-1" Cut="2.6489231586456299e+00" cType="0" res="-9.9000000000000000e+01" rms="0.0000000000000000e+00" purity="5.5581772327423096e-01" nType="1"/>
              <Node pos="r" depth="4" NCoef="0" IVar="13" Cut="9.5501080155372620e-02" cType="1" res="-9.9000000000000000e+01" rms="0.0000000000000000e+00" purity="4.9166819453239441e-01" nType="0">
                <Node pos="l" depth="5" NCoef="0" IVar="-1" Cut="0.0000000000000000e+00" cType="1" res="-9.9000000000000000e+01" rms="0.0000000000000000e+00" purity="5.5053323507308960e-01" nType="1"/>
                <Node pos="r" depth="5" NCoef="0" IVar="-1" Cut="0.0000000000000000e+00" cType="1" res="-9.9000000000000000e+01" rms="0.0000000000000000e+00" purity="4.0728992223739624e-01" nType="-1"/>
              </Node>
            </Node>
          </Node>
          <Node pos="r" depth="2" NCoef="0" IVar="16" Cut="2.2301945686340332e+00" cType="0" res="-9.9000000000000000e+01" rms="0.0000000000000000e+00" purity="4.5951762795448303e-01" nType="0">
            <Node pos="l" depth="3" NCoef="0" IVar="-1" Cut="0.0000000000000000e+00" cType="1" res="-9.9000000000000000e+01" rms="0.0000000000000000e+00" purity="5.4221355915069580e-01" nType="1"/>
            <Node pos="r" depth="3" NCoef="0" IVar="-1" Cut="0.0000000000000000e+00" cType="1" res="-9.9000000000000000e+01" rms="0.0000000000000000e+00" purity="4.1124054789543152e-01" nType="-1"/>
          </Node>
        </Node>
        <Node pos="r" depth="1" NCoef="0" IVar="-1" Cut="0.0000000000000000e+00" cType="1" res="-9.9000000000000000e+01" rms="0.0000000000000000e+00" purity="4.2629200220108032e-01" nType="-1"/>
      </Node>
    </BinaryTree>
    <BinaryTree type="DecisionTree" boostWeight="1.9208662790899431e-01" itree="22">
      <Node pos="s" depth="0" NCoef="0" IVar="2" Cut="7.8641414642333984e-02" cType="0" res="-9.9000000000000000e+01" rms="0.0000000000000000e+00" purity="5.0900238752365112e-01" nType="0">
        <Node pos="l" depth="1" NCoef="0" IVar="16" Cut="2.4323577880859375e+00" cType="0" res="-9.9000000000000000e+01" rms="0.0000000000000000e+00" purity="5.3041797876358032e-01" nType="0">
          <Node pos="l" depth="2" NCoef="0" IVar="-1" Cut="6.8417567014694214e-01" cType="1" res="-9.9000000000000000e+01" rms="0.0000000000000000e+00" purity="5.8184158802032471e-01" nType="1"/>
          <Node pos="r" depth="2" NCoef="0" IVar="2" Cut="1.8634674549102783e+00" cType="1" res="-9.9000000000000000e+01" rms="0.0000000000000000e+00" purity="4.9819207191467285e-01" nType="0">
            <Node pos="l" depth="3" NCoef="0" IVar="0" Cut="-1.9433881342411041e-01" cType="1" res="-9.9000000000000000e+01" rms="0.0000000000000000e+00" purity="5.3172123432159424e-01" nType="0">
              <Node pos="l" depth="4" NCoef="0" IVar="-1" Cut="3.0796724557876587e-01" cType="1" res="-9.9000000000000000e+01" rms="0.0000000000000000e+00" purity="6.0850197076797485e-01" nType="1"/>
              <Node pos="r" depth="4" NCoef="0" IVar="0" Cut="4.8645889759063721e-01" cType="0" res="-9.9000000000000000e+01" rms="0.0000000000000000e+00" purity="4.8603704571723938e-01" nType="0">
                <Node pos="l" depth="5" NCoef="0" IVar="-1" Cut="0.0000000000000000e+00" cType="1" res="-9.9000000000000000e+01" rms="0.0000000000000000e+00" purity="5.9758067131042480e-01" nType="1"/>
                <Node pos="r" depth="5" NCoef="0" IVar="-1" Cut="0.0000000000000000e+00" cType="1" res="-9.9000000000000000e+01" rms="0.0000000000000000e+00" purity="3.7143802642822266e-01" nType="-1"/>
              </Node>
            </Node>
            <Node pos="r" depth="3" NCoef="0" IVar="-1" Cut="0.0000000000000000e+00" cType="1" res="-9.9000000000000000e+01" rms="0.0000000000000000e+00" purity="3.1638872623443604e-01" nType="-1"/>
          </Node>
        </Node>
        <Node pos="r" depth="1" NCoef="0" IVar="16" Cut="2.0333580970764160e+00" cType="1" res="-9.9000000000000000e+01" rms="0.0000000000000000e+00" purity="4.6159142255783081e-01" nType="0">
          <Node pos="l" depth="2" NCoef="0" IVar="0" Cut="-3.9546176791191101e-02" cType="1" res="-9.9000000000000000e+01" rms="0.0000000000000000e+00" purity="5.1608723402023315e-01" nType="0">
            <Node pos="l" depth="3" NCoef="0" IVar="-1" Cut="0.0000000000000000e+00" cType="1" res="-9.9000000000000000e+01" rms="0.0000000000000000e+00" purity="5.7504886388778687e-01" nType="1"/>
            <Node pos="r" depth="3" NCoef="0" IVar="-1" Cut="0.0000000000000000e+00" cType="1" res="-9.9000000000000000e+01" rms="0.0000000000000000e+00" purity="4.8186191916465759e-01" nType="-1"/>
          </Node>
          <Node pos="r" depth="2" NCoef="0" IVar="-1" Cut="1.1480481624603271e+00" cType="1" res="-9.9000000000000000e+01" rms="0.0000000000000000e+00" purity="3.9656427502632141e-01" nType="-1"/>
        </Node>
      </Node>
    </BinaryTree>
    <BinaryTree type="DecisionTree" boostWeight="1.1962969163156507e-01" itree="23">
      <Node pos="s" depth="0" NCoef="0" IVar="14" Cut="1.9325143098831177e+00" cType="1" res="-9.9000000000000000e+01" rms="0.0000000000000000e+00" purity="5.0190186500549316e-01" nType="0">
        <Node pos="l" depth="1" NCoef="0" IVar="15" Cut="1.6267255544662476e+00" cType="1" res="-9.9000000000000000e+01" rms="0.0000000000000000e+00" purity="5.1427251100540161e-01" nType="0">
          <Node pos="l" depth="2" NCoef="0" IVar="10" Cut="4.9157190322875977e+00" cType="0" res="-9.9000000000000000e+01" rms="0.0000000000000000e+00" purity="5.3010797500610352e-01" nType="0">
            <Node pos="l" depth="3" NCoef="0" IVar="-1" Cut="5.4576749801635742e+00" cType="1" res="-9.9000000000000000e+01" rms="0.0000000000000000e+00" purity="5.9046006202697754e-01" nType="1"/>
            <Node pos="r" depth="3" NCoef="0" IVar="3" Cut="4.7726684808731079e-01" cType="1" res="-9.9000000000000000e+01" rms="0.0000000000000000e+00" purity="5.0747644901275635e-01" nType="0">
              <Node pos="l" depth="4" NCoef="0" IVar="-1" Cut="0.0000000000000000e+00" cType="1" res="-9.9000000000000000e+01" rms="0.0000000000000000e+00" purity="5.9110361337661743e-01" nType="1"/>
              <Node pos="r" depth="4" NCoef="0" IVar="13" Cut="9.9598151445388794e-01" cType="0" res="-9.9000000000000000e+01" rms="0.0000000000000000e+00" purity="4.9359130859375000e-01" nType="0">
                <Node pos="l" depth="5" NCoef="0" IVar="-1" Cut="0.0000000000000000e+00" cType="1" res="-9.9000000000000000e+01" rms="0.0000000000000000e+00" purity="5.4770249128341675e-01" nType="1"/>
                <Node pos="r" depth="5" NCoef="0" IVar="-1" Cut="0.0000000000000000e+00" cType="1" res="-9.9000000000000000e+01" rms="0.0000000000000000e+00" purity="4.7001805901527405e-01" nType="-1"/>
              </Node>
            </Node>
          </Node>
          <Node pos="r" depth="2" NCoef="0" IVar="-1" Cut="0.0000000000000000e+00" cType="1" res="-9.9000000000000000e+01" rms="0.0000000000000000e+00" purity="4.3676504492759705e-01" nType="-1"/>
        </Node>
        <Node pos="r" depth="1" NCoef="0" IVar="-1" Cut="0.0000000000000000e+00" cType="1" res="-9.9000000000000000e+01" rms="0.0000000000000000e+00" purity="4.2739000916481018e-01" nType="-1"/>
      </Node>
    </BinaryTree>
    <BinaryTree type="DecisionTree" boostWeight="1.1097849101191753e-01" itree="24">
      <Node pos="s" depth="0" NCoef="0" IVar="1" Cut="2.0127937793731689e+00" cType="0" res="-9.9000000000000000e+01" rms="0.0000000000000000e+00" purity="5.0776773691177368e-01" nType="0">
        <Node pos="l" depth="1" NCoef="0" IVar="-1" Cut="0.0000000000000000e+00" cType="1" res="-9.9000000000000000e+01" rms="0.0000000000000000e+00" purity="6.2554889917373657e-01" nType="1"/>
        <Node pos="r" depth="1" NCoef="0" IVar="16" Cut="5.4731601476669312e-01" cType="1" res="-9.9000000000000000e+01" rms="0.0000000000000000e+00" purity="5.0052738189697266e-01" nType="0">
          <Node pos="l" depth="2" NCoef="0" IVar="3" Cut="1.4581810235977173e+00" cType="1" res="-9.9000000000000000e+01" rms="0.0000000000000000e+00" purity="5.7108056545257568e-01" nType="0">
            <Node pos="l" depth="3" NCoef="0" IVar="-1" Cut="0.0000000000000000e+00" cType="1" res="-9.9000000000000000e+01" rms="0.0000000000000000e+00" purity="6.5455681085586548e-01" nType="1"/>
            <Node pos="r" depth="3" NCoef="0" IVar="-1" Cut="0.0000000000000000e+00" cType="1" res="-9.9000000000000000e+01" rms="0.0000000000000000e+00" purity="4.9726733565330505e-01" nType="-1"/>
          </Node>
          <Node pos="r" depth="2" NCoef="0" IVar="2" Cut="2.1522455215454102e+00" cType="1" res="-9.9000000000000000e+01" rms="0.0000000000000000e+00" purity="4.8965513706207275e-01" nType="0">
            <Node pos="l" depth="3" NCoef="0" IVar="5" Cut="-1.1245709657669067e+00" cType="0" res="-9.9000000000000000e+01" rms="0.0000000000000000e+00" purity="4.9808913469314575e-01" nType="0">
              <Node pos="l" depth="4" NCoef="0" IVar="13" Cut="-7.7378883957862854e-02" cType="1" res="-9.9000000000000000e+01" rms="0.0000000000000000e+00" purity="5.1070994138717651e-01" nType="0">
                <Node pos="l" depth="5" NCoef="0" IVar="-1" Cut="0.0000000000000000e+00" cType="1" res="-9.9000000000000000e+01" rms="0.0000000000000000e+00" purity="5.9190541505813599e-01" nType="1"/>
                <Node pos="r" depth="5" NCoef="0" IVar="-1" Cut="0.0000000000000000e+00" cType="1" res="-9.9000000000000000e+01" rms="0.0000000000000000e+00" purity="4.8018860816955566e-01" nType="-1"/>
              </Node>
              <Node pos="r" depth="4" NCoef="0" IVar="-1" Cut="-4.4506114721298218e-01" cType="1" res="-9.9000000000000000e+01" rms="0.0000000000000000e+00" purity="4.4659069180488586e-01" nType="-1"/>
            </Node>
            <Node pos="r" depth="3" NCoef="0" IVar="-1" Cut="0.0000000000000000e+00" cType="1" res="-9.9000000000000000e+01" rms="0.0000000000000000e+00" purity="3.9458507299423218e-01" nType="-1"/>
          </Node>
        </Node>
      </Node>
    </BinaryTree>
    <BinaryTree type="DecisionTree" boostWeight="9.6858033634274782e-02" itree="25">
      <Node pos="s" depth="0" NCoef="0" IVar="12" Cut="2.4936122894287109e+00" cType="1" res="-9.9000000000000000e+01" rms="0.0000000000000000e+00" purity="5.2000415325164795e-01" nType="0">
        <Node pos="l" depth="1" NCoef="0" IVar="11" Cut="2.4065980911254883e+00" cType="1" res="-9.9000000000000000e+01" rms="0.0000000000000000e+00" purity="5.2866935729980469e-01" nType="0">
          <Node pos="l" depth="2" NCoef="0" IVar="14" Cut="1.9325143098831177e+00" cType="1" res="-9.9000000000000000e+01" rms="0.0000000000000000e+00" purity="5.3874343633651733e-01" nType="0">
            <Node pos="l" depth="3" NCoef="0" IVar="-1" Cut="4.6123576164245605e-01" cType="1" res="-9.9000000000000000e+01" rms="0.0000000000000000e+00" purity="5.5047398805618286e-01" nType="1"/>
            <Node pos="r" depth="3" NCoef="0" IVar="-1" Cut="0.0000000000000000e+00" cType="1" res="-9.9000000000000000e+01" rms="0.0000000000000000e+00" purity="4.7170928120613098e-01" nType="-1"/>
          </Node>
          <Node pos="r" depth="2" NCoef="0" IVar="-1" Cut="0.0000000000000000e+00" cType="1" res="-9.9000000000000000e+01" rms="0.0000000000000000e+00" purity="4.5952817797660828e-01" nType="-1"/>
        </Node>
        <Node pos="r" depth="1" NCoef="0" IVar="-1" Cut="0.0000000000000000e+00" cType="1" res="-9.9000000000000000e+01" rms="0.0000000000000000e+00" purity="4.3176552653312683e-01" nType="-1"/>
      </Node>
    </BinaryTree>
    <BinaryTree type="DecisionTree" boostWeight="1.2769022986894943e-01" itree="26">
      <Node pos="s" depth="0" NCoef="0" IVar="5" Cut="6.6027164459228516e-02" cType="1" res="-9.9000000000000000e+01" rms="0.0000000000000000e+00" purity="5.1152127981185913e-01" nType="0">
        <Node pos="l" depth="1" NCoef="0" IVar="5" Cut="-1.3883873224258423e+00" cType="0" res="-9.9000000000000000e+01" rms="0.0000000000000000e+00" purity="5.2699565887451172e-01" nType="0">
          <Node pos="l" depth="2" NCoef="0" IVar="3" Cut="4.6251285076141357e-01" cType="1" res="-9.9000000000000000e+01" rms="0.0000000000000000e+00" purity="5.4520255327224731e-01" nType="0">
            <Node pos="l" depth="3" NCoef="0" IVar="-1" Cut="0.0000000000000000e+00" cType="1" res="-9.9000000000000000e+01" rms="0.0000000000000000e+00" purity="6.3234418630599976e-01" nType="1"/>
            <Node pos="r" depth="3" NCoef="0" IVar="13" Cut="-3.2702781260013580e-02" cType="1" res="-9.9000000000000000e+01" rms="0.0000000000000000e+00" purity="5.2983891963958740e-01" nType="0">
              <Node pos="l" depth="4" NCoef="0" IVar="-1" Cut="0.0000000000000000e+00" cType="1" res="-9.9000000000000000e+01" rms="0.0000000000000000e+00" purity="5.8574628829956055e-01" nType="1"/>
              <Node pos="r" depth="4" NCoef="0" IVar="15" Cut="7.5928807258605957e-02" cType="1" res="-9.9000000000000000e+01" rms="0.0000000000000000e+00" purity="5.0323039293289185e-01" nType="0">
                <Node pos="l" depth="5" NCoef="0" IVar="-1" Cut="0.0000000000000000e+00" cType="1" res="-9.9000000000000000e+01" rms="0.0000000000000000e+00" purity="5.4061585664749146e-01" nType="1"/>
                <Node pos="r" depth="5" NCoef="0" IVar="-1" Cut="0.0000000000000000e+00" cType="1" res="-9.9000000000000000e+01" rms="0.0000000000000000e+00" purity="4.4899421930313110e-01" nType="-1"/>
              </Node>
            </Node>
          </Node>
          <Node pos="r" depth="2" NCoef="0" IVar="-1" Cut="1.3507440090179443e+00" cType="1" res="-9.9000000000000000e+01" rms="0.0000000000000000e+00" purity="4.5291090011596680e-01" nType="-1"/>
        </Node>
        <Node pos="r" depth="1" NCoef="0" IVar="16" Cut="1.8845478296279907e+00" cType="0" res="-9.9000000000000000e+01" rms="0.0000000000000000e+00" purity="4.6369546651840210e-01" nType="0">
          <Node pos="l" depth="2" NCoef="0" IVar="10" Cut="3.7702710628509521e+00" cType="1" res="-9.9000000000000000e+01" rms="0.0000000000000000e+00" purity="4.9807190895080566e-01" nType="0">
            <Node pos="l" depth="3" NCoef="0" IVar="-1" Cut="0.0000000000000000e+00" cType="1" res="-9.9000000000000000e+01" rms="0.0000000000000000e+00" purity="5.3642386198043823e-01" nType="1"/>
            <Node pos="r" depth="3" NCoef="0" IVar="-1" Cut="0.0000000000000000e+00" cType="1" res="-9.9000000000000000e+01" rms="0.0000000000000000e+00" purity="4.5492458343505859e-01" nType="-1"/>
          </Node>
          <Node pos="r" depth="2" NCoef="0" IVar="-1" Cut="0.0000000000000000e+00" cType="1" res="-9.9000000000000000e+01" rms="0.0000000000000000e+00" purity="4.1226398944854736e-01" nType="-1"/>
        </Node>
      </Node>
    </BinaryTree>
    <BinaryTree type="DecisionTree" boostWeight="1.0482034290952524e-01" itree="27">
      <Node pos="s" depth="0" NCoef="0" IVar="10" Cut="3.1287605762481689e+00" cType="0" res="-9.9000000000000000e+01" rms="0.0000000000000000e+00" purity="5.0894629955291748e-01" nType="0">
        <Node pos="l" depth="1" NCoef="0" IVar="0" Cut="1.2147171497344971e+00" cType="0" res="-9.9000000000000000e+01" rms="0.0000000000000000e+00" purity="5.1946687698364258e-01" nType="0">
          <Node pos="l" depth="2" NCoef="0" IVar="-1" Cut="0.0000000000000000e+00" cType="1" res="-9.9000000000000000e+01" rms="0.0000000000000000e+00" purity="5.9347361326217651e-01" nType="1"/>
